<?xml version="1.0"?>
<opencv_storage>
<opencv_ml_ann_mlp>
  <format>3</format>
  <layer_sizes>
    108 68 34</layer_sizes>
  <activation_function>SIGMOID_SYM</activation_function>
  <f_param1>1.</f_param1>
  <f_param2>1.</f_param2>
  <min_val>-9.4999999999999996e-01</min_val>
  <max_val>9.4999999999999996e-01</max_val>
  <min_val1>-9.7999999999999998e-01</min_val1>
  <max_val1>9.7999999999999998e-01</max_val1>
  <training_params>
    <train_method>BACKPROP</train_method>
    <dw_scale>1.0000000000000001e-01</dw_scale>
    <moment_scale>0.</moment_scale>
    <term_criteria>
      <epsilon>1.0000000000000000e-04</epsilon>
      <iterations>30000</iterations></term_criteria></training_params>
  <input_scale>
    8.1085096083250043e+00 -1.9903542627135817e+00
    8.6366374838843001e+00 -6.6727797223308616e-01
    7.9756884884592685e+00 -1.8465033405026763e+00
    7.1466498633353694e+00 -1.7322911711252988e+00
    1.9623397930987586e+01 -7.4845308097011154e-01
    7.4371992197073933e+00 -1.7501435612131924e+00
    1.2194465278717356e+01 -4.4894486859934792e+00
    7.5580227312038835e+00 -1.6775381535621567e+00
    1.0814418099789778e+01 -3.7778649073669808e+00
    1.0213616525478052e+01 -3.6619801874078948e+00
    8.0970876990351623e+00 -1.5496547191024426e+00
    9.7755155241496787e+00 -3.4450821072141369e+00
    7.5258084235827134e+00 -1.6485258238698781e+00
    1.6493808514622035e+01 -6.8697992089735249e-01
    7.0125906513925029e+00 -1.6026900978773431e+00
    6.8826704524066091e+00 -1.5545975487720660e+00
    1.0626357542936159e+01 -6.6068104802643468e-01
    7.6307289205966686e+00 -1.7074644998604922e+00
    1.1845929749022543e+01 -4.4115548228067043e+00
    7.2779113105240407e+00 -1.4119013473574105e+00
    1.1104272650779258e+01 -3.9757248643975012e+00
    8.1255651864394753e+00 -2.8241803264742531e+00
    6.4863743727285073e+00 -1.4498904026382995e+00
    1.3845602525277965e+01 -5.2777147874654702e+00
    7.5145890998653782e+00 -1.7314396456178300e+00
    1.4202298296152511e+01 -6.8182576247959081e-01
    7.3967153162047339e+00 -1.5526870234671384e+00
    8.2407090198505433e+00 -2.0204103269020086e+00
    1.2353803021940069e+01 -8.8377000022363927e-01
    7.8961694287079949e+00 -2.0595993009561178e+00
    1.2706030947423137e+01 -4.6058013068400712e+00
    7.2433997255856610e+00 -1.2461090672798696e+00
    1.3238591134497863e+01 -4.7437734751089415e+00
    1.2785734006711856e+01 -4.7024126215936395e+00
    7.5557665312977749e+00 -1.8610719332503300e+00
    1.6280233364141772e+01 -6.1093709243306025e+00
    1.5938404764248643e+01 -4.9196511577611739e+00
    8.7964514308348765e+00 -2.1244000532851790e+00
    1.1147591950746188e+01 -2.8829605466583610e+00
    1.8400171165264560e+01 -5.7531902878030063e+00
    8.8597632432339992e+00 -1.8411193729263491e+00
    1.3586832218406007e+01 -4.0150207582650825e+00
    1.1374336882709171e+01 -3.2173848935177540e+00
    9.0664790546694434e+00 -2.2348761478719013e+00
    1.0671133525570593e+01 -3.0126078247160697e+00
    1.0522007669449831e+01 -3.0286740567908579e+00
    9.0885568290791792e+00 -2.0520386143094482e+00
    1.5359736366163309e+01 -4.6971475943294507e+00
    1.0687660737945764e+01 -3.0261743006527064e+00
    7.6022485199263423e+00 -1.5584508582429670e+00
    1.2157756802286993e+01 -3.4437664925083982e+00
    1.0109600973093032e+01 -2.9754331539403629e+00
    7.7122518908061828e+00 -1.6544050980450413e+00
    1.2281400101149860e+01 -3.5559801464335985e+00
    9.8236845845219474e+00 -2.7451087744783869e+00
    7.9648333239155775e+00 -1.7492119908748411e+00
    1.2452446434616697e+01 -3.6620266804081338e+00
    1.3548155973400556e+01 -4.1779976589094066e+00
    7.9910074575624472e+00 -1.7984494701661313e+00
    1.2617519309693813e+01 -3.8466429543044023e+00
    1.2445640830549289e+01 -3.7196618110181108e+00
    9.1980797949916724e+00 -1.6782574044181344e+00
    1.5001914993234056e+01 -4.4346777507811153e+00
    1.3723857130469394e+01 -4.0789793290344853e+00
    8.1635591289183083e+00 -1.9956148480265010e+00
    1.4886930414601105e+01 -4.5397339555786065e+00
    1.5696532006125892e+01 -4.9337402254841320e+00
    9.4132872681077231e+00 -1.7336311099632904e+00
    1.2025737424335466e+01 -3.5026616225655642e+00
    1.3700791573355820e+01 -4.2048720758627285e+00
    8.4060467857603367e+00 -2.1097952321226066e+00
    1.1659134453369425e+01 -3.1753683322720181e+00
    1.1535090928315503e+01 -4.1627950054186558e+00
    7.7807047214716478e+00 -1.7830487337541134e+00
    1.0532018167742626e+01 -3.6894194297762235e+00
    9.0159751813387281e+00 -3.0578586044801499e+00
    7.2926942575727844e+00 -1.5054616890124553e+00
    1.2438542223379564e+01 -4.5953424497736970e+00
    8.3667516206198034e+00 -2.0540258329664343e+00
    1.0608524006807237e+01 -8.5607082662767486e-01
    7.9466512826691549e+00 -1.8603703452305933e+00
    7.2400465687908087e+00 -1.6194430759783092e+00
    1.3893082194663105e+01 -8.4965789323714158e-01
    7.9423490817766655e+00 -1.8290036317013516e+00
    7.9184203565580980e+00 -2.6108864633028723e+00
    7.5589755127281979e+00 -1.5590326593124073e+00
    1.1208384959793165e+01 -4.1062676781397656e+00
    1.2662822437284532e+01 -4.7424537727448657e+00
    8.2277440598180203e+00 -1.5508218210907212e+00
    1.0626590858086569e+01 -3.8030255962201567e+00
    7.3740091878900031e+00 -1.6102822282193230e+00
    1.5354160765845805e+01 -8.8333056329392634e-01
    8.4832064759166528e+00 -1.9785171943718867e+00
    8.4018172682928096e+00 -2.1302727030603203e+00
    1.3309403735647624e+01 -7.9905028069746409e-01
    7.2061158609858298e+00 -1.8643858585257860e+00
    1.0292126035067877e+01 -3.8472306482979866e+00
    7.3519652352725728e+00 -1.1813927475585844e+00
    8.9893759612429882e+00 -3.1101995584948803e+00
    1.0577241001470005e+01 -3.8232980580032638e+00
    8.1502471396816372e+00 -1.8731697394408440e+00
    9.6624984871005584e+00 -3.3092502703402444e+00
    7.3705008950822144e+00 -1.8341515819458911e+00
    1.5050318379226347e+01 -7.3920380245072115e-01
    7.4011083436862677e+00 -1.7502795362667571e+00
    7.7262674296396678e+00 -1.9765638780788926e+00
    9.3890638325539459e+00 -8.1303441267640808e-01
    7.3629222816083626e+00 -1.7125639820551051e+00</input_scale>
  <output_scale>
    5.2631578947368418e-01 4.9999999999999994e-01 5.2631578947368418e-01
    4.9999999999999994e-01 5.2631578947368418e-01 4.9999999999999994e-01
    5.2631578947368418e-01 4.9999999999999994e-01 5.2631578947368418e-01
    4.9999999999999994e-01 5.2631578947368418e-01 4.9999999999999994e-01
    5.2631578947368418e-01 4.9999999999999994e-01 5.2631578947368418e-01
    4.9999999999999994e-01 5.2631578947368418e-01 4.9999999999999994e-01
    5.2631578947368418e-01 4.9999999999999994e-01 5.2631578947368418e-01
    4.9999999999999994e-01 5.2631578947368418e-01 4.9999999999999994e-01
    5.2631578947368418e-01 4.9999999999999994e-01 5.2631578947368418e-01
    4.9999999999999994e-01 5.2631578947368418e-01 4.9999999999999994e-01
    5.2631578947368418e-01 4.9999999999999994e-01 5.2631578947368418e-01
    4.9999999999999994e-01 5.2631578947368418e-01 4.9999999999999994e-01
    5.2631578947368418e-01 4.9999999999999994e-01 5.2631578947368418e-01
    4.9999999999999994e-01 5.2631578947368418e-01 4.9999999999999994e-01
    5.2631578947368418e-01 4.9999999999999994e-01 5.2631578947368418e-01
    4.9999999999999994e-01 5.2631578947368418e-01 4.9999999999999994e-01
    5.2631578947368418e-01 4.9999999999999994e-01 5.2631578947368418e-01
    4.9999999999999994e-01 5.2631578947368418e-01 4.9999999999999994e-01
    5.2631578947368418e-01 4.9999999999999994e-01 5.2631578947368418e-01
    4.9999999999999994e-01 5.2631578947368418e-01 4.9999999999999994e-01
    5.2631578947368418e-01 4.9999999999999994e-01 5.2631578947368418e-01
    4.9999999999999994e-01 5.2631578947368418e-01 4.9999999999999994e-01
    5.2631578947368418e-01 4.9999999999999994e-01</output_scale>
  <inv_output_scale>
    1.8999999999999999e+00 -9.4999999999999996e-01
    1.8999999999999999e+00 -9.4999999999999996e-01
    1.8999999999999999e+00 -9.4999999999999996e-01
    1.8999999999999999e+00 -9.4999999999999996e-01
    1.8999999999999999e+00 -9.4999999999999996e-01
    1.8999999999999999e+00 -9.4999999999999996e-01
    1.8999999999999999e+00 -9.4999999999999996e-01
    1.8999999999999999e+00 -9.4999999999999996e-01
    1.8999999999999999e+00 -9.4999999999999996e-01
    1.8999999999999999e+00 -9.4999999999999996e-01
    1.8999999999999999e+00 -9.4999999999999996e-01
    1.8999999999999999e+00 -9.4999999999999996e-01
    1.8999999999999999e+00 -9.4999999999999996e-01
    1.8999999999999999e+00 -9.4999999999999996e-01
    1.8999999999999999e+00 -9.4999999999999996e-01
    1.8999999999999999e+00 -9.4999999999999996e-01
    1.8999999999999999e+00 -9.4999999999999996e-01
    1.8999999999999999e+00 -9.4999999999999996e-01
    1.8999999999999999e+00 -9.4999999999999996e-01
    1.8999999999999999e+00 -9.4999999999999996e-01
    1.8999999999999999e+00 -9.4999999999999996e-01
    1.8999999999999999e+00 -9.4999999999999996e-01
    1.8999999999999999e+00 -9.4999999999999996e-01
    1.8999999999999999e+00 -9.4999999999999996e-01
    1.8999999999999999e+00 -9.4999999999999996e-01
    1.8999999999999999e+00 -9.4999999999999996e-01
    1.8999999999999999e+00 -9.4999999999999996e-01
    1.8999999999999999e+00 -9.4999999999999996e-01
    1.8999999999999999e+00 -9.4999999999999996e-01
    1.8999999999999999e+00 -9.4999999999999996e-01
    1.8999999999999999e+00 -9.4999999999999996e-01
    1.8999999999999999e+00 -9.4999999999999996e-01
    1.8999999999999999e+00 -9.4999999999999996e-01
    1.8999999999999999e+00 -9.4999999999999996e-01</inv_output_scale>
  <weights>
    <_>
      6.8767484147871635e-02 2.8415986685149819e-01
      -5.0089176977448968e-01 -6.1254957191007076e-01
      6.0296826395635078e-02 1.5065820393159264e+00
      -1.2923515360867724e-01 1.8527267461825543e+00
      5.8262176287543044e-02 4.7824556168227245e-01
      -4.4934047081195666e-01 1.4936221708298233e-01
      -1.9395739340577953e-01 6.2822920687760597e-01
      -5.0737707358055917e-01 7.8712649676055269e-01
      -3.0684096880181788e+00 1.9858589592615872e-01
      7.5630417907456415e-01 1.4462586514079168e-01
      8.1421069821442327e-01 1.4134839213866829e-01
      -6.0253642841221866e-01 2.9380052519367261e+00
      -3.6794432470968025e-01 2.7788745274476806e-01
      7.7575089938048747e-01 -1.5420520320580878e-02
      1.0509099864059372e-01 -6.7439667626593591e-01
      -3.8513888719188143e-02 4.6231924773356869e-01
      -1.3288148317314814e+00 2.1023319465999749e-01
      8.0807050400523495e-01 4.6845696094817985e-01
      -1.9653339585250362e-01 -1.0263917708380701e+00
      6.1619912437565183e-01 2.0116625768681262e-01
      9.1402415438995144e-01 2.0445800890642385e-01
      7.4724519134885881e-01 1.1825303942592289e+00
      -1.7317921003456727e-01 -7.0484948943060621e-01
      1.8017792719293488e-01 1.1113716568224892e+00
      -2.0875132044779345e+00 1.2016912835822369e-01
      -1.8440580428763051e-01 8.9684827774882170e-01
      5.8336895995172688e-01 -2.7772404754157337e-01
      -7.5014729136594682e-02 1.8406048269310776e-01
      -1.1415088622612896e-01 4.0636681774852262e-01
      1.0573695572796193e+00 -4.5417810393999164e-01
      -1.5718383785221535e-01 2.3463823405566065e-02
      8.2350506326163098e-01 1.1486257158917204e-01
      -6.1315292475426186e-01 -5.1495203813235912e-01
      7.8321846103483783e-01 -2.0449416057080469e-01
      -6.7687672412715871e-01 -2.5613830760604295e-01
      -8.1698853291515605e-02 9.7311301508762560e-01
      -4.1679361945409271e-01 4.3726598981159470e-01
      1.7638406792514255e-01 2.1098631646169350e+00
      -1.8724955528583889e-03 -8.3717223194202806e-01
      3.8209677749247223e-01 -4.0740151512054379e-01
      5.5289250458371020e-01 1.2464330777654038e+00
      -4.1894012624638544e-01 -5.1665030373168030e-01
      -2.2888339249185159e+00 2.5140694652544437e-01
      -8.0460710870538898e-01 -3.7913425794960437e-01
      1.7344454814339980e+00 6.7672530617593096e-01
      -3.0066005929838863e-01 1.6721755238226303e+00
      -5.5405205288998327e-01 4.0366813046243044e-01
      -1.2024367686996906e+00 9.5129108631567527e-01
      1.2842717029828643e-01 -1.3088725894975028e+00
      -6.9594679412642788e-02 -1.3978670065707315e+00
      -7.1823779697078838e-01 -5.8813906299304164e-01
      -5.9048901617852989e-01 -5.2095179434371797e-01
      2.0428379186414500e-01 -5.8613271413590950e-01
      6.3462658945226136e-01 -1.3288104607390734e+00
      9.3852938294776589e-01 -3.2711887359147501e-01
      1.9030938392940389e-02 6.5493335342176007e-01
      -2.4914647057942155e-01 -4.5655393197542016e-01
      6.7709076335204940e-02 -2.7234632712267626e-01
      -9.4540530561477887e-01 8.2950915125121497e-02
      2.0578208150930286e-01 -4.5445550906640947e-01
      9.3861874033692883e-01 2.9852410517310213e-01
      -2.1359896796210278e-02 7.6932780676201851e-01
      -6.6337623963322556e-01 -1.2028133662395859e+00
      -3.6427406755879133e-02 4.7216645374025901e-01
      5.3348801765577492e-01 2.3631705304625317e-01
      2.5477510002099346e-01 6.1851764430573652e-01
      4.2466951783139828e-01 8.1779854999618395e-01
      -2.7352575415467782e-02 8.1339318748875133e-01
      -1.0697770071737016e-01 1.2901261656313070e+00
      1.8199063336957144e-01 2.1398794827278605e-01
      7.3803389960250676e-01 1.9834842963475010e-02
      -1.9027184490274190e-01 -4.4441138245480722e+00
      7.0196418431923158e-01 -8.2960587941840150e-02
      -7.7888125737096381e-01 -1.4536252901384222e-01
      -3.5812046668391989e-01 -5.7248607079076419e-01
      -1.5515441413511006e+00 -1.2151741028666521e+00
      5.4470583121927199e+00 -6.4762568418294364e-02
      4.7825883186102336e-01 -1.9858968742695740e-01
      -2.1623519602079959e+00 -5.3192501063410391e-01
      -8.9915496516450066e-01 -4.2254220426922924e+00
      -3.7362056334436039e-01 -9.0941893864055479e-01
      6.3295681943217708e-01 -1.6930244711354454e+00
      -2.5950505251346184e-01 7.2789941433798588e-01
      -7.6860950126232355e-02 9.2404369722726254e-01
      1.8153462151046325e+00 -4.7457552375443784e-01
      3.6235967257649110e-01 -6.0422248619833885e-01
      8.7154979876308686e-02 -3.7387621098956814e-01
      6.1256582539027415e-01 -8.3290185919373994e-01
      -1.2577577336674899e+00 7.2017289986912625e-01
      -2.4568742455985490e-01 -1.7519008239528860e-01
      -7.9294361757206910e-01 -3.5627931174975808e-01
      9.3324235961693147e-01 -1.4340608090998284e+00
      1.9860470816422178e+00 -7.8659012553431173e-01
      -2.8232481004201765e-01 1.3846196261258854e+00
      -2.4121082682300226e+00 1.8337382713122741e-01
      2.3000454277611205e-02 4.8606686783901759e-01
      1.1287481551464564e+00 -6.5389679847727408e-02
      -3.1014787705420233e+00 2.2869093909911870e-01
      4.1596468775529144e-01 -3.6866625722798269e-01
      -2.8085185627912285e-01 -3.6874529376280281e-02
      -8.1375044381782990e-01 5.8506848803509592e-01
      6.1497676012769897e-01 -1.0124628015590023e+00
      2.3922100732190826e-01 -5.5246870883927700e-03
      -7.6719617812255211e-02 -6.2662020565143639e-01
      2.3309512896950466e-01 -5.0468150616585994e-01
      5.6859607589967709e-01 2.9255649514671758e-02
      -2.8596192189434910e-01 8.6487639544295669e-01
      3.9466811772084628e-03 3.1774882349570205e-01
      -3.5519219279584646e-01 1.4120830564441478e-01
      7.5201828331598608e-01 8.0067466772976881e-02
      2.0680906186460657e-01 3.1085452925715778e-02
      3.7874400598325325e-01 -2.9450428290985070e-01
      -2.5993245394463138e-01 -3.2664979060145433e-01
      1.9399815920384089e-01 1.1391811031037082e+00
      -2.7096227132123768e-01 7.1872737635632933e-01
      7.1954754893677775e-01 -6.4192998972173998e-01
      8.9270781019424691e-02 -7.5552817472560085e-01
      2.7845457164975934e-01 4.8405672186708110e-01
      -1.0599062318334018e+00 7.7899535671559383e-01
      1.7246770961190747e-01 6.1258531242325309e-01
      -3.3734529766490035e-01 -1.6525072520013845e-01
      -4.8381607247381447e-01 6.8874724396312248e-01
      6.7012011735526988e-01 2.2276682421588756e-01
      2.0237055082592656e-01 -9.4450565707671810e-02
      2.7363274646135727e-01 1.2798374340398580e-01
      -5.9131255021078899e-01 5.8133815568335934e-01
      6.1150725527851241e-03 1.2512331926577877e-01
      -1.5400872881224006e-01 4.1242957513790701e-01
      4.7453862079678139e-01 -1.6024124468321480e-01
      -2.7436270554070746e-01 -7.4181341820529257e-04
      2.9570980991557860e-01 3.5238214744502611e-01
      1.1901135819813797e+00 2.6464627759410980e-02
      -4.3022150576084517e-01 1.5707262303553838e-02
      6.2555668828197200e-02 -4.3662485464781492e-02
      6.9488210781037596e-01 -5.6047094129815334e-01
      2.9255825435610444e-01 -3.7943163332883878e-01
      1.4368117966359034e-01 -8.5184399252312814e-03
      2.1872567631105757e-02 4.6281822647322374e-01
      -5.1426482522521511e-01 -3.7093875158814682e-01
      -2.6831133289727521e-01 -6.1757712261296047e-02
      -1.3829689128124975e-01 2.9315721086043106e-02
      -6.0533621727760256e-01 -1.7917908256744713e-01
      -7.1968436109964021e-02 2.3390104857018625e-02
      1.1725986787990011e-01 4.2232218807990429e-01
      1.0226658971068128e+00 5.8940471104288095e-01
      3.8542837709217220e-01 -5.2566941993401983e-01
      -6.6506507340708454e-01 2.6549038971253147e-01
      5.0445286016450493e-02 -2.0087751448810129e+00
      -2.9040818759323483e-01 3.2963716356746375e-01
      -3.6794052584797232e-02 4.3708638116061305e-01
      -1.7163071807863745e-01 -2.4365505801989729e-01
      -3.7382656869347081e-01 -2.0208010672235065e-02
      8.0206470612287406e-01 5.0108222114875360e-02
      3.1023930541355981e-03 7.5808993368613942e-01
      3.1453775306078696e-01 3.1369822944404774e-01
      -1.7009349691430961e-01 -2.1863353708091571e-01
      1.7349774558827988e-01 -8.5156686713464116e-02
      -2.1535011834854373e-01 -3.7049075638296264e-01
      -3.5199189186928614e-01 -1.4011973517165391e-01
      2.6011816628634703e-02 -9.3677965703352783e-01
      4.7287508950808732e-01 6.5329386263288203e-01
      -6.5722808073085837e-02 -3.3350360304038701e-01
      -3.2462556469058279e-01 -2.8062928166758394e-01
      1.7452029217785150e-01 2.8133078429025210e-01
      -3.4557168952973331e-05 -2.2637927551489473e-01
      -2.9294494105557950e-01 -3.1423682074165016e-01
      4.9607073712730834e-02 -1.2387483423895472e-01
      2.4171964769281912e-01 8.6206612014938483e-02
      1.1734086097768286e-01 -1.9697521381097438e-01
      9.5611148530486023e-02 -1.1182594857320387e-01
      3.3895903663894084e-01 3.2062620525949975e-01
      -6.1676100127179478e-01 -6.1435567115570255e-01
      5.3177848035853159e-01 5.8012274553023824e-01
      1.3341710146638988e-01 1.2343259177368313e+00
      -3.4697076135205490e-01 6.7045758535533218e-01
      -2.8201555362705677e-01 3.8636310026069870e-01
      -4.6428140792970651e-01 -9.2042811513834677e-01
      -4.3406430872219424e-02 5.3439135715008734e-01
      -1.9379909457383346e+00 5.5385441887495868e-01
      2.7879731805888636e-01 2.0274617047268650e-01
      4.6641215333352537e-01 -8.2127658508018020e-01
      9.3142513981843500e-01 2.3497208653676114e+00
      9.4507478771679639e-03 8.2597626014387826e-01
      7.9030468981577917e-01 -4.8075608168835532e-01
      -3.1830043817792608e-01 2.7953400762127645e-01
      -1.1621788828537195e-01 1.8678867892066080e+00
      -1.3074350306462492e+00 6.0583170902275429e-01
      8.9146529052093004e-01 5.9384845869481528e-01
      -1.3682515810416290e-01 1.6792506621763900e-01
      -1.1719215570309417e-01 8.2443082875505203e-01
      9.3965504738634409e-01 2.8790350274411636e-01
      6.2532938149747197e-01 9.4653559176948243e-01
      4.1906522549960845e-01 2.1913841636538517e-01
      2.5942268221933568e-01 7.4616787157191167e-01
      -2.0859030274311667e+00 6.5575559675637482e-02
      1.7648338442607506e-02 1.4452018032125129e+00
      8.8398774285988146e-01 6.3683869749738373e-02
      -8.0117648139846037e-02 -4.4933231773599280e-01
      7.9171314304517987e-02 7.8073919571154737e-01
      1.0720985600913258e+00 -2.4136298250947216e-01
      -1.2014669606513251e-01 2.6548685938685634e-01
      7.7329433649531421e-01 -2.0913088772633182e-01
      -1.1436609372098777e-02 -8.9536684893751484e-01
      4.6065914601365493e-01 -1.0676112866000649e+00
      1.9215537964062737e-01 -2.8582383902161962e-01
      -1.1390702509486007e-01 5.6311427439207573e-01
      1.1152878749083721e-01 -3.1710265783684416e-01
      -2.4438620822315160e-01 9.6215128244059575e-02
      -9.7646223852587011e-01 1.8873670087898925e-01
      -7.1558580410348616e-01 3.8620004187693024e-01
      -3.0463016493835138e-01 -3.9800908310924055e-01
      5.2934869744510826e-01 6.9170315207340849e-01
      -3.5914201738845569e-01 5.4852153055155961e-01
      6.1956018843144389e-01 8.2859024920755386e-01
      7.2991334409901265e-01 -2.4577160015536043e-01
      2.5001997791987657e-01 1.9228464683465823e-01
      7.9567371269921805e-02 -2.7262835223985776e-01
      5.5636682705608365e-01 5.1201112365508206e-01
      -3.5014929214149848e-01 -2.4304869514483288e-01
      3.8985071911376429e-01 -8.6728145911698418e-02
      -4.7410312844786906e-01 3.8479770548819753e-01
      2.2935390535189651e-01 4.9478668501477863e-01
      -6.5978119540125268e-01 -5.3250642891735596e-02
      -1.7018489717864488e-01 -7.8000592024316334e-02
      4.0344631149753635e-01 2.4571266977480802e-01
      4.4949362098521205e-02 -4.0957253225876955e-01
      3.2898739853811337e-02 -7.9582596620218293e-01
      -7.1339266889529285e-01 2.7352262832076724e-01
      -1.5669542024996028e-01 -1.3441825169369281e-01
      -3.8771849506182898e-01 -1.2480185125879796e-01
      1.5727388539773783e+00 -4.1722852871102867e-01
      -1.0406599147108560e-01 -2.9109781168028509e-01
      -6.8451255549353696e-01 1.0276987770104000e+00
      1.0777880162269131e+00 -1.0828129509032483e+00
      -9.4636637387087741e-01 3.4370713036999545e-01
      5.7119980769393418e-02 -1.2113128090171077e-01
      1.9105414520538688e-01 9.3231193723079656e-02
      6.0090485767865476e-01 -5.9892830259682273e-01
      -9.6934034086956625e-02 -3.0843290955121105e-01
      -7.2656678755245885e-01 3.6311154980919130e-01
      5.3372272870255022e-01 1.7888864167878586e+00
      8.0702922726110216e-01 1.3669701235627021e+00
      -1.6169587942983338e-01 5.1887425530226439e-01
      -1.1473754220212248e-01 -2.8475872004563663e-01
      -1.1938438637839451e-01 -5.0608031065651504e-01
      -3.9472436944157335e-02 2.2343309578077492e-01
      -3.0850217387950379e-01 6.0250135930829984e-01
      -4.7256931339589209e-01 6.6714065274201206e-01
      7.7388546869803454e-01 1.3746945456304283e+00
      -4.4777935120903328e-01 2.1154069468190135e+00
      9.2225025735466010e-02 6.0555992107732304e-01
      -4.0301025710116878e-01 5.8261025589130344e-01
      -2.8861625511867839e-01 -7.8397404036061247e-01
      3.4410735691930239e-01 -1.9262051295008282e+00
      -2.7534122444159148e-03 2.3449082398851515e-01
      -3.6942890298648418e-01 -4.0883001407179470e-01
      1.6136804705448515e-01 -4.7921508507382177e-01
      8.3107389731702019e-01 -1.0986127368218226e+00
      6.3638744081703591e-01 -1.2804094505168050e-02
      3.4112465554334093e-01 1.4903022377300408e+00
      -6.4239081094789208e-01 -2.9163048217844401e-01
      -1.2609229587591009e-01 -1.5827445829781922e-01
      1.3497726145459693e-02 2.2327908581624481e-01
      -5.1496552098121651e-02 -1.0003047416813626e+00
      -2.3443652326573933e-01 2.4414260050238303e-02
      -1.3859805463229422e-01 4.4479185856215786e-01
      8.9182769899420991e-02 -3.8126772422896404e-01
      -1.6083468536418377e-01 -1.3050397679994002e-01
      8.6317628531414503e-02 5.2942219862764239e-01
      3.0429421605182133e-01 2.6788336894461984e-01
      -9.9512939087750707e-01 4.5818231652396224e-01
      -6.4038077292873835e-02 -4.2921441964079404e-02
      -1.7390797793023525e-02 -3.6998880373798238e-03
      -6.4526370603348759e-01 1.8629820542409133e-02
      6.2271073091517783e-02 -6.2283509383577358e-02
      -2.5107403835465358e-01 4.9714124970311788e-02
      1.2433367856141113e-01 3.4161560940631985e-01
      -2.3101648762557853e-01 -4.2568619723351087e-01
      -3.1761504662949430e-01 -9.2520761835486831e-01
      1.4265116651507936e-01 3.1499834437151097e-01
      -9.5401316321029173e-01 6.3838653377104959e-01
      -4.4662353989828613e-01 8.0930508254100897e-01
      -3.7038434435595025e-01 3.0849925933058281e-01
      -2.8461238465649974e-01 8.9997827648262119e-01
      -1.4475912375064853e-01 5.9039740513332317e-01
      3.9101349909360583e-01 -2.8679070653498584e-01
      2.3206327834008897e-01 1.1889550540476843e-01
      -5.8143755305716638e-02 6.4329711089250596e-01
      -2.5555301605753861e-01 -1.0774346900988703e-01
      7.2654268038853009e-01 2.7491163885409159e-01
      2.6850109390878069e-01 -4.4547825981766415e-01
      -3.7562690185002168e-01 -8.0738884592161630e-01
      1.0960796424863626e+00 2.6094872635915634e-01
      -2.6476055464331816e-01 -6.4221770564068720e-02
      -3.5316695377461599e-01 -4.5356937711799772e-01
      -1.6425347888070105e-01 3.6926187936867322e-01
      -5.0834938709162347e-01 -4.4219691402769871e-02
      -3.5468557811715834e-01 7.1219812582395703e-01
      -4.8717907466633126e-01 -1.1480120229871496e-01
      4.1643432678510878e-01 -9.2032577474996047e-02
      -4.1836814295117575e-01 2.8552397783833731e-02
      -1.0992524321468565e-01 3.7123072881518074e-02
      8.5905444641642889e-02 1.4615836930243389e-01
      9.9421873951914930e-01 1.7315855422665938e-01
      -7.6699227508103929e-01 -2.6395605094302693e-01
      5.9951835805273558e-02 4.2682017491692988e-02
      5.9281731138610638e-01 -6.8739708226847496e-02
      -4.5299158915905752e-01 2.3530997334926215e-01
      3.4073590745845567e-01 -2.0498679158083646e-01
      1.7005696273551846e-01 -4.2831832238771850e-01
      -3.6966370079685473e-01 6.0183385312704851e-01
      1.1674116465969325e-01 2.8824570468849514e-01
      -2.1975126439924828e-01 -4.0788569166984240e-01
      4.8693240257457449e-01 2.6913394097168170e-01
      -1.6559872969900788e-01 2.6817874710391887e-01
      -2.2137565552166705e-01 7.1365169666196382e-01
      3.6933341656330743e-01 -4.4043621820773643e-01
      1.1339993485306121e+00 2.7974565964219011e-01
      4.6068509114699663e-01 2.0231698731677361e-01
      4.3288273711698760e-01 3.5967570670124988e-01
      -5.7428183512111841e-01 -1.8866673272656795e-01
      9.3866037898713395e-02 3.5686954449992830e-01
      -4.7819148401708239e-01 -1.8900935784854064e-01
      -1.7611154183508496e-01 6.5416655751369179e-01
      -8.1095597067422343e-01 -3.4431277654619913e-01
      -4.0629894663551491e-01 4.9574264322589760e-02
      9.0379362947361119e-01 3.6520726331165304e-01
      1.4598786299196112e-01 -3.0294161938221099e-03
      -1.0725040271962707e-01 -8.7415372766146693e-01
      -4.0161845547232589e-01 9.4372248242498208e-02
      6.8344168426931573e-01 5.8617625770688705e-03
      2.3385432930211189e-01 5.2889167673752913e-01
      1.4009896464418921e+00 -5.5389551611734547e-02
      -1.6342038031172593e-01 -1.6897624193016714e-01
      -2.4291633906424376e-01 9.4100144319395673e-01
      1.2227774318583657e+00 -3.6480909264254724e-01
      -3.6975363310406972e-01 1.0379079117839134e+00
      2.4492546365239554e-01 -6.3603714414292911e-01
      3.3783894028576145e-01 -5.0427825054321551e-01
      -2.2529209176449357e-02 -8.6599448194302631e-01
      5.5863573324225779e-01 -3.4461257668765449e-01
      1.2769430169273863e-01 1.0631852234590367e+00
      3.5365708972373522e-01 -1.5719245257253572e-01
      -2.9466564341441148e-01 -3.2708518098053313e-01
      -1.3806626670683483e-01 -9.9278383348295807e-02
      -2.5018190820271280e-01 3.3018890464938810e-01
      5.8432281548853970e-01 1.3715969016919275e-02
      1.2074504029523845e+00 8.4554871479290469e-03
      -4.5580107266349085e-01 6.4364033740780466e-02
      -2.1869773548124394e-01 1.1423536993355113e-01
      3.9978340715634403e-01 -7.0155512114181384e-01
      9.0066972397303113e-01 -7.4291775625120804e-01
      3.2383904223101367e-01 -2.1272978486642655e-01
      -6.2297373624014052e-01 -1.1121593517017864e-01
      -1.0028111010559868e-01 4.5508774247520456e-01
      7.8458553064169753e-02 -5.4480623826788555e-01
      3.2585765446590570e-01 -8.0789659397992630e-01
      -3.7761127836343816e-01 6.7588581669799541e-01
      -8.4852858795897032e-02 8.2046148164492438e-01
      2.0838220353534426e-01 -2.0316055265953831e-01
      -5.1027594279679900e-01 3.8468700609725452e-02
      2.0728884283219565e-02 -9.6202358092370799e-01
      -3.0381695011587368e-03 2.1773675116105978e-01
      -4.3396048762282791e-01 -5.3004743674525390e-01
      5.2387605202221188e-01 -2.4022818506852678e-01
      4.3303649491224720e-02 -7.6438893274119779e-01
      6.0431299791307846e-01 -1.2259107852051875e-03
      2.7614935577100191e-01 -7.0439430046040330e-01
      -5.6426953019950832e-01 -4.8270163376814268e-01
      -1.3203655751222329e-01 -3.6717205158267074e-01
      -1.5379582745821141e-01 4.2247436185488246e-01
      -4.8503129858536864e-01 -6.4145211891199164e-02
      2.0776716681909635e-01 5.0865233373027974e-01
      2.3346967766033191e-01 7.0659115530593775e-01
      8.9483177604775888e-01 -2.2947756135000555e-01
      -4.7619086386747417e-01 8.9060719886952189e-02
      8.4795621280909406e-01 -4.7822679990136885e-01
      -5.9906657059408441e-01 4.9182233195682118e-01
      -5.3676356455778362e-01 6.0702286425191698e-01
      -2.9211764274464874e-01 3.8082871868068374e-01
      -4.2623100324785412e-01 -1.4253966757303489e+00
      8.6012075755085382e-01 6.2207821346411851e-01
      3.1864660502485313e-02 4.0337949704437864e-01
      2.6103078787550266e-01 4.4235564722976128e-01
      3.1658685323788688e-01 -1.2280823166237760e+00
      1.4057408505194122e+00 5.2068823770440165e-01
      7.5589418751452819e-01 2.7625276701609869e-01
      6.5214003786688013e-01 6.7861778029067801e-02
      -1.0213088417141143e+00 8.5273203343666915e-01
      1.2078794584289639e-01 1.6789485763744874e+00
      -9.0149731928579779e-01 4.6317199336972537e-01
      4.2070305892965504e-01 3.3782403108838005e-01
      -4.1143606608237171e-01 -5.0000927772199477e-01
      -6.2004001186073210e-01 1.6663522176542020e-01
      6.8527486781175773e-01 2.8088284356100701e-01
      2.3305189724673331e-01 -4.1714752361847213e-01
      2.2018889830956873e-01 -1.2405268812198398e+00
      -6.0168273266679895e-01 1.5532872468664732e-01
      8.7181201817687529e-02 2.5055402390723314e-01
      -2.3018510935523327e-03 1.6098715432506956e+00
      1.0790308681094669e+00 -1.3590902195890953e-01
      -2.7180379518338216e-01 -8.7112464237757326e-01
      -2.2850258045523120e-01 7.4139869393765057e-01
      1.2489033908743696e+00 -7.9518984710981866e-01
      -5.6531021806374748e-01 1.0277464741438174e+00
      1.4732656569545768e-01 -5.6705559950565287e-01
      9.5415897840001918e-01 -2.3931132181163783e-01
      3.5705223958928489e-01 -1.3914892686624789e+00
      1.5997899362022153e-01 -2.4683776576772914e-01
      1.4746657703032512e-01 -5.3927028175306058e-01
      2.3264909024001726e-01 -8.2601920512212901e-01
      4.2974760933345929e-01 -8.8481515308852610e-01
      -6.7540828598136080e-02 -1.1966565886686460e-01
      -5.0615472557731661e-02 1.0760473524171330e-01
      -2.0278957785277590e-01 3.6897087602616796e-01
      6.5667042325809299e-01 -4.2180025269567761e-01
      1.1406258509913874e+00 -3.8541902842103720e-01
      9.2641206296404766e-02 -4.9075128624530451e-01
      -1.0231772463406377e+00 -3.6094702528030170e-01
      4.4503838254119804e-01 -3.0869855896104909e-01
      -5.5588701178351041e-01 -1.2291651688849982e-03
      4.1368576047292094e-01 -3.5942872471747112e-01
      1.7959576386191661e-01 -5.3446058814734210e-01
      1.1865820203227659e-01 3.3634684917850377e-01
      -4.9045866177395908e-01 3.0198726117416447e-01
      2.4752028375881796e-01 -4.9203860398552103e-02
      -2.3848295885437190e-01 -4.4996407334993230e-02
      -8.6104532936252343e-01 -6.7257818055207457e-03
      8.2905717451787403e-02 1.2743494867704463e-01
      -1.0458919187103118e-01 -6.8178748274733769e-01
      3.1892882336303369e-01 -4.5764683649917048e-01
      -7.1524687999275971e-01 3.0595582588273029e-01
      8.9355306439235416e-01 -3.2430885381876318e-01
      5.8559591124945437e-02 2.5216121339325859e-01
      4.1190190794221221e-01 2.2210773280998118e-03
      -2.6674478889465852e-01 -5.4278618211836582e-01
      2.0148357492735541e-01 8.8231996633521681e-01
      1.5530244471150315e-01 2.3264343488174247e-01
      -5.9612263352808170e-01 -8.1981016118000613e-02
      -4.0268162709172017e-01 -2.4409091551833989e-02
      7.0083697899271302e-01 -1.9937828678040839e-01
      2.5783261325309964e-01 -3.9522559421780834e-01
      -2.6178788028878148e-02 3.6488408942800743e-01
      -1.3006427056274590e+00 -1.9573143238486224e-01
      -6.4309608211982417e-03 -1.7820612200593036e-01
      -3.2327372374534297e-01 8.7241412347637282e-01
      -4.4655863596640794e-01 1.5370707148435639e-01
      -4.7218391419474587e-01 5.5407920778991759e-02
      7.5873061495261476e-02 -7.3461451708773240e-01
      2.4259540695204126e-01 6.7224505013743852e-01
      -1.4120444756788004e+00 4.6154549672228673e-01
      -1.2483843640982797e-01 5.5192650699980117e-01
      2.0846456400332769e-01 -9.4954607346636266e-01
      7.0111904388236423e-01 2.3781543197611770e+00
      -1.5053271184775827e-01 2.4537001905937561e-01
      7.9707979235317228e-01 2.0240319446571445e-01
      -3.2276156093546871e-01 1.8465856049804750e-03
      -9.3893620760452301e-01 5.5605566340645118e-01
      -5.1424828913725584e-01 1.4184057550894913e-01
      5.4944756863581445e-01 1.1001706159312155e+00
      -2.9534270562576900e-02 -4.6005515943729237e-02
      -4.0163557431245506e-01 3.0532049250974336e-01
      1.2100105899727687e-01 -3.5083643917047730e-01
      -1.1847649492011851e-01 7.1854263457466164e-02
      -1.2245006173121772e-01 -1.5647496171438102e-01
      -8.8970565823995040e-02 7.3057090135189495e-01
      -1.3116984157854366e+00 -4.2687504697201589e-01
      1.1903593455208229e-01 -2.4028438900942298e-01
      3.1100113969932974e-01 -2.3638246984064398e-02
      1.3633398842241734e-01 2.8068117859270747e-01
      -5.7534051842329159e-03 8.2947465500863304e-01
      1.2991708768270624e-01 -1.9360707871488753e-01
      2.0951768252892888e-01 3.9842579679395695e-01
      2.0345785164909472e-01 2.0145879847863700e-03
      9.4089365412648812e-02 -6.8668168933583973e-01
      1.8180223767751921e-01 -4.0870026331156722e-01
      1.9355556117785326e-02 2.2622779182082101e-01
      -4.4080165045936859e-01 -3.7869532533835093e-01
      1.6839413651385231e-02 -3.8356230991974344e-01
      -1.4992292040291336e-01 -2.5021956760641451e-01
      1.9194647571134760e-01 -2.9050580127751463e-01
      -3.6011038015315644e-01 1.5092975978872603e-01
      -5.6875175392647725e-01 -7.4168125762449155e-01
      -2.9498031428979532e-01 3.3561096745619490e-01
      1.6247968443227093e-01 -3.6778587959412912e-02
      -8.0654474671772072e-02 -1.2396185400306457e-01
      -2.8616489278936419e-01 -3.7489573750935118e-01
      8.3915547163208715e-01 1.2755191893714697e+00
      -2.9017306581393038e-01 1.3015008625948016e-01
      9.1670766267464576e-01 -3.3990504549733902e-01
      -2.4348395580953075e-01 5.7484941271282375e-01
      2.3163029820572009e-01 7.8721173483029627e-01
      -8.9269594296427790e-01 4.0025876555346657e-01
      1.1310739104130842e+00 2.9776065644947264e-01
      -1.6519993522930068e-01 -5.6544347915245730e-01
      -5.3984859244588679e-01 5.7305866076201861e-01
      6.5344526013367454e-01 6.3406516414196701e-01
      4.7987602422949782e-01 5.3199943340227474e-01
      8.2137382086733202e-01 -4.3547303599819021e-01
      -3.6615153909852982e-02 7.5806031479509550e-01
      -2.7404958586670619e-01 -3.9528756776829092e-02
      -2.7674974913510706e-02 7.7471707599252904e-01
      9.1323312137358970e-01 4.6132664955489849e-01
      -9.4065441623086499e-02 -1.6704770097778524e-01
      4.5644094861978785e-01 1.1183057162469503e+00
      7.1378796315127513e-01 -2.7025683569518455e-01
      -4.0169027217930958e-01 8.8399332286168156e-02
      5.9198355370301925e-01 -3.8191434566276730e-02
      3.8745221807543452e-02 -5.6924187399274206e-01
      3.7066206670268703e-01 -3.9034848568584757e-01
      6.8557794359088564e-01 -4.9397971647651734e-01
      2.1001409012091754e-01 2.2046075476251170e-01
      7.5898918974275420e-02 -2.3868121031456063e-02
      3.5863958489919412e-01 -8.1146605964842389e-01
      -9.1265854449267414e-01 -3.9470425292307619e-02
      3.8797249707142606e-01 2.1462816913312810e-02
      1.1402975242095290e-01 7.3164760834327103e-01
      5.3199596447258102e-01 -1.2885570162608850e-01
      -1.7168998414356689e+00 5.1849051232611187e-01
      -1.2939548394891828e-01 2.8043878012980372e-01
      4.0746469513455352e-01 -4.1894225469916552e-01
      5.2952064980128699e-01 3.8157317774112987e-01
      -6.8631936504923319e-01 6.6589819265217742e-01
      -8.0514437342703152e-02 -5.9805377802696347e-01
      -8.6747867711642571e-02 -2.4562900927273909e-01
      -5.1938443503045906e-01 3.2914561846804086e-01
      -5.5085349805364325e-01 5.1784601112518681e-02
      -2.9434846149400379e-01 2.2706985207711838e-01
      -3.2643233618616574e-01 8.9467282608574339e-01
      -2.6408091482702116e-02 2.6000381068460193e-01
      -1.5995374833436875e-02 -5.6643922987688944e-01
      4.1133888877416963e-01 4.6475285788007914e-01
      -3.2377975558963462e-01 -6.6068931550972820e-01
      -9.0749062434499483e-01 -5.8078430177911855e-01
      2.0354064258003080e-01 1.0863581564911987e-01
      1.5705312041824010e-01 4.5820206048225814e-01
      1.1861320048543409e+00 4.5220170158712658e-02
      4.2480008261181222e-02 -6.6161046846945237e-01
      -3.3166011434649945e-01 4.8217309168309402e-01
      6.5975179637143222e-01 5.5383498081471097e-02
      -8.0356295323906890e-01 2.4444651099049891e-01
      1.0032369569985870e-01 -5.8268010277674198e-01
      1.2145558447176524e-01 -3.2290662794350722e-01
      1.0188156841178254e-01 -1.0406100830234013e+00
      5.0079627130849243e-02 3.0785595101736202e-01
      -6.2873636626585427e-01 -6.0188197502554774e-01
      6.7558585061271803e-01 3.4898518939277373e-01
      2.0041609141278346e-01 8.2424548653818719e-01
      5.4868496561966806e-01 -1.6438342763245900e-01
      -3.3595457718839572e-01 -3.0191292104433970e-01
      9.1249121078953832e-02 -1.1109740195531965e+00
      -4.5621134131518581e-01 7.5321356328481318e-02
      -8.4381308320805715e-01 -2.5016962573932294e-01
      -3.3576956411790138e-01 -8.7234770757661007e-02
      8.5052249265087629e-02 -6.8065163308114379e-02
      1.7124423748255369e-01 1.7721818955515289e+00
      5.2960424839662779e-01 -2.6197176442639282e-02
      1.2289431981905054e-02 1.5225478137336310e-01
      1.5637600298867110e-01 4.9645452497084697e-01
      -6.6351076244061183e-02 2.7949452716522616e-01
      -1.4896066274609437e-01 -4.4850769431328080e-01
      -8.7555105894880636e-02 -7.0108447706843768e-01
      1.9106201376409396e-01 -2.5600506210939078e-01
      5.3698599766941291e-01 -2.3690418944938549e-01
      -5.4368663896315472e-01 2.9217766402532475e-01
      -1.5680130267124137e-01 -5.6431920746812947e-01
      1.3365452805115019e-01 8.1495792660529684e-02
      9.3131628335886263e-01 6.3121933996959845e-01
      -5.5546538424015424e-01 -2.6185289809832840e-01
      3.8268275537972679e-01 -2.0084530484295173e-02
      2.1130134106277926e-01 1.3001245045605786e-01
      8.5256438269019543e-03 5.1046813789018575e-01
      1.0980849194031626e-01 -3.9541183585456269e-01
      -8.3319383179267337e-01 2.9897452119814333e-01
      4.4042689410030533e-01 6.4278181694950101e-02
      9.6636733597810776e-02 2.8124436846010400e-02
      -6.7232615978958951e-02 2.6112870906201052e-01
      2.6569648068779106e-01 -4.4768792847797395e-01
      3.1774915079180177e-01 -3.7488443016511169e-01
      9.0154333860243227e-02 -7.5587124364716096e-01
      1.7862166241640801e-01 -5.4347499150105960e-01
      8.3683737367161948e-02 -1.3036684431538361e+00
      9.2665014522875816e-02 -6.1193792934966747e-02
      7.4443299812888317e-02 3.2414173989304441e-02
      -4.1477815594877465e-01 5.2353314299743359e-01
      2.3568597532382909e-01 -2.8145144453138798e-01
      1.0443938162927864e+00 -2.8456761120958984e-01
      -2.5762367302135636e-01 -1.6973356123809349e-01
      -6.9660049135994950e-01 2.1093591158067734e-01
      3.5646859016051813e-01 -5.1978015347453876e-01
      -2.3175411759457570e-01 -4.5520685178200465e-01
      6.1387365554962847e-01 -3.8083677296926477e-01
      -1.1425659065602073e-01 -4.9998837686954650e-01
      5.7809267673963771e-02 4.3726637259941070e-01
      -4.2984939665850758e-01 6.0796595631921913e-01
      1.6291261900750359e-01 1.4724877882092274e-01
      -2.6022766341406584e-01 2.7319743236566851e-01
      -6.0659365862307690e-01 4.8508806906147028e-01
      -4.2453449857286780e-02 4.8479568098266468e-01
      -2.3413147435102538e-01 -3.4397515623997493e-01
      4.0712535853440296e-01 -9.8771330342610805e-02
      -4.8786784403034889e-01 -2.0603287779488169e-01
      1.0168502665381349e+00 -1.6513292287900761e-02
      1.3476755726435097e-01 5.8093073734981759e-01
      4.0550939245979978e-01 7.2823798408104837e-02
      -2.6797616704066146e-01 -5.2136521129258195e-01
      1.6026127878625443e-01 3.4552379800293176e-01
      6.1648326030770073e-01 1.8949128451934338e-01
      -1.0572129980780087e+00 -2.4176572665528898e-01
      3.7707801219424453e-03 -1.3956210593428325e-01
      3.9396291169422754e-01 -3.3759960402930406e-01
      3.3482448641589768e-01 -4.3167774940650117e-01
      1.5710417469100646e-01 -1.2542556238040922e-01
      -1.8274183905311736e-01 5.2956687308529460e-01
      3.8992248625578291e-01 5.5179982972991211e-02
      1.5129233597283395e-01 -2.7245096042358791e-01
      -1.0817875070330620e-01 3.7794040020658332e-01
      5.8981397631801352e-02 2.5856053448781552e-01
      1.6534545880121301e-01 -1.6081751806314129e-01
      6.9321003212870869e-01 -1.0198310314913641e-03
      -5.2388388266397456e-01 2.7690504121752080e-01
      -7.8962378824126989e-02 1.2383389224901387e-02
      3.0737900465923840e-01 1.0950244308288293e-01
      4.0125565742087294e-01 1.5441821581525120e-01
      1.6191076106488467e-01 2.3492666329003803e-01
      -1.1706408044164753e-01 1.0471856625094779e-01
      1.9172920050580697e-01 -5.3518658923210127e-01
      -3.8383876734974257e-04 -6.7419622218603190e-02
      3.6712336530370038e-01 -2.4946815387140764e-01
      -7.5829276420411962e-01 1.3365816651645221e-01
      -1.1735332123592457e-01 -1.9695160938526449e-01
      -5.6267547852602427e-02 -4.7896071194864354e-01
      6.7538256815425204e-02 4.2534155845804705e-01
      3.4187333447895329e-01 -2.3143460874052457e-01
      -1.2296789198021987e-01 -2.6583056737267990e-01
      -2.5534108943308015e-01 -3.5806340048387703e-01
      -4.1261800302040415e-02 -3.1548660076725121e-01
      -1.2515559532975004e-01 9.1490925527234299e-02
      2.8961228702958303e-01 -2.1163052943328609e-01
      -2.1010627945260876e-01 1.2327454394726421e-01
      -4.2622835624472749e-01 -3.6821669431149806e-01
      -6.7178545335865036e-01 1.9420453500924892e-01
      2.1769955428291005e-01 -6.4180217091350938e-02
      -1.6453760719875329e-01 4.3141816501962978e-02
      -2.6455650294606181e-01 2.8603459684504740e-01
      3.3111399521921181e-01 -5.1992722478729969e-01
      5.0557394173211601e-01 8.4174086645549318e-01
      -4.1280682840282062e-01 -4.5129241453994901e-01
      -3.0966132100266084e-04 1.6212200300796961e-01
      1.2070394531666606e-01 -1.7975364159931420e-01
      6.6643063368587052e-01 5.3135828491181447e-01
      4.3532169558932805e-02 4.4232593445328178e-01
      -1.0242565585792822e-01 -2.2761179098304090e+00
      -5.1402235166228927e-01 3.1684191142417684e-01
      1.4569919788995669e+00 -3.8952073550311567e-01
      1.0058442486052513e-01 3.3263100359230974e-01
      7.6178378699014587e-02 4.7317026409467805e-01
      1.5328464773649975e-01 -8.3998480985131585e-01
      4.2488680630039133e-01 -1.6838260888806864e-01
      6.0738480465547529e-02 -7.2498582067007622e-01
      -5.6790355091597455e-01 1.5052516391127289e+00
      3.7889211284936225e-01 2.9397128358375257e-01
      -5.5981963229341347e-01 3.8861178963284504e-01
      1.8918535356172850e-01 3.8565099400574315e-01
      -1.5120013182918399e-01 8.2490669430804672e-02
      3.5379254749447708e-01 -3.0924051142052465e-02
      7.4668969290625054e-01 9.7439888966973098e-01
      1.4773617091703833e-01 3.5330119615591141e-02
      -2.4831339210815068e-02 6.2859915101286512e-01
      2.5589796869886511e-01 -5.7698904337484369e-01
      1.2205484683573475e-02 -6.9310851343360527e-02
      3.1054624459578001e-01 2.5461447088443179e-01
      -6.9637433077052766e-02 -1.7767906376605502e-01
      8.6858672625828338e-03 6.5645212295076216e-01
      -2.0274561916237818e-02 -6.5793074430146758e-02
      2.6911441910323986e-03 -3.7243756725156985e-01
      2.1346959037805799e-01 2.6228153552391797e-01
      1.0979913302852684e-01 7.4726179552436864e-02
      5.1070328750384553e-01 -1.6582334745310831e-02
      7.1819706565154440e-01 8.3875896679919815e-01
      4.1406098584984080e-01 1.0073030036187682e-01
      -1.2220114860527265e+00 -1.3267889270465733e-01
      3.0597572373733972e-01 -6.1266151044401140e-01
      3.8527379852407767e-01 -8.0000271238991660e-01
      8.6867667159065652e-03 8.1880437302750686e-01
      2.6925489921084539e-02 6.4833318923838523e-01
      -6.4943806108733504e-01 -6.2628023582403125e-01
      6.9641205660289363e-01 -2.1806443618891969e-01
      9.8953796051246046e-01 5.0430170227405902e-01
      -7.1052977438899478e-01 -8.9725801768704511e-02
      1.0607893823838062e+00 -4.5168918331750535e-01
      7.2035327318078934e-01 9.2729026091367128e-01
      7.3648750966956633e-01 6.5661278676013868e-01
      3.0931887997486762e-01 -8.4555161758565389e-01
      -2.4065049074715389e-01 1.7534095202755193e-01
      -1.1051877058652945e-01 6.5343666751213092e-01
      -2.1724752825232188e-01 3.8731484317568704e-01
      2.3693940038400207e-01 1.2441811407456410e-01
      -4.6178213712674193e-01 -5.6441453279897902e-01
      -2.3164881956166866e-01 1.5884469962403677e-01
      1.4598396250129990e+00 -1.3973757163191530e-01
      8.2901127289715570e-01 1.0221618162844182e+00
      2.3392601771310390e-01 -6.8236822069012049e-01
      -1.8033133186144340e-01 -6.9974063257234334e-02
      9.2963311444040142e-01 -1.6952217158536623e-01
      2.7624614455408876e-02 5.9114100772950440e-01
      5.7996483708333024e-01 5.8849361044115189e-01
      -1.0541577002255077e-01 -8.2456132201908172e-01
      7.5811206046753354e-01 5.5667867285422457e-01
      9.6082796788706715e-01 2.9147274769914316e-01
      -6.5657889312860751e-01 1.1073329356382684e-02
      1.1873498619047558e+00 -5.8101251919374786e-01
      -5.2509666729176763e-01 -3.3867489318315591e-01
      -4.6933947798840264e-01 -8.0092561250036692e-02
      5.1412624758696979e-01 -3.2185689665444078e-01
      1.0108191717142181e+00 7.4427393458676172e-01
      3.9901920482054198e-01 2.2097613549305362e-01
      -2.5554802729495929e-01 -3.0591506284305708e-01
      -5.1222621090220521e-01 -2.8764305561999398e-01
      2.2107329500137063e-01 -1.9284001344188173e-01
      2.1994046246302495e-01 1.0287324163935245e+00
      4.8741393015706763e-01 1.6366982637514438e-01
      -1.2731258732126907e+00 4.1777962150095366e-01
      -6.2761708946703187e-01 -2.6987985149974764e-01
      -2.5676902054129758e-01 -7.3043201803284830e-01
      6.9834071185205931e-02 -1.3292386500037106e+00
      -1.8959180260194136e-01 4.0120013452122849e-01
      -2.0509872119198899e-01 5.4477563955162522e-01
      1.9708878305926655e-01 -7.6739017108913798e-01
      7.9280166709113892e-02 -2.6293045137027521e-01
      3.5556428662250439e-01 -2.1363095432789184e-01
      5.4985347463166585e-02 -1.5826776705147991e-01
      1.8075446499881254e-01 1.1483931079929208e+00
      -4.2951252100136721e-02 2.6945810423531311e-02
      -6.3851938874621561e-01 -2.3436473888274953e-01
      1.0201487358599338e-01 -1.1932659049786298e+00
      -6.3156503161610977e-01 -8.4923975939828034e-02
      -2.9747803279723956e-01 -2.8607512397485590e-01
      1.1464537833480355e-01 -5.9140496885945415e-02
      -4.0583303268898246e-01 -3.0928825428646634e-01
      3.3349386167422623e-01 -5.5503294502792011e-01
      1.6361985840381574e-01 -7.0389250226483657e-01
      -2.9525217031754375e-01 4.9005500842173311e-02
      -1.2796907671808704e+00 -1.0202290216248726e-01
      2.0109084825535983e-01 2.8662260427832476e-01
      -7.4555959533740368e-01 -8.1825393231678423e-02
      3.4969692154687670e-01 -1.2438619664811890e-01
      -2.2738982466705834e-01 -1.4946090790504478e+00
      -2.1836925181069200e-01 6.7404535837506552e-02
      -8.8489151404752131e-01 1.4424636005142147e-01
      -2.8160294024047544e-01 3.3503669176852841e-01
      4.1049947412296939e-01 6.6963437812980264e-01
      -1.2114153134881114e-01 8.5055333042508563e-01
      -4.4784163242644925e-01 2.8209815183344700e-01
      2.4519707567026783e-01 4.0305563016333990e-01
      7.7265371484371914e-01 -3.4635840751394498e-01
      -4.8830747615455478e-01 9.7546914130331730e-02
      -2.5101590133512613e-01 1.1695160525962041e+00
      -2.9180939245235199e-01 4.3368042088044112e-01
      -6.7186796088334166e-01 8.5951933870444974e-01
      6.6091117268185762e-01 6.9915248528073304e-01
      -4.4227160464661813e-01 -3.9716160897044944e-01
      3.4303598520119805e-01 -3.7895453702674670e-01
      5.2456072985477116e-02 -8.6409234668338153e-01
      1.5686183763223841e-02 5.1881414720688057e-01
      5.1963686427493905e-01 1.6517611018364400e-01
      -2.5444378952088070e-01 6.3849136287503230e-02
      5.2365361033985058e-01 1.9357537681564074e-01
      2.0276914784510253e-01 -2.0567334067453627e-01
      6.6928633646154118e-02 -1.8255545063340695e-01
      5.2461648605600764e-01 6.8167136842807530e-01
      5.6909820388545962e-01 -3.2738950661483862e-01
      -8.3122942685385437e-01 -5.2244868811198782e-02
      -2.9493094682578030e-01 -1.0104073043415793e+00
      -8.1464710306165633e-01 -6.2564726933480974e-01
      5.9932819601483500e-01 4.8860366108590197e-01
      -1.0588779041560656e+00 -7.4398009380894570e-01
      -4.3272775203643593e-01 8.7435395538267069e-02
      5.3042146885727370e-01 -2.0355459755387020e-02
      -2.5328625508760222e-02 1.7182315347017599e-01
      -1.0054175291262146e+00 7.7612995425621792e-02
      -1.9728126151662381e-01 4.8232548709675643e-01
      -3.6511625192402591e-01 -4.5368976538493894e-01
      -4.7904622575759193e-01 -3.2459568746568790e-01
      -1.1936803416769290e-01 3.9999323195693254e-01
      -3.0172705385135506e-01 -4.0203827911272311e-01
      5.7531949850937714e-01 4.3890826606254868e-01
      5.2540886449415136e-01 -1.5872435718149039e-01
      1.0822842885579612e-01 -2.5913614290430653e-01
      -1.9165251679865752e-01 2.0606823777343253e-01
      -1.5044914684772376e-01 -2.1080807678312250e-02
      2.4115185523651623e-04 1.6694751419286530e-01
      6.4459660292940979e-01 2.1180419012702925e-01
      -3.3722178005527265e-01 4.1105251729412912e-01
      -3.5280184361808936e-02 -1.7486302636220366e-01
      -4.8884681858154089e-02 4.4009800821092258e-02
      4.3495160434436138e-02 -2.8666099978417192e-01
      -9.7545160328669056e-02 -4.1165037135028754e-01
      3.5009549308538285e-01 -5.2547736011014489e-03
      -5.1924449182695473e-03 8.1236275698743410e-01
      -4.6427983350700874e-01 -4.3458596065593619e-01
      1.9784018859862357e-01 7.5844807594454466e-01
      4.0066279185038495e-01 1.7536805160271648e-01
      -3.6897262257061553e-01 2.4249597149168831e-01
      3.5648923941583954e-01 1.2870877573837133e-01
      2.9123514603171036e-01 -9.9834614641015049e-02
      -3.4833533649315357e-01 -3.7924213454207337e-02
      -7.1276754512987137e-02 -7.3628626489390503e-02
      -2.0548425719944557e-01 -3.3658452375552739e-01
      -4.3444877807293336e-01 2.0976718730618280e-01
      8.8539484963915865e-02 -1.7879829645097672e-01
      6.2283014089733257e-01 -2.8340794267773112e-01
      -1.7885046870694940e-01 -4.5814331374863737e-01
      -4.3972668355308088e-02 6.2314300192995338e-02
      7.8388923794719664e-02 -3.9093308748290856e-01
      -8.2976540533919965e-02 1.1920087291780612e+00
      7.2312549581323227e-01 -3.9223187686264976e-01
      1.6907459204553144e-01 1.7896038299659497e-01
      2.2408200436703754e-01 -2.8724108804848259e-02
      -1.5611109007473737e-03 2.3410711826486155e-01
      -7.0853015782915263e-01 -2.4670445092928470e-01
      2.2103932280138205e-01 1.3577521153872651e-01
      3.4040837715883504e-01 4.4945510620487489e-01
      3.7488496246000114e-01 5.2613328325949615e-02
      -2.9126476309243228e+00 4.6473615489953796e-01
      -3.6355362233511945e-01 2.0573099379810333e-01
      1.1755574097351986e+00 -6.8188439366787668e-01
      4.6283220882730480e-01 1.8822874452978502e+00
      -1.4171478768494361e-01 9.4586380229750711e-01
      -2.1569788962786735e-01 3.0492714495047657e-01
      1.8634406765109635e-01 -7.6285339550799480e-01
      -2.1278731472219350e-01 8.8881427796751594e-02
      -7.1380793534587750e-01 -2.8190417842442533e-01
      5.8341318239183981e-02 1.7286726694074719e-01
      -2.0190472342755981e-02 5.0895592434572823e-01
      -1.7964445623813441e-01 -6.7348295691289611e-02
      6.1771389756604644e-01 -6.1473830277634889e-01
      7.2417384666585383e-01 2.7712935064707478e-01
      5.7872756828687887e-02 -1.1409685086804691e+00
      -7.3937420106290908e-01 3.1034299168234147e-01
      -2.5262126912591737e-01 -2.2269837661167347e-01
      -2.8975803063814677e-02 5.1230624529308696e-02
      1.9031486898662764e+00 -4.3442656477393021e-01
      1.8875451482329025e-01 -3.2992984689578059e-01
      -7.2547903451940510e-01 1.2743664263510168e-01
      7.5122687178969272e-01 5.9933018675315600e-02
      -2.2370089304909033e-01 4.3302298792159738e-01
      2.5687731630851907e-01 -4.6402943077901371e-01
      2.7441452316232651e-01 -3.7843388036796360e-01
      -1.0571853468417160e-01 -6.4128140574822234e-01
      -1.7851341920929442e-01 8.4465618815519367e-02
      2.3626167749467203e-01 1.5661920001353305e-01
      9.7516066048973948e-02 -3.7949939962543783e-02
      -8.3483589117786680e-02 -6.7968425998629955e-01
      5.3508096391661175e-01 4.9549422676349941e-01
      2.4585581607273765e-01 -1.8283970605812738e-01
      2.4232321789053313e-01 -1.0973356492335307e+00
      -9.5914099358964319e-02 3.0064933047607140e-01
      2.2752931833030856e+00 -1.3272411724147248e-01
      4.5652880896161535e-01 -1.5168277234100550e-01
      -1.2893324864942639e+00 5.9312996813918883e-01
      -1.4267720919969700e-02 -1.9091840192326510e+00
      4.6034838853460869e-01 -7.9254115159450400e-04
      1.7296537906273324e-01 -3.3654459040007834e-01
      1.3267962944977205e-01 3.3615827299526702e-01
      3.4215443182107169e-01 -1.1879618866889743e-01
      1.3980285326608252e-01 -2.3639870414801260e-04
      2.5731041476906946e-01 -5.0048075196527375e-01
      2.8111385817708967e-01 -7.8027902686127959e-01
      -4.5737174713178824e-01 -5.5771167895286654e-02
      -1.0893461844782185e-01 7.9122504001363203e-01
      -2.4845254670333070e-01 -7.5226340916469048e-01
      -1.7151980464541701e-02 2.4574215096268556e-01
      3.9031279024904975e-01 -6.4774138958033411e-01
      1.3002129774309070e+00 2.1417414214453145e-01
      1.7852935177673082e-01 -1.8771016017812048e-01
      -6.9691340661904233e-01 9.0401494235240160e-02
      -6.2305220305817999e-01 6.6307554126695389e-01
      4.4264237423942543e-01 -4.7454689116319587e-01
      -1.2209625459226150e+00 -1.7420752306709192e-01
      7.8381479091456008e-01 -4.2551683179953781e-01
      8.1264611529023756e-02 -5.9881860082219560e-02
      -1.2788893707611078e+00 6.6113889474498963e-02
      -3.5206039883105011e-01 2.7910237266316062e-01
      9.1244023415600850e-01 -2.3119265425351171e-01
      7.1838782079676777e-01 -1.7713107587723648e-01
      6.3008793269607066e-01 -2.8236934647093437e-01
      1.7292002215238553e-01 5.2206907651992540e-02
      -4.7923433953721584e-01 8.7307436240822642e-02
      1.3349011017440165e-01 3.5133544609446110e-01
      -7.1067892524394050e-02 8.9421274797046424e-01
      2.8062626315164241e-01 -3.8440269076393185e-01
      -1.1263986679929046e+00 2.4105752144155504e-01
      -2.9919701803099863e-01 -5.8603757592677863e-01
      6.8383923371426747e-01 -3.7560603771188689e-01
      3.9271626253228542e-01 6.1760542464893486e-01
      -3.1089827270079357e-01 -5.0988267995574925e-02
      -5.1336264522310028e-02 -2.0617803698597373e-01
      -1.5757414099423189e-01 -4.1956949732334209e-01
      -2.4306739287299678e-02 -7.0827234915446971e-02
      -7.0872028269044784e-01 -1.3948716847010395e-01
      -1.4996047327414350e-01 5.5888930193570219e-01
      -1.4561708195718065e-01 4.7832404793449768e-01
      6.3897210001058288e-02 4.2046181642008634e-01
      2.8688187759233696e-01 -5.4960529498124355e-02
      1.1219431269173963e+00 2.9828517014688943e-01
      -1.1258504297616076e-01 -7.1511948012796300e-01
      -8.1975678329462665e-01 3.9218568807983734e-01
      -2.1880081046319208e-01 6.1699189956081069e-01
      2.1179782856741439e-01 3.9950792774916816e-01
      1.3500096441383844e+00 1.0646423364563255e-01
      2.7433413092544062e-01 -1.1617675140698378e+00
      -5.2487238598019914e-01 4.3271104575530506e-01
      5.2926104490285342e-01 -2.3659028697374129e-02
      -8.2187594577487355e-01 7.8820749720730832e-01
      -3.6628306072392564e-01 -4.7846400778941978e-01
      6.0358226028719020e-01 2.3852022230910874e-01
      5.8823230175413931e-02 -1.0308082523356508e+00
      2.8236413158142654e-01 8.8729532396771149e-01
      8.5602247440235391e-01 -3.3017862131891743e-02
      -3.4657912593721762e-01 -2.0885223871308511e+00
      -8.0747088827653146e-01 -4.5713354000652169e+00
      -4.9749853675830708e-01 -1.2245965775432160e-01
      3.4934521819057562e-01 4.1573169753415418e-01
      1.7438634373272557e-01 -3.4487399050318829e-01
      3.8079419916016466e-01 -1.2247333260078524e-02
      5.3116290422789652e+00 -3.8590591766771709e-01
      3.4190776543213330e-01 6.0508501711260054e-01
      -3.4629676786712462e+00 5.4128462250023202e-01
      -8.0442806625650043e-01 -5.7727632793092010e+00
      1.3649945121291088e-01 7.5116897088907419e-01
      8.8479920321427552e-01 -6.7121065002223756e-01
      1.1060853091025644e-01 -3.0061020945674399e-01
      1.0098153854036476e+00 3.4942444031190484e-01
      2.0115829904152740e+00 5.9274312154946072e-02
      -8.0717034142065491e-01 -7.6693760560125224e-02
      -5.0161740900707219e-01 2.9870567403160581e-01
      -5.6446282209969301e-01 1.6403103718518719e-01
      7.0324190573714612e-02 2.6263432818137106e-01
      1.2838603447220437e-01 -1.4077504009072657e+00
      -5.0548154041092519e-01 3.1855701085359128e-01
      -1.6028858546089254e-02 -1.3965233415062759e+00
      3.6985762127974895e+00 1.6038743989702026e-02
      -5.3994647823606878e-01 -4.7973112787725286e-01
      -1.8659299156843010e+00 -4.0789473395349241e-01
      -5.0425860047701709e-01 -2.8542817271919679e-01
      -6.3780706084107163e-03 -1.0189653388360307e+00
      -1.0164118699638243e+00 5.8345158429306165e-01
      7.4087587747675657e-03 -8.0769257922891857e-01
      6.9303970526406811e-01 -5.7279967740412341e-01
      -9.3689539849447689e-01 -4.3833152778257356e-01
      4.7562190563911411e-01 8.1754956315335747e-01
      -7.7740059635763178e-02 -2.5338028634705939e-01
      -3.1676037643164950e-01 3.2479801875910197e-01
      3.1180798271662352e-01 1.3430650209471693e+00
      4.4222052190298261e-02 2.9599231219868298e+00
      5.3405691781020481e-01 -2.6600230492699405e-02
      3.7224641718918200e-01 -3.2456254670526191e-01
      -1.8743091895426806e-01 -2.6922291143267629e-01
      7.0648504551153612e-01 -5.1689604490532248e-01
      -7.2394148210373377e+00 4.7636308417455489e-02
      -1.3298319924700945e+00 2.9867652187938998e-01
      3.2291720503745109e+00 -4.3724917047432210e-01
      9.1670734078922830e-02 2.9087154105760966e+00
      1.0189258819514102e-01 -2.0241439696605451e-01
      -6.1640445330220051e-01 1.6588330092051902e+00
      1.3166805541764506e-01 9.3190064597187938e-01
      -1.7103195834275897e-01 -8.6981561092765480e-01
      -2.4434057077165354e+00 -4.4583078868589304e-01
      -1.3885979706305979e-01 4.8324610446334509e-01
      3.8849150334942645e-01 2.5941601626701616e-01
      7.0210774677609625e-02 1.4084800554201676e-01
      -9.4937940990968994e-01 -7.0066605183220954e-01
      5.0117495681272695e-01 2.5984770363534058e-02
      1.9716783064876342e-01 -5.0603089587220051e-01
      -1.4688556508876477e-01 2.4852742909046363e-01
      -2.7765843418892731e+00 -9.6835304796275157e-03
      1.3197237342174958e-01 -6.8395728695430436e-01
      7.8903612255643751e-01 2.8062090801311890e-02
      2.2957036835254827e-02 -2.1716713473436752e-01
      -3.8557098664545197e-01 -4.7588094350747834e-01
      1.7059273395879422e+00 5.6030184070929058e-02
      1.3864358107202679e-01 -2.0719559983406710e-01
      -4.1986105041838451e-01 1.0960036486106139e-01
      1.7165067645391521e+00 5.4629140144174826e-01
      -7.4115431604961912e-01 -5.2544740815071356e-01
      6.3971566387423595e-01 3.1084037315749963e-01
      -6.0906331844879358e-01 -4.1957080142326836e-01
      5.2792373398258996e-01 3.6888128393917557e-01
      -5.9427270003636590e-01 8.6581507627063548e-01
      -5.6110593874795722e-01 -2.0725193951587079e-01
      -4.3490804867330957e-01 4.2766767906596082e-01
      -1.0010677617508279e-01 4.0484772025139698e-01
      7.9146554221439708e-02 7.6487124730806477e-01
      -2.9397428134930474e+00 1.3181759726627900e+00
      -2.8578918741066162e-01 5.1923659759384033e-01
      1.4565620063203257e+00 -5.5868854999249751e-01
      5.6712947400998644e-02 1.9132758757274588e+00
      -5.1586091012929457e-02 7.5892960475095528e-01
      -1.0063930726300205e-01 2.4606069229994615e-01
      2.1039509250395583e-01 2.6962233404618058e-01
      1.5487102976290293e-01 -3.9321502242662493e-01
      -8.7632968977046011e-01 -3.5196541489697297e-01
      -2.9127739025472769e-03 2.3670194732797334e-01
      -4.1019549673170336e-01 3.3379719394133800e-01
      8.6213479160601195e-02 -6.2897566936334401e-02
      1.0648981035974150e+00 -2.4632847779462111e-01
      1.3173220294667165e+00 1.5181815470290641e-01
      -3.9001561201180385e-01 -1.3289080206252728e+00
      -6.1399830471876116e-01 9.8353048244867258e-01
      -5.0279410879326347e-01 -3.9559977228724541e-01
      -2.7340702709013964e-01 -5.8443528638880071e-01
      1.6434813497377467e+00 4.2286062512652947e-02
      -5.0869013889853334e-02 -4.9904574482410602e-01
      -1.0630760536248332e+00 -3.2935040961877791e-02
      1.2208293266998351e+00 -3.8527107269820754e-01
      5.2069820009891084e-02 4.1836167423001325e-01
      1.0681085883829458e+00 -3.7151056016296269e-01
      3.0288991520856645e-01 -3.3038207722526003e-01
      5.5590642995035147e-02 -1.7427354269088671e-01
      2.8568116228576562e-01 -1.3559060455439723e-01
      2.2293298426113198e-01 -3.2426836464803939e-02
      -3.0768634048497549e-02 1.7393177663385209e-01
      6.7090919565376450e-01 5.9281032810758072e-01
      -4.0935342354709059e-01 -1.1463552151323231e-01
      2.8194153806489369e-01 -1.1212844196165525e-01
      5.8903255416458800e-01 3.9424763272158941e-01
      1.6697900253706516e-01 2.2247660604954320e-01
      -1.0706823491070834e+00 -4.3584443049874561e-01
      -8.6465211537591069e-02 -3.6762631289162612e-01
      2.7452090272592383e-01 3.4620468400043486e-01
      -3.4269300753815471e-02 1.0562523324352229e+00
      -3.5918488120412462e-01 -3.7179521352738179e-02
      5.2547135097139164e-01 -3.3330404568836436e-01
      1.0123945060163231e-01 -1.0738002530992095e+00
      3.0221814928806479e-01 1.5103069766883795e-01
      -4.0046440421066704e-01 5.5086275460026222e-02
      -3.6909711139002550e-02 2.1523829853820084e-01
      1.2157143897000490e-01 4.7681004930774346e-01
      3.5858343865698311e-01 2.6580069938186263e-01
      1.7289083652202564e-01 -4.3415852824126394e-01
      -8.6399916390132295e-02 -1.0010660677866100e-01
      -7.4423280298513389e-02 -1.2134749741287786e-01
      -2.9747312960087186e-01 -3.3006689187312355e-01
      -4.9215539966040245e-01 1.7279110758580823e-01
      2.1430262344280748e-02 2.2979292017861472e-01
      2.9880651343122550e-01 -6.3157391584417508e-02
      3.1240957023645582e-01 1.9668398043692539e-02
      1.2430624833123248e-01 3.2233324624453863e-01
      2.7643966007932380e-01 -6.2771397937364345e-02
      -9.8676754471267239e-02 -3.0012204508085066e-01
      -3.1655400624314080e-02 1.1310812474299746e-01
      4.9232376623071966e-01 -4.0765859452548564e-01
      7.4595195828943239e-01 -4.3789903057199742e-01
      -5.3081642480767832e-01 2.8903604467239691e-01
      -6.1353849396779714e-01 4.8980974094715503e-02
      -5.8135870399119693e-01 1.0508668769008298e+00
      1.1663734421780723e-01 3.4265088031185659e-01
      3.2094445229381019e-01 3.8597898445870837e-01
      -6.8132559656208069e-01 1.7649610542578342e-01
      -2.0114455619943927e-01 5.6265587651898041e-01
      -5.0426944428910070e-01 -3.9685879803383994e-01
      6.7242405108229486e-01 -5.6429246430933022e-01
      2.2879118886614175e-01 9.5561407193128600e-01
      -1.1934733831275413e+00 1.0320271065677705e-01
      -5.0724232773596178e-01 -2.8907156504662268e-01
      1.0292922253801869e-01 -6.2232650551212154e-01
      1.7463231705502799e-01 -7.8604071702989498e-02
      -2.6761044376001950e-02 5.3386406457422075e-01
      -7.8468834110726512e-02 -1.1250617150489377e+00
      -5.9700655054015894e-05 7.4645099838139620e-02
      5.7293272074108093e-01 -1.2692582186425371e-02
      -2.7083636057575834e-02 -4.9514478699798214e-01
      1.2096237829701423e-01 -1.2088266812410893e-01
      4.3473418614564684e-02 1.1097207207012343e-01
      -6.8736183793402172e-01 -6.4725665469114346e-01
      1.9700732323133335e-01 2.9153927500134857e-01
      4.3741988867561138e-01 -2.8749023307470190e-01
      -5.2974595759699883e-01 -3.3660372803917850e-02
      4.1456178748606715e-02 -2.9072555060631522e-01
      -4.8842129742442203e-01 -2.2631313959530366e-01
      5.6029172548119718e-02 5.1036841096312968e-01
      -6.4147807803559581e-02 -1.1987665377289916e-01
      -8.2887586801060298e-01 -5.3531600196339302e-01
      9.9092339520558528e-02 -3.7732278711649588e-03
      -5.7478531536617972e-01 -6.5656975466126593e-03
      -6.2893496201401067e-01 8.3879836692058130e-01
      2.0789143081854020e-01 4.8683516406070221e-01
      1.8699629195812922e-01 -4.0398839297601097e-01
      -2.2100444163425054e-01 -4.5843657394339293e-01
      2.9772324704436715e-01 1.8919062437602235e-01
      4.8365646965724179e-01 4.3622276034828728e-03
      -3.9347726249852033e-01 -5.8757040146251154e-02
      -1.4408956944540399e-01 6.8889123704199140e-02
      3.3851140012534912e-02 -2.7440044745837866e-01
      -3.3383530834601521e-01 6.3517777487091514e-03
      3.8074974981389104e-01 2.5702941729048451e-01
      -1.4540253859810384e-01 -7.0610306816271851e-01
      7.0458565538403617e-01 -2.6672492902218559e-01
      -2.4097523387602587e-01 3.9548140845766050e-01
      3.8088111844519945e-01 4.1608351914458908e-01
      4.2458256788442805e-01 -3.5992579976624273e-01
      3.9808820451528715e-01 -2.1728341232446802e-01
      4.1883178364531143e-01 5.8572536838792891e-02
      -5.1297351466116317e-02 2.8009352229897649e-01
      4.3387313925226983e-01 3.1116311579775247e-01
      -2.8620684615296360e-01 3.6975843273945258e-01
      4.1612429225029904e-02 -2.9556597057730244e-01
      -5.5330969901476212e-01 4.4665901052523282e-01
      4.1743454742880992e-01 7.0733925747910320e-02
      -3.7966520367111750e-01 -3.3788298632121883e-01
      3.2015151091566185e-01 -6.5837642561379750e-02
      -4.0065309679041500e-01 -3.2115993206338450e-01
      2.0843975399816181e-01 1.1825992519209316e-01
      6.3789269447995556e-01 2.6962635705071047e-01
      -3.8539289665494114e-01 1.4786672789440677e-01
      4.9045842734299222e-01 5.3866414097171078e-01
      -1.1131834623514267e-01 1.6856474937322716e-01
      2.5020511403754458e-01 1.8492601654895247e-01
      3.4081446891396264e-02 -1.7135445339456915e-01
      1.9286765563479563e-01 -6.1273450032645549e-01
      -1.2126529091528362e-01 -6.4236661828861216e-02
      -1.5171893559436575e-01 4.7355420756984866e-02
      1.8380878049639754e-01 1.0798000194943835e-01
      -6.4748847737163467e-02 -1.1502202427139338e-01
      2.2874191359924778e-01 -3.3567821913955735e-02
      6.1459891260206667e-01 -9.3521211516828587e-02
      -6.7397165335531550e-01 -2.4365508274932304e-01
      -1.0269370519948046e-01 -7.7405777341883336e-02
      -2.4590410193451839e-01 8.3104674073752730e-02
      4.8099708112345357e-01 3.6670705838112749e-01
      5.7604515806661313e-03 6.9249949392504406e-01
      -1.6453992514860788e-01 1.5208927420123111e-01
      3.1113803908235144e-01 7.2405650517964948e-01
      -1.5836437867581760e-01 4.3395289133630338e-01
      -1.9418172644508386e-01 2.4492724816692252e-01
      5.5677025308724933e-02 4.9902844111575323e-01
      -1.1782661670220916e-01 5.1327219888518982e-01
      4.8610149749641535e-01 2.9500626621490955e-01
      4.6519550199285781e-01 8.6940092655096904e-02
      5.5121236717792599e-01 1.4888237096134885e-01
      -1.7347848108120484e-01 -1.3209776812324456e-01
      -3.3110544360952163e-02 1.7332014990925054e-01
      1.0204506867417387e-01 -1.8124938948207564e-01
      2.4970009873755411e-01 -1.3570925594854824e-01
      2.0386257171391711e-01 -3.8641754342848372e-01
      -3.8314185608745438e-01 -2.7289879584806970e-01
      -2.3999067205695199e-01 -2.0346884041961141e-01
      -3.2913867549537018e-01 2.8994928891344007e-01
      -8.3976967510814030e-02 4.5490932380892168e-01
      3.3119714150143514e-01 5.8812836451406694e-03
      2.6985434182871337e-01 7.7070582852826003e-02
      -6.1595801166283007e-02 -6.4346995063926682e-01
      3.3037073363213543e-02 2.0744276593476121e-01
      -2.0354832205296519e-02 -5.0229189218204673e-01
      2.7285967809617290e-01 -2.9568368467967645e-02
      1.6103291393972627e-01 -1.7893084018387184e-01
      -7.2297454074481449e-01 -6.4348824210159972e-01
      -2.5938075043508135e-01 7.3900017910344629e-01
      -9.0324833074823599e-02 1.8305289031888390e+00
      2.4756389832943265e-01 7.0280811048611821e-02
      -1.7632100318314686e-01 1.5822409753312444e-01
      -1.4813840979205167e-01 6.7181747926631161e-02
      5.1246289749519114e-01 1.3959293751015880e-01
      -2.9374125709973780e+00 -4.7487040229342992e-01
      -9.8048643191026453e-03 4.5477534808060721e-01
      4.2361940363953460e-01 -4.4477637342257192e-01
      -3.9848822829430319e-01 2.2007071673457959e+00
      -3.0754784916370648e-01 -2.3674364733624917e-01
      3.0896971581859382e-02 7.1485760815590216e-01
      1.1354478623444780e-01 -3.1118496878576563e-01
      -4.5874568727442572e-01 -1.2055223356458415e-01
      -1.0906915814564953e+00 -2.5454930496044198e-01
      6.6786266554199070e-01 -4.4976481138591873e-01
      -1.2968602011760058e-01 -2.2908182241204764e-02
      2.5977349977480236e-02 1.2671980484362144e-01
      -3.1917723204896020e-01 -3.0941723629127066e-01
      -1.0342801078716275e+00 -1.7173567331960696e-01
      -1.1860623423135222e-01 2.2536125013042271e-01
      5.5890403485957627e-02 9.0621928518712003e-01
      -1.4716260757383268e+00 -6.0109313374756813e-02
      9.1073820891350521e-02 -1.1651659723277570e-01
      6.1411161071594023e-01 -3.5789960038037283e-01
      -2.2367113437634359e-01 -2.0548150029220486e-01
      -9.9684359535021999e-02 -4.4102701317399962e-01
      8.1083063361256003e-01 -2.6144925100529648e-01
      3.3131391165286028e-01 -3.7183677268790155e-01
      6.7633896503901447e-02 -1.3640662848529700e-01
      -3.9517352019322488e-01 4.1933160809864617e-02
      2.2093668562991187e-01 8.0882883898747127e-01
      -1.3827841835506149e-01 4.1733691333601897e-01
      -3.8134831415194187e-01 -4.4325523761458402e-01
      2.0575261058345168e-01 1.1594565546729946e-01
      3.4839759899599233e-02 5.5777105530767035e-01
      -9.8249219902550769e-02 4.8796903658831096e-02
      -9.0528878890152070e-02 7.3419165108077250e-02
      1.5092544333803515e-01 -1.2614062099557224e-01
      -9.3055046285837037e-02 5.3698776766401557e-01
      -2.9957125099027496e-02 7.0390143977554775e-01
      -1.2993293284228277e-01 -3.5885955114651658e-01
      5.8943688505845271e-01 3.4187323810782122e-01
      -1.0174063794020713e-01 4.2508513247709245e-01
      5.9071694038156056e-02 4.0940617022122533e-01
      -9.1514100163389914e-02 1.1796170811345034e-02
      3.9633551211622248e-01 -2.0249927697801218e-01
      4.0784654780915774e-01 -2.3633606907106197e-01
      -1.9722248342876633e-01 1.0221955106995781e-01
      4.3909648637643600e-02 4.2535170541666728e-01
      -1.4221692949721423e-01 5.8003177570524695e-03
      1.1390495267053392e-01 -7.3866652116796189e-02
      2.9520902309434599e-01 -1.7568330132507279e-01
      7.1056755068252686e-01 3.9766084451654032e-01
      3.1290722037294472e-01 -8.4215947971099325e-02
      2.0923548961276689e-01 1.4804636597467380e-01
      -3.5074105856806187e-01 -2.9552930896285742e-02
      -7.9765221944676473e-02 -4.0926032292019732e-01
      3.4005438362303547e-01 3.7401547835244675e-01
      -1.7779659772379208e-01 1.2215416390534496e-01
      -8.6830831735479480e-02 8.6446529291362206e-01
      -3.9866528229679865e-01 1.1891719983589102e-01
      2.6542773816334779e-03 -1.4140259314838710e-01
      2.3074851641177124e-01 1.6283190056936056e-01
      -4.3978434202621264e-02 2.8604255694660373e-02
      -1.0188707506641886e-01 -6.4029837492382460e-02
      3.3454683818009295e-01 -1.7762610792916020e-01
      -3.2298055510369272e-01 3.4530488338117571e-01
      6.7518334018211779e-02 -1.6062061039026393e-01
      -3.9024509411715630e-01 2.0049191942307818e+00
      -7.5457013882733104e-01 4.3967152619458388e-01
      -8.9350115358009707e-01 4.4995185932448489e-01
      -4.9179702399378417e-01 -8.0053793077029889e-01
      5.0504965147546843e-01 1.2588844499367406e+00
      -3.5774281859051853e+00 2.1003676229136467e-01
      8.4481418116400930e-01 8.1826111186906092e-01
      8.5261119166188448e-01 1.0260585449270092e-01
      8.4021059494458716e-01 3.0017538111575011e+00
      -1.9704673019474134e-01 1.2407318167348690e-01
      5.6366889333437797e-01 4.6881321355617245e-01
      9.3177722091966533e-03 3.5802263787208166e-01
      9.3042238837120372e-02 6.7077309605101199e-01
      -9.2525389404661074e-01 4.3765888759112820e-01
      1.2680369903182909e-01 5.9618708380311480e-01
      -2.7551529026292432e-01 5.1045678423825923e-02
      -9.6229174039505289e-02 -1.8046000070246898e-01
      3.2661378895701576e-01 5.0686096532904545e-01
      4.7867956556878255e-01 -2.7871736503725647e-01
      5.5588955694096331e-01 -1.8660290426314108e-01
      -1.8708316917274290e-01 7.1723664667111653e-01
      -1.6370274375756213e+00 -1.7218781015422926e-01
      -1.1181672653944984e-01 1.6034369992658379e-01
      1.6361272380536136e+00 -8.5699770002166442e-01
      3.1461999654016598e-01 -4.2618532331767128e-01
      -8.3472602933458773e-01 4.6651383096296156e-01
      1.1103150477637369e+00 -8.9976453064808670e-01
      -1.1315959552524159e-01 9.6156448629228342e-02
      2.3712514822921651e-01 -2.3467730720217700e-01
      7.2898613834950621e-01 -1.2666119991479013e-01
      6.3603715645549896e-01 3.0001583440551849e-01
      -7.9904025536126233e-01 -4.6343825899433949e-01
      -4.4993581751698175e-01 -8.0034638378038414e-01
      3.6445063979753043e-04 7.8314453910230442e-01
      -1.5191831590015650e-01 2.1084594156731309e+00
      -1.4851095451681706e-01 1.1253302813111046e+00
      1.5771262029664052e-01 -8.9664351903474424e-02
      1.5378469682104254e-02 -8.5941005044886642e-01
      9.7571440895741546e-02 -3.2610941179694453e-01
      1.4297605131470372e+00 4.0552202143875732e-01
      4.4388890875044551e-01 -2.6488766436204115e-02
      1.0239160040410542e-01 6.2966679460240238e-01
      1.6169756553189629e-01 7.7782305888669412e-01
      -1.0419214358274431e+00 -1.7010455556632298e-01
      4.9588480740623261e-02 -5.2987667952287010e-01
      4.5764238635047261e-01 3.6302589417057701e-01
      1.9728407109106913e-01 -5.7412787092696482e-01
      3.2177054584932674e-01 5.5914119243076321e-02
      -3.3414734672221824e-01 -4.5034903918152636e-01
      -1.7471346560801271e-01 1.1206458502195535e-01
      1.0526631242416122e-01 -6.5531702015646609e-01
      1.7064330420811646e+00 1.0178015267692555e+00
      -5.8385235835685667e-02 1.3845212752770675e+00
      -9.2645263812210166e-01 -2.6573342215386124e+00
      6.7555021114255237e-02 -3.5786719273539563e-01
      3.8796552882819590e-01 -3.0128907735188437e-01
      -1.5556880797182024e-01 -5.7033656065413474e-01
      6.6373997831366638e-01 6.3179134264736536e-01
      7.6169938621620638e-04 2.5583576854070289e-01
      -7.5142347684624378e-01 2.9624524114393211e+00
      -8.8730979701704304e-01 -4.9488656591195662e-01
      1.0067682172672907e+00 -2.6425719638790816e-02
      7.5575246521236886e-02 -1.6004690248965417e-01
      -1.4448929470776166e+00 3.4489679930225098e-01
      1.1662228033532267e+00 -1.5721402493513110e+00
      2.0846564472871473e-01 -1.7799999262269078e-01
      5.4385993466704385e-01 3.0460591395367315e-01
      4.6111450574152313e-01 -4.5389742801138211e-01
      -6.3016058679148146e-01 -5.6635081061927994e-01
      1.4317219677936507e-01 1.4436201067816889e-01
      4.9907451361513241e-02 -2.1385520217109025e-01
      -7.1571406472949156e-02 -8.0537286848045253e-01
      -3.1977754510599155e-01 -5.8841676924380348e-01
      3.7686927493587080e-01 1.6606930686240431e-01
      -4.1525619360924727e-02 2.3348177569078768e-01
      -6.0060818256609960e-01 -3.1749497777460284e-01
      -3.1762111948344846e-01 -1.3617627967111198e-01
      -5.1451499135599689e-02 1.0052412990780397e+00
      1.0917690926728781e-01 -4.4777551617053879e-01
      -5.6787119436730882e-01 5.9109846842723268e-01
      4.1582502013062195e-01 8.3675335498290704e-01
      -6.2384103080149733e-01 -1.8955141015226817e-01
      2.7168502220454942e-03 4.3283376366924403e-01
      4.8827941969273293e-02 -4.6049283910819644e-01
      -3.8593845849438657e-01 -7.5897268989546052e-01
      1.6386103246379918e-01 5.3178522524051020e-01
      2.1603326147711804e-01 1.7864690950123807e-01
      -6.1247092725567398e-01 -6.4049753455969516e-01
      -7.2378385202139184e-02 -3.8223277000507000e-01
      -2.0251675364568603e-01 2.3459414614564020e-01
      -8.6973931594344300e-02 6.9315482836083364e-01
      -7.0469531450018952e-01 1.9899757291296585e-02
      1.2472001649030767e-01 -1.7282176225357915e-01
      -1.3003852121589532e-01 -5.3863936123726086e-01
      -3.0469282901699229e-01 3.2777860095556061e-01
      -1.7328707790343620e-01 7.1375368340027534e-01
      -2.7356752874450951e-01 -5.2985783696716644e-02
      8.4613940205759264e-01 -6.5526348513983118e-02
      5.7524942324765971e-01 -3.2016832303510911e-01
      -1.2621822786924425e-01 -4.1368873743339968e-01
      -2.6369169827510996e-01 2.1998402071771800e-01
      -3.3579952308976935e-01 6.9270125160319806e-01
      4.8224335813797659e-01 -5.8403490781811529e-01
      2.8675227072635645e-01 -1.5362475503670711e-01
      -8.5505398159972368e-01 -3.2353968482365258e-01
      1.9520473410296843e-01 1.5130177670911589e+00
      -6.5869002602788917e-01 6.2014840379174563e-01
      6.1077487216123583e-01 2.4756304344539579e-01
      5.2088322054237836e-02 -7.6218563353955951e-02
      -3.0682849882731289e-01 7.8863661515259398e-01
      -6.2587130442276673e-01 -2.4887272060195850e-01
      -4.4790143419101636e-01 -1.0216933887982463e-01
      7.5761560810971643e-02 3.9941892024666831e-01
      1.3917599288642390e-01 -9.0108752143169568e-01
      -4.5154783682543614e-01 -1.0601515613210197e+00
      -7.2731631717335682e-02 -4.2307981866776989e-01
      -8.9621232998742417e-02 -1.7049335586026690e-01
      5.5872749843369118e-01 -2.3608225032607463e-01
      -3.1079295496428366e-01 -3.4509922042396102e-01
      -2.8015759123150530e-01 6.2771887470140758e-02
      -2.6418844587015805e-01 -2.9486609244809320e-01
      -2.5591062399002440e-01 -8.2088170518821368e-01
      3.8196621183790841e-01 -4.9094352491956200e-01
      1.1851765205441696e+00 -4.1254466314121926e-02
      -3.7010983901632599e-01 -7.8014977447795752e-01
      2.9839817510514960e-01 -1.0726903406025487e-01
      -8.3333763640574254e-01 1.6199316930237620e-01
      -3.0104986240679049e-01 6.7118620077882452e-01
      -1.8119570157634637e-01 -5.6849156103887788e-01
      2.3972647840193170e-01 -5.8639384333053202e-01
      -4.0751932301467503e-01 4.9906748020614894e-01
      -8.6213425808686506e-01 1.0727557106467167e+00
      -1.5606614891533824e-01 3.8079162296135965e-01
      5.8753337043342191e-01 -2.1098097502133439e-01
      -3.6496424102431713e-01 3.2233895315908617e-01
      7.3891316041710042e-01 1.5881956271697112e-01
      1.6512614816926793e-01 -2.8965444044019868e-02
      -2.3402869652528432e-01 8.9212358610389164e-01
      -2.7534341528440226e-01 7.5564230089679926e-02
      1.9997777358563923e-01 -8.5792049469318210e-01
      -7.1830097352862388e-01 4.6877231169631595e-01
      2.8642999398326502e-01 8.0635535034235195e-01
      -1.4662855315673065e-01 2.7175610282249918e-01
      7.4809851260213533e-01 -3.8929574047309090e-01
      5.7108691733862837e-01 -3.1501133215697574e-01
      3.6948659719358318e-01 7.9809508013619035e-01
      5.1326326302626912e-01 2.9333942231163168e-01
      -2.1812540624035165e-01 7.7595913910314540e-01
      4.5281762881743426e-01 5.5791162772434677e-01
      4.5951104702754687e-02 5.6781565839788384e-01
      -1.4254130512561544e-01 -1.3188841975603263e-02
      -2.6177778595918966e-01 -1.7932639058939689e-01
      4.9495772568072549e-01 -2.4126798375051156e-01
      2.0782671041633019e-02 -4.6588184807914640e-01
      7.2028530513586198e-01 6.2867586139519449e-01
      4.2029225696643840e-01 1.4584575382170709e-01
      4.2453911488941724e-02 2.5170934163197078e-01
      6.6453691320111019e-01 -1.7481475632117338e-01
      1.0516486573541066e-01 -1.7149012020811738e-01
      8.6879606952282185e-01 -2.8850896518867913e-01
      -3.3916802914384714e-01 -1.6312392643390344e-01
      -8.3867127574456013e-01 2.5281155503522257e-01
      3.6881367678759791e-01 2.8957095978445352e-01
      2.5149106878060362e-01 5.4490657197525827e-01
      2.0684076795739439e-01 -2.2679836703430808e-01
      -1.0664634409716143e+00 -1.8915305825961390e-01
      -5.5880470594183562e-01 -7.0186170067462450e-01
      7.7204708411926415e-01 -5.2439191563697041e-01
      -4.1411554547015805e-01 -3.7477899761741285e-01
      4.3550661316762224e-01 1.6578891604476667e-01
      6.8142374662337080e-01 -5.6273390348198338e-01
      -9.3763416517497946e-03 8.6277544738246489e-02
      -1.2370638742992354e-01 1.4845160297403773e-01
      -3.0904002928553576e-01 -6.1184173592687474e-01
      8.8429768873626935e-01 -2.1980607475964986e-01
      9.8394920909441713e-02 8.7903197120667642e-01
      -5.6217495993554512e-01 8.9588271825091936e-02
      3.1621159536220417e-01 -7.8032075938439738e-01
      1.6038777040283797e-01 1.7518107521332136e+00
      9.4860320399335174e-01 3.7484358161704517e-01
      3.9434328041919797e-01 -4.0933526927979830e-01
      -5.1161679887648881e-01 6.9409366634363057e-01
      -8.4739036576601112e-01 6.3693325691195279e-01
      -6.7726031482095161e-01 1.2669914411211297e-02
      7.7960734607164750e-01 -3.8731989178059784e-02
      -2.2354335740987885e-01 -6.7919965610045441e-01
      -6.8915424150354943e-01 -4.0301117953131105e-01
      5.6091702049647259e-02 -6.1724829711144270e-02
      1.0752019775172877e-01 4.7649842415125382e-01
      7.4760438163958581e-02 -1.1305832956573074e+00
      2.8342161720323056e-01 2.1559653272271848e-01
      1.3317815115884608e+00 -7.2529974547505405e-01
      8.7689188984368116e-02 1.1248121644905003e+00
      -5.6619146132808025e-03 1.8080175446145408e-01
      -1.9463429226402224e-01 -1.2732388434516689e-01
      4.5780529112500162e-01 1.4929577492566923e-01
      2.2238904681442931e-01 1.2342186505284043e-01
      -1.6076984556233498e-01 -2.1714611739144053e-02
      -3.6735966969594802e-02 -1.9697830248349851e-01
      4.5141130949329517e-01 -6.2671392259362868e-01
      -1.9949314558665521e-01 -1.1815428934730923e+00
      5.6796909963494520e-03 -9.4386623166840031e-02
      -1.3378366129178787e-01 7.6947333820693442e-01
      4.6198613080305873e-01 -3.2606065374221771e-01
      1.8384882643299871e-01 -4.5369281560013998e-02
      -5.3253717850600235e-01 -2.9524031258882483e-01
      -3.8959153397277396e-01 7.8285305257612819e-02
      3.3411656359700122e-02 2.8683268025554737e-01
      -2.2832090672683955e-01 -1.5081834995339846e-01
      -8.6003837127161664e-01 -8.0046560055749283e-02
      -4.3987600110293962e-01 3.9482401156354568e-02
      2.3511808360965714e-01 2.9272358805449161e-01
      3.1238475004380672e-01 5.0306205617126287e-01
      3.7723427703300638e-01 6.7121236552395314e-01
      -2.7053439104321692e-01 -3.6553410591706303e-01
      1.5274562606766434e-01 5.8212140787359890e-01
      -5.7885124295844692e-01 -7.3281370289559083e-02
      -3.0407442376048704e-01 -4.3485635741164175e-01
      -1.0357197208552671e+00 5.5096172195114845e-01
      -1.0836302568762229e-01 7.7368788292618318e-01
      6.8850233901544244e-01 2.8466837602946340e-02
      4.1908337639111976e-02 -1.1843234873426567e-02
      6.5526303257849527e-01 -1.9243173090445734e-01
      -8.8323397391402980e-01 5.9107957159694247e-01
      -3.4743560987416577e-01 -7.0294445500542468e-01
      -9.3100573817951238e-01 2.4705371254323336e-01
      3.8498391743268162e-01 -2.6821057010104791e-02
      -2.0623234056303882e-01 9.4488829709130917e-02
      -3.2818337265788887e-02 3.9622527967252949e-02
      1.9289396501983921e-01 -3.5495997861931439e-01
      -5.5142366681001087e-01 3.2040196225429829e-01
      -1.4646355372286862e-01 -1.0795891574577837e-01
      1.6104927410926484e-01 -4.2453612083734757e-02
      1.0716236259734564e+00 3.8647659754149549e-01
      3.8886400680805105e-01 -2.1923088997721990e-01
      -6.4999207721332952e-01 -2.4106229397833048e-01
      -4.9021342947653368e-01 -7.3852118507358877e-01
      -2.5284073775669508e-01 9.0452869767759891e-01
      5.1653935614611509e-04 1.2014451648724198e+00
      -1.8524114216787024e-01 2.7191965537814383e-01
      3.2058161272866664e-01 8.6575164800794621e-02
      -2.4176062710495125e-01 -9.5942163261787405e-01
      -6.3766057180131630e-01 4.0056594812381641e-01
      1.6280012144020020e+00 2.0702621331723556e-01
      3.6260683965320140e-01 -2.3173068944862227e-01
      -7.1576026733238407e-01 1.9263977446284797e-01
      -6.2043637592643607e-02 2.1942182155720735e-01
      -1.3011524789626576e+00 1.7251185243125361e-01
      3.5074677026779194e-01 -8.5472030165640533e-01
      1.3251254025641326e-01 9.4446506898219518e-01
      4.6097936943915824e-01 3.8541050426670259e-01
      3.5984014839021994e-01 1.9564462758232953e-01
      -5.3473423972977788e-02 -4.7280228855612005e-01
      -3.7769033704028021e-01 -3.0139373671181230e-01
      -3.1526172586168949e-01 -5.6173427456003888e-01
      1.1719761745386894e+00 5.0323245613382306e-01
      -2.9409717482435443e-01 1.2931761111547164e+00
      -8.1444779920011323e-01 -2.2654808466562888e+00
      -2.0534242002674374e-01 -8.1325440202679899e-01
      4.5021540939986388e-01 -7.1262051111011762e-02
      3.0867557905984264e-02 8.6342230661111075e-01
      1.0324237400843674e+00 7.1193870329414422e-01
      -2.9225003774400926e-01 7.9117545669637668e-01
      -5.2359553273915538e-01 2.3904150021310913e+00
      -2.1154550741997841e-01 -1.0940811092331816e-01
      6.4712732264739103e-01 1.1143978862461407e-01
      -2.0098678442133738e-01 -2.2752232989749074e-01
      -9.6191046828249027e-01 -2.3247402743884224e-01
      9.2775561149059538e-01 -1.8089989411878844e+00
      1.7402695092385012e-01 5.8747872164731585e-01
      4.5799196564916672e-01 2.3499635010118028e-01
      1.3386154486177851e-01 4.3982841060035177e-01
      4.9162625721959519e-01 -3.7774404157612390e-01
      7.9343841719063751e-02 -3.6416912599160983e-01
      8.1851453688143927e-01 -1.4336197015291730e-01
      1.4024732245294494e-01 -3.7722354218090981e-01
      -1.4471192423691304e-01 -3.1974364404235578e-01
      -8.4969208268670396e-02 -4.3471123543643270e-01
      7.0537625462594705e-02 -2.7434270640423591e-01
      4.9629680359975109e-01 1.7111306392687850e-01
      3.1327763826502253e-01 2.0587701041083051e-01
      2.9176399901312089e-01 -5.9018291420669788e-01
      -2.2715240439516812e-01 -1.1589914339256978e-01
      5.7135097903595167e-01 2.5312097968990360e-01
      -9.2804622284566740e-01 4.6195133902069874e-01
      1.8687989937451877e-01 -5.0022001583095788e-01
      3.0961539640213048e-01 4.5164581047138708e-01
      -6.8237711260282899e-02 2.0075480249652292e-01
      7.4272681222403414e-01 8.1268160575408344e-01
      -3.9689465446972334e-02 3.1597256545488223e-01
      -5.9413213099962781e-01 1.2937335401661301e+00
      -6.4049666429771626e-02 1.1724262328823427e+00
      -8.5107275517330494e-01 -1.0771897037083844e+00
      -5.0244950958244383e-01 3.3230706831245249e-01
      1.4910968838802370e-02 5.4199258083426655e-02
      -4.8939147542360978e-01 -5.0833446725272746e-01
      5.4513928880906959e-01 2.0474626532972440e-01
      4.9592444521283552e-01 -8.0805363637574124e-01
      8.9915699976066776e-01 -2.6848868504213185e-03
      -1.4871650601695136e-01 3.7355770896542323e-02
      8.8194311392544768e-03 4.4882249677876518e-02
      -1.0649411054506451e-01 2.5776999891692454e-01
      1.3257399424919925e-01 1.3678120090747634e+00
      4.2847074245006561e-01 8.2291894755141287e-02
      -2.9498395430994373e-01 8.2879371692254633e-01
      3.1387483715876707e-01 1.1148378209845401e-01
      4.3995158960781355e-01 -9.2575055799858197e-01
      -4.2030091685656035e-01 -6.3268802528663015e-01
      -4.8532375763084701e-01 1.1433262571056411e-01
      1.9236264034934192e-01 9.4639248689705358e-02
      6.1790010339112544e-01 3.6082243709002310e-01
      -1.8595445116903380e+00 -2.6116558339841667e-01
      -1.1984570081763343e-01 -3.6579923870464626e-01
      2.7251857122680295e-01 9.3204765220539931e-01
      -3.1058293200299841e-01 8.2854949785091647e-01
      6.4934218656032250e-01 3.3826679930182943e-02
      -4.0966131897231489e-01 -3.2593035150247712e-01
      1.9807432022207280e-01 1.3680833575714149e-01
      -8.6420392119956702e-01 2.2034331454579295e-01
      4.4887287451906022e-01 -3.1737626273271979e-01
      -7.8812381823309752e-01 2.8718360513491281e-01
      -3.8607595373288492e-02 9.9451406522064545e-01
      7.0998685213624724e-01 7.5923174716817354e-01
      6.0925665496782404e-02 -5.8423234581062067e-01
      -7.4086151126273772e-02 1.0150723895085383e-01
      1.0625342309501630e-02 7.3158972842171288e-01
      -3.4615317734843487e-01 -1.0805282393845244e+00
      -6.0520989165039840e-01 7.2021376912281554e-01
      -1.7304173511683521e-01 6.0573751586860303e-01
      7.2303262192853393e-02 4.2916327003647980e-01
      2.1438410824662632e-01 -3.8225912603276857e-01
      6.9233487393189419e-01 -3.4990449758619216e-02
      -1.8173685461101042e-03 1.5722049212540859e-01
      -4.2939994220668681e-01 -6.4114528279464997e-02
      -2.7022912974464924e-01 -4.0802753397985905e-02
      6.0069221163210708e-02 8.3086736609817288e-02
      3.4585352103168837e-01 9.4333054937378825e-04
      -8.8043099022605834e-02 -3.4445249074982520e-01
      -5.7092091122251509e-01 -1.2150136157075199e-01
      4.1568214986920404e-01 -2.0964970837318617e-01
      3.8037872719260769e-02 -4.1900588585539661e-01
      1.5917011051076879e-01 9.8800554814825947e-01
      -1.3180579633098552e-01 7.5062093346075887e-02
      2.3187725381696160e-02 -1.3494497063226620e+00
      -5.9142108618765277e-01 -4.5668308234690630e-01
      2.4285858435295313e-01 5.9168935188642036e-01
      4.4020718728290653e-01 2.5177039673400442e-01
      3.9697888858278407e-01 -1.9879479574330172e-01
      2.7790016731046296e-01 -3.4434874067632176e-03
      8.0085702539256634e-02 2.3240128034100038e-01
      5.4414604757238549e-01 5.2300421513158735e-01
      -1.5120940556488957e-01 9.5320741249992791e-01
      4.0845519000551722e-01 4.0128183295844061e-01
      -1.9457541521840530e-01 1.9266344998425342e-01
      -1.8105739326131479e-01 -1.2832390032450894e-01
      -3.2984868744767315e-01 -8.5578305586102632e-02
      -9.5601484825540858e-02 -2.5741201858330626e-01
      6.6855172319671669e-02 2.3299342742329296e-02
      9.4864859957756550e-02 1.1351151953158856e+00
      3.2916282926879437e-01 8.8316089269593501e-01
      -3.7351678906363428e-01 -4.3834142372145307e-01
      -2.4189708237583080e-01 -3.5743621589029323e-01
      -9.1740111391900817e-02 1.2556923937539916e-01
      4.6672471329294762e-01 -4.1319529875965805e-01
      -3.6945272485331104e-01 5.4316405844010562e-01
      -1.7107468887398805e-01 -3.9219979611911343e-01
      9.5723754174569098e-01 6.4421854246078936e-02
      -8.0259512919379175e-02 -1.5952786658929083e-01
      1.7533134792017757e-01 -2.6111638665798520e-01
      -6.1907224107501024e-01 1.6679602916164625e-02
      -3.8028133753605153e-01 1.4093370987603883e-02
      1.2187961643671945e-01 2.4176195077380022e-01
      -2.6524597584799603e-01 3.7112350088609736e-01
      1.1976661865085389e-01 8.8592111318902667e-01
      2.2033616290453426e-01 2.9435740991075604e-01
      1.1801216269120630e-01 -3.3098159890992468e-01
      -4.8126520557856206e-01 -5.2022445181082969e-02
      3.2877252823755954e-01 5.0090180512366755e-01
      5.6269162437081421e-01 2.0797004484508674e-01
      -5.7505567017007508e-01 8.5379730310365887e-02
      -2.0684463905119943e-01 -3.6445471463847773e-01
      2.4549661392346128e-01 -3.4807385460379252e-02
      -9.2593400127823811e-01 1.0525146055652319e+00
      4.1551404804980069e-01 1.9585649898318655e-01
      -2.6618130935000134e-01 -7.0924139604820247e-02
      2.0737749541101336e-01 1.8772872407029695e-01
      -1.0608314192259646e-01 -1.1813191652727044e+00
      3.4208583439124218e-01 -2.8366700490854818e-01
      4.0396744157680575e-01 -3.3751524486876033e-01
      -1.4774484078568217e-01 2.1568964844788641e-02
      7.0273200264433913e-02 1.8837186197566910e-01
      -2.4279713015607146e-01 -4.4085891769320434e-01
      -5.2497971363703555e-01 -5.1923740883749570e-01
      1.4383010668938140e-01 6.7009491975339086e-01
      6.4657849824671307e-02 -1.1108975942899262e-01
      -8.4501231645335950e-01 1.3633504782199557e-01
      -1.8947966209720574e-01 -3.5733058052932204e-01
      -4.4322083659726297e-01 6.7544081249244242e-02
      -7.3814258532506949e-02 8.4724674097244190e-01
      4.2153244890289676e-01 -1.1078873528045617e-01
      -5.7548745441632587e-01 8.2375103902931790e-02
      3.2732188513499183e-01 -2.3820542696962108e-01
      -7.0348795032658151e-01 3.3528439398165077e-01
      -3.0287243276950804e-01 4.8749064997449720e-01
      -7.3117691362918943e-02 2.4227856527947653e-01
      1.8263631975178048e-02 -4.7008892292025056e-01
      4.1775007117517499e-01 5.7373817395058591e-01
      -6.3699072044754210e-02 6.6779655815821937e-01
      -3.4355142888132467e-01 -1.3585041589463667e-01
      -3.8960969046367022e-01 -3.6827703382346916e-01
      8.6501894952949843e-01 1.1409823765080714e-01
      4.3947537577820173e-01 4.5625122480913261e-01
      -5.6046553001049293e-01 2.1547467625790648e-01
      7.2454504529272967e-01 -4.6880182178529178e-01
      1.4851249375917422e-01 -5.0658189043817814e-01
      4.3707151390649951e-01 1.8211418562281184e-01
      -2.4939809112085876e-01 -1.0572940742300181e+00
      -2.5793880126091018e-01 -2.9973572565070183e-01
      8.2388873193802531e-02 7.5100794637428181e-01
      5.2968829449553079e-01 -1.1636118543192686e+00
      5.8525595353879273e-02 -3.1691098366859216e-01
      8.3977870198917060e-02 -5.4779264003407035e-01
      -4.7713582401041782e-01 8.7402734103142563e-03
      3.2814676731549419e-01 3.1596884293348948e-02
      3.5290559185550574e-01 -1.6031594060710205e-01
      -4.7216105434975969e-01 -1.7579688114612688e-01
      -3.1458549357020427e-01 -2.0151276185706915e-01
      -1.1405590707566608e-01 1.9413165750154990e-01
      -9.1424957641461524e-02 -2.3345566146421518e-01
      6.5536669600365394e-01 -3.0822993123658460e-01
      -7.8979207535246301e-02 -1.6040453166304872e-02
      3.4402189340714256e-01 -8.8063084916623319e-02
      -1.5257452555034220e-01 1.8894001839101454e-01
      -7.7610505194960422e-01 2.8810526557689864e-01
      -2.2873442280670023e-01 2.4534499044260372e-01
      -1.4219155494263032e-02 2.1205844781076405e-01
      -4.9773590116035710e-01 -1.2935077947215781e-01
      4.3595715323218105e-02 8.1838338202815741e-01
      6.0091367730764156e-01 -7.4372370489808950e-03
      -2.7607861524849397e-01 2.2214139683125869e-02
      -6.4368084704198736e-01 -1.4687452085862071e-01
      7.9779722813119458e-01 -2.8952508472752331e-01
