<?xml version="1.0"?>
<opencv_storage>
<opencv_ml_ann_mlp>
  <format>3</format>
  <layer_sizes>
    108 62 31</layer_sizes>
  <activation_function>SIGMOID_SYM</activation_function>
  <f_param1>1.</f_param1>
  <f_param2>1.</f_param2>
  <min_val>-9.4999999999999996e-01</min_val>
  <max_val>9.4999999999999996e-01</max_val>
  <min_val1>-9.7999999999999998e-01</min_val1>
  <max_val1>9.7999999999999998e-01</max_val1>
  <training_params>
    <train_method>BACKPROP</train_method>
    <dw_scale>1.0000000000000001e-01</dw_scale>
    <moment_scale>0.</moment_scale>
    <term_criteria>
      <epsilon>1.0000000000000000e-04</epsilon>
      <iterations>30000</iterations></term_criteria></training_params>
  <input_scale>
    1.1781693293235659e+01 -2.7548047193856342e+00
    9.7222952597984023e+00 -1.5493287531746083e+00
    1.2138518495268530e+01 -2.8033923893012402e+00
    1.2162139074781823e+01 -3.1330471435088114e+00
    8.7420021704476447e+00 -1.4196940653934906e+00
    1.3252553415651306e+01 -3.4903551685571514e+00
    1.7954652012282260e+01 -5.9085189588460398e+00
    1.3787345021674923e+01 -4.3347498668143496e+00
    1.5072596376556767e+01 -4.8322843907612159e+00
    2.1483956945262321e+01 -7.2365830448995609e+00
    1.1463679281789135e+01 -3.4860943771420638e+00
    1.8100552290885044e+01 -5.9892730767580113e+00
    1.1556321314406910e+01 -2.7486893476577712e+00
    9.1206933715130472e+00 -1.2348903081013818e+00
    1.1238237121643847e+01 -2.7293946752600196e+00
    1.2836276148671361e+01 -3.5977354696176653e+00
    9.4516029535213892e+00 -1.1924021740645923e+00
    1.2276918148976927e+01 -3.1858340290823914e+00
    1.9201603863606802e+01 -6.4850522386624014e+00
    1.0121768271867030e+01 -2.8811373014178030e+00
    1.7252202939248669e+01 -5.7661223055177659e+00
    2.0554866737831752e+01 -6.9976951340267197e+00
    9.7559845524854580e+00 -2.7532529292959005e+00
    2.0919392384429532e+01 -7.1299067233570348e+00
    1.2629377047688163e+01 -3.4431395188938860e+00
    1.0457123093932589e+01 -1.0220611395892552e+00
    1.2076542034395374e+01 -3.0865368546882208e+00
    1.1243575642129768e+01 -3.1189035728744012e+00
    1.0382779171418594e+01 -1.2825567691544628e+00
    1.2439971237912044e+01 -3.3610376057680313e+00
    1.9150951368560637e+01 -6.5705634181072785e+00
    9.3847042795953470e+00 -2.2497685055317187e+00
    1.8984734789514167e+01 -6.4972745847060667e+00
    1.8901757616207064e+01 -6.4795202450268192e+00
    1.1321535639073616e+01 -3.1686225176385086e+00
    1.9763036105704742e+01 -6.7888867244911770e+00
    1.5879699412152458e+01 -4.3964339123335590e+00
    1.3603651090564538e+01 -3.8366891606883589e+00
    1.4059770061510832e+01 -3.7067667692764363e+00
    1.7944208016664099e+01 -5.1307334056485834e+00
    1.2039096154884984e+01 -3.3454999262219709e+00
    1.6786224749841910e+01 -4.6997889415379985e+00
    1.5097314637090063e+01 -4.1295704241462081e+00
    1.3778145152964179e+01 -3.9461470283984945e+00
    1.8131474253164800e+01 -5.1772790288785329e+00
    1.7443677078184201e+01 -4.9290780309939972e+00
    1.1262529237533849e+01 -3.0641002390852736e+00
    2.0562363072961229e+01 -6.0758454670503399e+00
    1.5114428327374254e+01 -4.1723318734264270e+00
    1.1030413220589177e+01 -2.9035810515068041e+00
    1.4543058381992333e+01 -4.0218320195087029e+00
    1.6940272637980197e+01 -4.9058841453548530e+00
    1.0698677760580383e+01 -2.8062233371993459e+00
    1.7077717262756828e+01 -4.9349118611067810e+00
    1.5676699789377741e+01 -4.4138404893998642e+00
    1.0518380081668765e+01 -2.7535082567731721e+00
    1.7615344168193563e+01 -5.0620303195238128e+00
    2.1362543157879205e+01 -6.3908943408890373e+00
    1.0218909399783794e+01 -2.6576228234647430e+00
    1.9802278781955543e+01 -5.8584920839364294e+00
    1.4995798936432131e+01 -4.3696433756172963e+00
    9.8876753190685438e+00 -2.1070949137329364e+00
    1.5336151774355516e+01 -4.4331539745678148e+00
    2.0115535076416698e+01 -6.1093216683388434e+00
    1.1164633798312446e+01 -2.7734842867359544e+00
    1.8859245590047749e+01 -5.6318127402551612e+00
    1.7619890609315103e+01 -5.2479042804270311e+00
    9.5474509141904313e+00 -2.0819164805035375e+00
    1.7657377123754372e+01 -5.2262886889004889e+00
    2.5630478945092346e+01 -7.9926398632072573e+00
    1.0388354673974474e+01 -2.5897360201100770e+00
    2.3941327869463990e+01 -7.3531112795430769e+00
    1.3634162188636058e+01 -4.4558557884955707e+00
    1.1119969392759018e+01 -3.3346911383037972e+00
    1.7004381490122771e+01 -5.8241858265889306e+00
    1.7580453103289177e+01 -6.0431297826804684e+00
    9.1521403325827837e+00 -2.5251935195729254e+00
    1.8131837315474460e+01 -6.2379622087262296e+00
    1.0179276667243730e+01 -2.2719765031992707e+00
    9.7201015456208246e+00 -1.2176349801029578e+00
    1.0921728380900451e+01 -2.6598019210786195e+00
    1.0755972002106185e+01 -2.8271439409896759e+00
    9.2575131950688174e+00 -1.0741623882267120e+00
    9.5686981029910037e+00 -2.4841770161770005e+00
    1.5238390993923966e+01 -5.1729465885236268e+00
    8.5532834955538721e+00 -2.1495096627119477e+00
    1.5503796670742846e+01 -5.3756519588344887e+00
    1.8746039193503073e+01 -6.6228990999537078e+00
    8.1531592358807199e+00 -2.1648373493418771e+00
    1.6699444375453364e+01 -5.8230900043198677e+00
    9.5244107463478382e+00 -2.3396269006536032e+00
    9.7065449148695908e+00 -9.5752923371875631e-01
    1.0133064453690187e+01 -2.4419436158053340e+00
    1.0920873641926340e+01 -2.8471608207633849e+00
    9.3359518582379746e+00 -1.0647536581793999e+00
    1.0361495647661858e+01 -2.6939346788210949e+00
    1.5883057111443122e+01 -5.6209319199150709e+00
    7.5916397819717183e+00 -1.8406531926183418e+00
    1.5813691531519890e+01 -5.5503372840115723e+00
    1.6346105831074020e+01 -5.6865051596193386e+00
    9.1426645114129865e+00 -2.4116833308277514e+00
    1.4357340790463683e+01 -4.8810530940805732e+00
    9.9726848260118750e+00 -2.5087128072281315e+00
    8.6678568987818760e+00 -9.7794626156183651e-01
    1.0380446481978280e+01 -2.5553788767067167e+00
    9.2623034915072910e+00 -2.2361649510140480e+00
    9.0832161004696577e+00 -1.0788260571077284e+00
    8.6103872373640513e+00 -2.0769386249279522e+00</input_scale>
  <output_scale>
    5.2631578947368418e-01 4.9999999999999994e-01 5.2631578947368418e-01
    4.9999999999999994e-01 5.2631578947368418e-01 4.9999999999999994e-01
    5.2631578947368418e-01 4.9999999999999994e-01 5.2631578947368418e-01
    4.9999999999999994e-01 5.2631578947368418e-01 4.9999999999999994e-01
    5.2631578947368418e-01 4.9999999999999994e-01 5.2631578947368418e-01
    4.9999999999999994e-01 5.2631578947368418e-01 4.9999999999999994e-01
    5.2631578947368418e-01 4.9999999999999994e-01 5.2631578947368418e-01
    4.9999999999999994e-01 5.2631578947368418e-01 4.9999999999999994e-01
    5.2631578947368418e-01 4.9999999999999994e-01 5.2631578947368418e-01
    4.9999999999999994e-01 5.2631578947368418e-01 4.9999999999999994e-01
    5.2631578947368418e-01 4.9999999999999994e-01 5.2631578947368418e-01
    4.9999999999999994e-01 5.2631578947368418e-01 4.9999999999999994e-01
    5.2631578947368418e-01 4.9999999999999994e-01 5.2631578947368418e-01
    4.9999999999999994e-01 5.2631578947368418e-01 4.9999999999999994e-01
    5.2631578947368418e-01 4.9999999999999994e-01 5.2631578947368418e-01
    4.9999999999999994e-01 5.2631578947368418e-01 4.9999999999999994e-01
    5.2631578947368418e-01 4.9999999999999994e-01 5.2631578947368418e-01
    4.9999999999999994e-01 5.2631578947368418e-01 4.9999999999999994e-01
    5.2631578947368418e-01 4.9999999999999994e-01 5.2631578947368418e-01
    4.9999999999999994e-01 5.2631578947368418e-01 4.9999999999999994e-01
    5.2631578947368418e-01 4.9999999999999994e-01</output_scale>
  <inv_output_scale>
    1.8999999999999999e+00 -9.4999999999999996e-01
    1.8999999999999999e+00 -9.4999999999999996e-01
    1.8999999999999999e+00 -9.4999999999999996e-01
    1.8999999999999999e+00 -9.4999999999999996e-01
    1.8999999999999999e+00 -9.4999999999999996e-01
    1.8999999999999999e+00 -9.4999999999999996e-01
    1.8999999999999999e+00 -9.4999999999999996e-01
    1.8999999999999999e+00 -9.4999999999999996e-01
    1.8999999999999999e+00 -9.4999999999999996e-01
    1.8999999999999999e+00 -9.4999999999999996e-01
    1.8999999999999999e+00 -9.4999999999999996e-01
    1.8999999999999999e+00 -9.4999999999999996e-01
    1.8999999999999999e+00 -9.4999999999999996e-01
    1.8999999999999999e+00 -9.4999999999999996e-01
    1.8999999999999999e+00 -9.4999999999999996e-01
    1.8999999999999999e+00 -9.4999999999999996e-01
    1.8999999999999999e+00 -9.4999999999999996e-01
    1.8999999999999999e+00 -9.4999999999999996e-01
    1.8999999999999999e+00 -9.4999999999999996e-01
    1.8999999999999999e+00 -9.4999999999999996e-01
    1.8999999999999999e+00 -9.4999999999999996e-01
    1.8999999999999999e+00 -9.4999999999999996e-01
    1.8999999999999999e+00 -9.4999999999999996e-01
    1.8999999999999999e+00 -9.4999999999999996e-01
    1.8999999999999999e+00 -9.4999999999999996e-01
    1.8999999999999999e+00 -9.4999999999999996e-01
    1.8999999999999999e+00 -9.4999999999999996e-01
    1.8999999999999999e+00 -9.4999999999999996e-01
    1.8999999999999999e+00 -9.4999999999999996e-01
    1.8999999999999999e+00 -9.4999999999999996e-01
    1.8999999999999999e+00 -9.4999999999999996e-01</inv_output_scale>
  <weights>
    <_>
      4.2952368788330902e-01 -6.4241037497189823e-01
      -5.8897521028697331e-01 1.7868058467923409e-01
      9.4153450170719644e-01 2.5551316879530711e-01
      1.1328209521354928e+00 3.6974399718853612e-01
      -1.0427917493554459e+00 7.9124144822423759e-01
      -7.0031052499987045e-01 -7.8748699738030592e-01
      -4.1503728973440163e-01 -1.5456260411523032e-01
      -1.6541135206652041e-01 -8.2122351506762239e-02
      1.4591962751538455e-03 -1.2845255163956868e+00
      -3.9758992336067611e-01 -5.4331249493396086e-02
      -1.4349515474025668e-01 2.2340765867597992e-01
      5.8728690441099873e-01 2.0781287147020103e-01
      1.3437335789464462e+00 4.8012472513850291e-01
      4.2176906990741903e-01 6.5063300813372260e-01
      6.0908890466207510e-01 -6.5699914725657782e-01
      3.4193869049279285e-01 5.5821080972336079e-01
      2.3831012509299410e-01 1.0522915048791595e+00
      -2.9170329199560731e-02 -1.1187649964635498e+00
      4.9326974528798578e-01 -5.5488621445163366e-01
      8.8894613458936111e-01 1.1409309765417951e-02
      -1.5104666443069203e+00 3.0208004134740529e-01
      6.6720313684826238e-01 2.7911787226460499e-01
      -2.0032947151575120e-01 5.7659376119931882e-01
      -7.3589007548113788e-02 -8.9129619614864841e-01
      -2.0261257947111330e-01 -9.3215235248267780e-01
      -6.4099161078333533e-01 -6.1441044673214068e-02
      1.8064850717841052e-01 1.1001832716230023e-01
      -1.8522623134544301e-02 1.7714830736088649e-01
      -2.8275703503966514e-02 4.2908514465245051e-01
      -1.5232129395522284e-01 7.4428080924678364e-01
      -6.3227615844986351e-01 9.6342791548060602e-01
      -5.9454057707738501e-03 1.2783662838310712e+00
      2.9039404711915751e-01 -9.9558707322793571e-01
      -2.7721737343249098e-01 -2.6231817048249623e-01
      2.0172028329054323e-01 2.5211049516500839e-01
      -6.5335332633477095e-01 6.6410921437402307e-02
      -1.9519033605739103e-01 4.3867680475187837e-01
      1.1180931022846320e-01 5.0735054089272558e-01
      -3.9216360561987895e-01 -5.4285770190712501e-01
      -6.8918964704215080e-01 -4.0096149235865236e-01
      -6.0935994887292355e-01 3.2665515854177513e-01
      4.6982910812201478e-01 -1.1500992127954899e+00
      3.4898544354760724e-01 -2.4767075597950708e-01
      -1.2471205931508203e-01 8.9864170725700465e-01
      -1.9884624172043954e+00 -4.5641271643258047e-01
      4.9694874048187121e-02 -6.0637152746819224e-02
      -5.7139230718360656e-01 3.1336386437515229e-01
      2.6962137294183636e-01 -4.2779139537921140e-01
      -8.9741748106853680e-01 1.0830151622783660e-01
      -7.8046691240323263e-01 5.4769516871659418e-01
      -9.1790410521968768e-01 6.3061428932549168e-01
      2.3009800558480956e-01 5.6308719497464473e-03
      3.2124030518667251e-01 -4.3910195630674020e-01
      -3.1152570295928933e-01 2.7550097262173473e-01
      4.9938727812591371e-01 9.1388703420287709e-01
      6.3458086181308840e-02 7.1306335040477842e-01
      3.1289227475233278e-01 9.1178958661934970e-02
      -5.1446363132726014e-01 -4.3875341920507216e-01
      -1.8935033873285090e-01 2.5617841006526348e-01
      -2.5002617019348738e-01 -3.4731336907875554e-01
      6.1508006273412597e-01 9.5560041927728517e-02
      2.7291549253180714e-01 -1.2931739879849291e+00
      -1.2798711361206921e-01 -8.7740713819723104e-01
      1.2426334736576612e-01 6.3551562790970173e-01
      1.0403033598784410e+00 7.7184359563093732e-02
      2.8689992517747228e-02 -2.8971934127831872e-01
      7.0555933429853501e-01 -1.2017371207870618e-01
      -6.6245758564019952e-01 -1.3549227965760305e-01
      -7.1235778334553509e-02 -2.5705748929763650e-01
      -4.5578517715817857e-01 -1.9312997385123176e-01
      1.9882100006273515e-01 -3.2877709179122711e-01
      -4.7253331833545220e-01 -7.5056168067732321e-01
      2.2132589432481971e-02 -1.0239311847067270e-01
      -4.3126612513753042e-02 3.8844262175230904e-01
      2.9760678544324742e-01 -5.8444557195247027e-01
      2.8305325198664044e-01 -3.6758816541305606e-01
      -3.3886679791772245e-01 -8.2847943920776457e-01
      2.7747208253705863e-01 6.6595864411439865e-01
      3.3045376958930944e-01 2.2443722512065178e-01
      -2.5057833922082723e-01 -1.5244284980482575e-01
      -3.2566110275332176e-02 1.7939863824150662e-01
      6.4023889811238277e-01 5.7306554374483043e-01
      -1.8369379951621992e-01 2.4285556190878591e-01
      2.8483520153557340e-01 -1.3329417645180930e-01
      1.2113203552210359e+00 -7.4145745176358496e-02
      4.0377333150779837e-01 1.3938648911350550e-02
      -7.1838917753777387e-01 -5.1474483247548874e-01
      5.3957177312661142e-01 3.9743331923437530e-01
      -1.9658809364997626e-01 -1.0156722857353644e-01
      -6.0256989763036048e-02 -4.6508966741118979e-01
      7.8097270769077252e-04 -4.2186289589069947e-01
      -2.9971706457361763e-01 9.6543503198780301e-01
      3.0720614551886538e-01 1.0432997015117003e+00
      1.5433144843306160e-01 -3.9215138564594056e-02
      4.9801551275231604e-01 2.0400058245166783e-01
      -2.7169646553905219e-01 -2.1893060919354576e-01
      3.5325754615179034e-01 2.8580426675878662e-01
      -6.1430042181502061e-02 8.5495688712864293e-01
      7.3821683719401487e-01 -8.9185376748294876e-01
      -4.7879423953471562e-01 -1.9275811396633671e-01
      -3.5561466934340047e-01 6.3479628882202854e-01
      -3.7166375061155965e-01 3.9436592271680110e-01
      -7.1823608984848533e-02 -4.9139953236970113e-01
      -3.2657747304672313e-01 2.3821935548771292e-01
      5.9165190021288272e-01 5.3701794414850290e-02
      1.0244475562406653e-01 -4.8614650059564057e-01
      3.7522611032966208e-01 -4.2105091583665022e-01
      -1.2444880731256240e+00 -7.2733358169811330e-02
      -2.6780480842636192e-02 3.5406982997802933e-01
      2.6197954977295274e-01 5.3690459800850499e-01
      -4.6954557748403897e-01 3.4388058117963016e-01
      3.5138773810422574e-01 -1.1217243143707106e-01
      9.5556277973629380e-02 9.7699256894769895e-02
      2.2104327853753072e-01 3.0603894905212736e-01
      2.0264211320550832e-01 -4.8683702644592491e-01
      -4.2846995726606796e-01 3.4472733337920619e-01
      -8.5884535581597488e-01 -7.0222908371640247e-01
      2.1316245379069748e-01 -5.3383177287310224e-01
      2.5453726168022761e-01 1.0323718949395140e+00
      -2.3371564594526939e-01 8.1644295889636687e-01
      1.3844341989707096e-01 5.8188921687270641e-02
      -4.8810363820835329e-01 -6.4765535884928296e-02
      -1.1507720121853482e-01 -6.5212045737633950e-01
      4.5784187572254192e-01 -2.9931244559093617e-01
      1.4198146865486466e-01 3.9310559130893918e-01
      2.6076879561593863e-01 -5.2213012307635054e-01
      -1.9799942590876488e-01 4.0506036368906684e-01
      -3.4289018432590151e-01 -5.4782471053445880e-01
      9.8450967032508763e-01 -4.3978459660321029e-01
      -6.1896295270442503e-01 6.8195087681464384e-01
      5.3751708081632243e-01 -3.0452064098495257e-01
      -2.8319030085947407e-02 -4.1426349066064072e-01
      1.6019697703610192e-01 9.9315398952187450e-01
      -9.4450329441549952e-01 -5.5736999495427997e-01
      4.0312334488240914e-01 1.1428537949999136e-01
      -8.7807826362220412e-03 3.1074287668143885e-01
      -2.3156721671000746e-01 8.5575033740596984e-01
      4.1933911028845905e-01 1.1116671618099949e+00
      8.1651783460529082e-01 -6.7495302375296029e-01
      -5.1762160737272955e-01 -6.0810143374408343e-01
      7.1495147040866835e-01 4.1518839745759578e-01
      -1.3589945739514384e+00 6.0983690739271301e-01
      -4.7075788587410783e-01 1.4241062145191982e-01
      -5.6976676869024712e-01 4.6308340631881961e-01
      -1.0242245710320168e-01 1.6100063060489822e-01
      2.3323685290773338e-01 -3.6495119638178297e-01
      1.2087340173648313e-01 4.9283260126943934e-01
      -1.2653585050656892e-02 1.2873173983082751e+00
      7.3220932699129615e-01 1.0751195629207744e+00
      5.5207932480157929e-02 -2.5338936918793092e-01
      9.4361519162744031e-02 -2.7101810752194683e-01
      3.7881897374973900e-01 7.8234338083324995e-01
      -1.2361327493197063e-01 -3.3391209686321860e-01
      5.7931874963214225e-01 -3.4268452721383219e-01
      7.0700231280429002e-02 -9.1402333089676713e-01
      4.2952668500906865e-01 -3.3183609569274553e-01
      -4.9568427477564042e-01 3.6100572053353253e-01
      7.8275907278002466e-01 2.1186278506638129e-01
      7.0658297358947564e-01 3.2191501439412806e-01
      1.5746384501607578e+00 3.3042623568408855e-02
      -2.3856765425688539e-01 -6.9146672374688734e-01
      4.7260338156742931e-01 -1.1203525688363665e+00
      6.3390141664439251e-02 6.6877022096473127e-01
      -6.3967395345281275e-01 -7.0108023698805244e-01
      -4.4271500411907500e-01 1.7863896138845467e-01
      4.0448944658397323e-01 7.5925684558623885e-01
      -2.0711611502228314e-01 4.8936909560579089e-01
      7.5435647197690059e-01 -4.4745649917893726e-01
      1.0307539235685881e+00 1.0524985415945525e+00
      -4.9014013400437162e-01 -3.3328936804923776e-01
      3.5969029115936918e-01 -1.5318706277883259e-01
      7.5854536229669278e-01 1.0579852807092613e+00
      -3.7555529135945626e-01 4.0765167314934742e-01
      5.8050346898898675e-01 -1.1519456338612455e-01
      -6.1594240201545736e-01 6.4765806774334189e-01
      6.3806284991198614e-01 2.4019029220139415e-01
      1.0627278245624536e+00 6.6325090931202346e-01
      -4.7489024510985212e-01 5.6882821189440380e-01
      -1.4509993336951379e-01 -3.7109797288758029e-01
      -2.5871245611383320e-02 -2.5018124672512976e-01
      -2.5785730518453559e-01 2.9422121342213692e-01
      -1.7612085098088245e-01 1.0702609752461706e-02
      -3.2819129071197922e-01 3.3398446706989526e-01
      -5.9719083671956152e-01 2.3186546928409885e-01
      -3.3357333916382659e-01 -1.7715975776413631e-01
      -1.0559100298791084e-01 5.7540606405168937e-01
      -9.4851237920949849e-02 6.4810320348617112e-01
      3.7683014647088542e-01 6.7485913611749715e-01
      1.2315319648277291e-01 2.7746926022353779e-01
      6.8775734695881874e-01 3.4551418538208062e-01
      8.2194285917584722e-02 1.2071487853811337e-01
      -2.0695598425690728e-01 -5.1080415792759104e-01
      1.0383746816742315e-01 1.1797963838785037e+00
      2.4637268186070582e-01 -1.3323508298010125e-01
      6.9949934125678326e-01 3.7728656764090157e-01
      5.4823046625020422e-01 3.2487541198601622e-01
      1.9675398138456193e-01 5.2985992204982402e-01
      -3.2449779219749793e-02 9.5784813398377244e-02
      3.8415414450644952e-01 -1.1751522667436301e-01
      -7.1618956792350308e-01 4.9893316957643941e-01
      3.7367701793988232e-02 -1.7106775396623281e-01
      -6.3030362186483624e-01 -8.9402116080004715e-02
      -5.6044039250680544e-01 -8.4337443543187585e-01
      3.1894878415038008e-01 -1.5369719977183009e-02
      2.4851193691342474e-01 -8.8524679708567477e-01
      2.3217316254600723e-01 -3.4834477030066791e-01
      -2.1926734132946871e-01 5.7211643944307844e-01
      4.3148576947544964e-01 1.5071515055793105e-01
      -5.0116272021804897e-01 -1.6681065378965899e-02
      3.9098474701604879e-01 -2.9386926021868359e-01
      -2.1258993410751260e-02 9.9712523996793131e-02
      -6.9730123657282220e-02 3.0922969269860229e-01
      8.6084595720662271e-01 -3.2388689563374529e-01
      1.6707948679565221e-01 -3.1078238279816006e-01
      7.1896806753261588e-01 -6.8547252391329727e-01
      -3.4211727807984493e-01 9.5896264942232967e-02
      6.4788585063752735e-01 2.3025065022758440e-01
      -3.3616225104684139e-01 3.6355969469970062e-01
      5.1182844830286678e-01 -1.6717944507506949e-01
      -6.1036264666323170e-01 2.6657978107355640e-01
      -7.7833537159486266e-01 -7.0809090641131400e-01
      -7.4866958230364467e-01 3.7300369896623614e-01
      -4.2771305449856294e-02 1.1297135967201259e-01
      -4.9523695091374087e-01 -1.0200827475890071e+00
      1.1604594421923992e-01 -5.1437392650374891e-01
      -1.3353437033006428e+00 -1.4781950114030301e-01
      -4.3973045459611404e-01 7.8420851340508779e-01
      5.1054378896421726e-01 3.5192966765218131e-01
      8.7815973274918052e-02 5.1259147167072465e-02
      -1.0368152860549764e+00 -5.0062464852508237e-01
      -6.3475500403587437e-01 -1.4310461640483293e-01
      3.7376800405991412e-01 1.8277772979703502e+00
      -6.8440104099553578e-01 1.7710594690387235e-01
      1.7807952583662967e-01 3.8052972159599757e-01
      4.8388768250789743e-01 7.1884455161270996e-02
      1.7642125889357982e-01 -9.5670420648806043e-02
      -9.4192952649482387e-01 5.5052358851170158e-01
      -5.0255362340773178e-02 2.1448223012844472e-01
      -2.6619555680981644e-01 5.8681454135331823e-01
      -5.9187161579921377e-01 -3.7347868038765919e-01
      -9.3750838252665170e-01 7.5487137502433821e-01
      5.3093108140162282e-01 -3.0330029798413384e-04
      6.6293251885653259e-01 1.2088995877598196e-01
      -8.1139685976525866e-01 4.4043608863943934e-01
      5.8554643146905705e-01 -1.5086336297524880e-01
      3.8446906120187507e-01 1.3061011789252433e-01
      -6.8145759159986419e-01 -1.3368646187369473e+00
      -3.4359676000726036e-02 -5.8946638256251481e-02
      -1.6996217278700598e-02 -4.6763790159845392e-01
      4.2703735368015205e-01 5.3476049008067028e-01
      -1.1949769743351595e-01 -8.1032344806152867e-01
      3.8242677363446059e-01 2.8966849868796714e-03
      2.4641406432190230e-01 -3.8264513050835364e-01
      -2.7956151613761732e-01 5.9262518342730719e-01
      1.3889584914089609e-01 2.0519185788909394e-01
      -5.0193936405425543e-01 -4.6920788315010187e-01
      5.8418250864650745e-01 9.6707578246966533e-02
      1.5293295833190973e-01 -1.8517092902128143e-01
      -1.8403856562180720e-01 5.0301377624942412e-01
      -6.9624676645128680e-01 -2.5058299481951146e-01
      -1.4702731901701407e-01 -2.0888484818300934e-01
      6.4093135304353330e-02 1.9730712697781247e-01
      -6.6061860825916741e-01 -2.2056783247448483e-01
      -1.5714330598760773e-01 2.3604929649487733e-01
      -4.1429652869949235e-01 4.4495735510115175e-01
      -3.0006543617707943e-01 4.3582264134490034e-01
      3.0462069894026816e-01 6.3698853660300994e-02
      -8.3876326204914212e-02 -2.7279109995432260e-01
      4.8490904640423416e-01 6.9316737784433091e-01
      1.0144302606999509e+00 -5.8211555185093501e-02
      1.9072624483578729e-01 -9.6047236536631941e-01
      2.3964501484995590e-01 2.1500947127519929e-01
      -1.9375314070251640e-01 -5.9681354175662761e-02
      3.6677756800982059e-01 7.2574647194622210e-01
      6.3982141921906557e-02 -6.7195555228063208e-01
      1.9542948691221593e-01 9.3181078308602450e-02
      2.1450183243496215e-01 -1.0270623652689290e+00
      -5.7230073056937947e-01 -2.6127175115900630e-01
      1.2624327440861884e+00 3.5663729149685408e-01
      -1.5774449834058688e-01 1.8822729303515720e-01
      -5.5096251667536844e-02 4.1103096917635451e-01
      -2.1255481450770669e-01 3.1867973452547099e-01
      4.2308560666659090e-01 2.0437557783137852e-01
      -1.5611111031978211e-01 8.1217052636286466e-02
      6.8428571782770020e-01 -4.7524565082853115e-01
      3.0618476452172770e-02 4.6955997885421635e-01
      -5.7265681565440651e-02 3.7305987002631263e-01
      4.7242172932059556e-01 -1.0603173748452351e-01
      4.8918966316891094e-01 3.6264175008011312e-01
      -3.4511885217803562e-01 3.2014096060375330e-01
      -8.4834241714224198e-02 -5.7513781729484947e-01
      1.0416617945502446e-01 -2.3579106666287614e-01
      4.3926843070783005e-02 -6.2846072662837171e-01
      -1.0716992806656905e-01 -5.8356410512475927e-02
      -4.5052723827045860e-01 -1.1015895620588162e-01
      -2.9527342064681067e-01 -3.0936349082382431e-01
      1.8119880646138325e-01 4.7871806649999453e-02
      9.3248522050178428e-03 -1.9920179702232541e-01
      -1.7566534791661834e-01 9.4343901369142724e-03
      5.8801972989753737e-01 -4.7733918332686376e-01
      -7.3992865106952321e-01 2.7302486509422325e-01
      -6.4480979294361929e-01 1.7530205319933170e-01
      -2.7224482817715050e-02 2.0905200977472232e-01
      -2.2224177813506915e-01 -4.0505935505833962e-01
      -2.0652396957083283e-01 1.3121917505004024e-01
      -2.7154094466839473e-01 -2.0049131931577152e-01
      2.0367482840805559e-01 -3.3176421192970484e-01
      -3.4548341187065262e-01 -6.7009173793263943e-01
      -2.7027382913339121e-01 2.8810914994943815e-01
      1.4954551101476374e-01 6.3403572075600512e-01
      -1.7228321651941830e-01 6.5473207283022705e-01
      -3.8939068204567417e-01 -5.4355413285428733e-01
      4.3602526673089774e-02 5.8475616658327172e-02
      -4.2208086763012370e-01 -6.4652346583397946e-01
      1.1757909993893758e-02 -2.1345031386593705e-01
      -2.6698296908237074e-01 4.2979248486631111e-01
      -5.9607347612140565e-02 6.1124953039739149e-01
      9.6561300256518989e-01 -1.0999786458693730e+00
      -6.9833690142403615e-01 5.2670983080465938e-01
      -3.7159332847821380e-01 -9.7964272683003853e-02
      -4.7705039802628663e-01 -4.1492570510599319e-01
      -1.5214397674257710e-01 5.8660231823451502e-02
      -1.7720633516639694e-01 1.3409026200434210e-01
      6.2145980360465550e-02 6.2953953720724254e-01
      -5.8173160673332946e-02 -7.5985252092034591e-02
      3.0571423485092769e-01 1.8122155116970715e-01
      -5.4466593559558207e-01 -4.8070897545234198e-01
      6.1657373040451702e-01 -4.2332419503449292e-02
      1.0954939696644141e-01 3.8832798506638977e-01
      -3.0044034739513914e-01 1.2388389860234692e+00
      2.6868689298269460e-01 2.9681984178293055e-02
      -9.8868551826561096e-02 -1.8027238642253815e-01
      8.4696496712201377e-02 1.8130922752621237e-01
      -4.3409978446612496e-01 8.8685168098101896e-02
      2.1091880352559816e-01 5.7003807812005136e-01
      4.8500399726173149e-01 -6.7460515953313838e-01
      7.1346434730533717e-02 2.7550544635094604e-01
      3.9243781554973128e-02 1.6661199738230453e-01
      -1.3569130972674209e-01 1.8272057938766881e-01
      7.2245371357560470e-02 -1.6407865223688758e-01
      -3.5424748800324252e-01 -6.6265440854550661e-01
      2.9382304590375086e-01 2.1730122600179849e-01
      3.3824501584747674e-01 6.4020016930897250e-01
      -5.2146338166598938e-01 8.2172191566771102e-01
      1.7904413681855974e-01 -2.4434700544115134e-01
      -5.5410444955235050e-01 2.1762204200677515e-01
      2.9754190704893291e-01 -8.6959287890995760e-02
      2.6980110781018302e-01 9.8793058259834338e-02
      2.1004979326167941e-01 -1.6648313213172181e-01
      5.9220710113705322e-01 1.0689696917119820e-01
      5.5921244680466942e-01 1.6153279149883626e-01
      -3.3203002168216961e-01 -1.2842784399753782e-01
      -2.5151391070562985e-02 -7.2169744439541633e-02
      5.0947982072938258e-01 6.3148984386646256e-01
      -5.0939973526405280e-02 4.7728444416481197e-01
      -2.2639438596530680e-02 3.9537199436743886e-01
      -7.6062229682456328e-01 -2.8132596654957293e-01
      -3.1019379704286709e-01 1.4752741462155622e-01
      9.6999215488239721e-01 3.0610530237316647e-01
      4.4333763246960778e-01 -3.4245162062533424e-01
      -3.9346038150375534e-01 -3.3870060873789154e-01
      4.2427686236834211e-01 2.0777466255023230e-01
      -1.0447468318672655e-01 3.7723706111021632e-01
      -7.7114114698984204e-01 -6.0467252282030448e-01
      2.0979352036044410e-01 1.9026202657352564e-02
      5.9887285545380850e-02 -8.6650680625953557e-03
      -5.6745210031730087e-01 -3.2755573001468162e-02
      -1.7603624696663253e-01 7.7002512931761899e-02
      -2.6458429678669471e-01 -4.7245946461195093e-01
      -1.2956243095297099e-01 -6.2233787250686134e-01
      -9.3760996529241705e-02 1.8620950374685565e-02
      -4.9459587096963165e-01 3.6885395714628183e-01
      4.6345241862629054e-03 -6.6818041241688067e-02
      2.0627166852410377e-02 2.4466551801125500e-01
      -3.2041319430165527e-01 -5.8892651168074117e-01
      3.0038014463603008e-01 -4.7671827484010047e-02
      -4.0359988494558235e-01 5.9856192578503120e-01
      5.0292989232198104e-01 -4.7308090440688394e-01
      -7.5687459193485807e-01 3.1525924137531663e-01
      -3.4227107903325282e-01 6.5014298546785720e-01
      -5.9754634152165209e-01 6.3189060879547843e-01
      1.6278767082844300e-02 -8.6410082769360769e-02
      -4.5356064413009051e-01 1.3302988809316404e-01
      9.2231974459863175e-01 3.1191734764496015e-01
      5.5755438413777850e-02 -1.1062416970723832e-01
      -4.0446234910737422e-01 -5.0855871389367890e-01
      -9.5390108566889353e-01 -3.8049093878563350e-01
      -1.5663133420368101e-02 4.1915976774791258e-01
      1.5963818928519996e-01 -2.5251623508554433e-01
      -3.3124618833293701e-01 -4.3327762264430586e-01
      2.0934455440691505e-01 -1.5408121614577652e-01
      6.5453896391712604e-02 -1.9450685822433952e-01
      -7.7761249644562741e-02 2.4129418481734202e-01
      1.7539264531065379e-01 -3.6542998616959166e-01
      -1.1000330028343452e+00 4.6637835145937789e-01
      -5.1691688850257977e-01 -3.6912682185052742e-01
      1.7470499127556025e-01 -1.9171350877881002e-01
      -2.4370381683039682e-01 6.8287263233160100e-01
      -9.4912586309401678e-02 -3.9479314718859687e-01
      -1.0610938144719544e-01 -5.5396006436850817e-02
      -4.3114557732971862e-02 5.4142411744681276e-02
      -2.0096765640062331e-01 -6.8794681390222601e-02
      3.5253833833339282e-01 -3.0282675830343514e-01
      -7.8610709253427002e-02 -2.5314281175014980e-01
      5.0622553265441883e-01 -7.6201218671879123e-01
      4.6964665117221605e-01 7.7121159779913007e-01
      -3.4825766949869241e-01 -4.4247915794277037e-01
      6.3645248358784323e-01 -2.7290149060054442e-01
      -6.9352473086302235e-01 -1.0129193225333361e-01
      5.8083669630163892e-01 -1.1973754708781521e+00
      -1.2043221013169293e-01 -3.3586654209753170e-01
      7.0231830093363690e-01 1.3667178639417741e+00
      -1.0704303789145144e+00 -4.5412018512703911e-01
      2.0977353500479617e-02 8.8923138919456288e-02
      -5.5317179462347832e-01 5.5540857642466601e-01
      2.2974765941536759e-02 3.8671977780299843e-01
      8.7647668462450012e-01 1.6985507580501984e+00
      8.0971201869415110e-01 -9.3091885169444676e-03
      -2.6682353039903445e-01 -1.5258078959484384e-01
      6.8998709111322454e-01 3.4376423063780998e-01
      -1.4371617116514466e+00 7.5555185816934867e-01
      -6.6558519581467779e-01 -4.6283561932800654e-01
      -5.9107013094987915e-01 1.7001236732252736e-01
      9.0814300974964679e-02 6.2965944879308244e-01
      3.1783189760369479e-01 4.9307374631211054e-01
      -2.1416746936494323e-02 2.2386478226101222e-01
      4.1136315438032131e-02 1.0310802936037973e+00
      1.6274759482380333e-02 4.3729214224951179e-01
      -3.1178571890196616e-01 5.6405248265369434e-01
      3.5347580879393121e-05 7.1602835100715878e-01
      5.5409367888298655e-01 6.0731930216290964e-01
      4.5661253937659824e-01 -1.5234225542807009e-01
      6.9502084834142464e-01 9.2584872884577465e-03
      -3.1241184020180734e-02 9.0328014622255245e-02
      3.2677312237382039e-01 2.2318898245344890e-01
      7.5199104858250299e-01 1.3695929898817130e+00
      -7.1254940107532483e-01 -9.4272104409434165e-01
      8.2611530468068251e-01 4.1382117429166515e-01
      -1.7815902437055423e-01 3.5406952286754406e-01
      5.0394655995441573e-01 -5.4907812247695120e-01
      2.5209039400635852e-01 2.7633919522860331e-02
      -1.9554363259177254e-01 1.3073924002928214e+00
      -3.0590681242791373e-01 2.4533257450743284e-01
      -3.8665176498681691e-01 -5.6409209576120611e-01
      -7.0588001227565131e-02 -4.4167429477382530e-01
      2.1866123978574040e-01 -9.1604805348017682e-02
      7.8800190454144847e-01 4.1740714836429105e-02
      5.2161150330417072e-01 -7.1311512320994669e-02
      -7.8769123229971116e-01 7.9566610579862074e-01
      -1.7124499631826201e-01 -6.6849923397552946e-01
      6.9809155330834627e-01 -4.0282938823813563e-01
      -1.7013085747571136e-01 1.9658242822560240e-01
      -1.0183203511930533e-04 5.8182988975191818e-01
      7.1701557943656247e-01 4.5458437553547942e-01
      3.3936751366082063e-01 5.9778160104007161e-01
      6.0694245428910532e-01 -1.0676171362780566e-01
      -3.2200069190551628e-01 1.1035828212439573e-01
      -2.9059050786976937e-01 -5.3339176746481753e-01
      -1.0124366374470138e-01 6.2336146445296370e-01
      5.8079446101963617e-01 8.6664829957197353e-01
      -4.0237025564299436e-02 -2.0611879677439815e-01
      -4.6785369334192312e-01 -5.1511716337335721e-02
      3.6740051439665361e-01 -1.9965532479474205e-01
      -6.5489879278056518e-01 -1.9363991157867563e-01
      9.6894477648729205e-01 -2.9794893951437829e-01
      6.9922258705144302e-01 1.3477507851808493e-01
      -1.4757562072327803e+00 -3.3862406819271723e-01
      1.3907421592813451e-01 1.2427873190584067e+00
      2.5872925706532002e-01 6.6114784029855544e-01
      2.4085424466841207e-01 3.6053139725052302e-01
      5.8532840853284240e-01 8.6645976939084535e-01
      6.3115797873502877e-01 -2.3396045623102412e-03
      -9.3564948685126589e-02 -6.4316336448989730e-01
      -5.8258039122087241e-02 -4.4592107697314542e-01
      5.6170067810722735e-01 4.5787620722015193e-01
      -2.0941637795343421e-01 6.2644785123368463e-01
      6.0647187003029131e-02 1.2010990019117589e+00
      -2.4288859180256445e-01 2.3001819146021929e-01
      6.6577735205958055e-02 -1.2834122705715233e-02
      5.1183527054448175e-01 -7.8977583679821384e-01
      -5.6499595325411094e-02 -1.1741256754098159e-01
      -3.5334584551435580e-02 6.4078369159078674e-01
      -3.1810379470514000e-01 2.3948608266055471e-01
      4.3580564814707157e-01 -2.5395046933142784e-01
      -9.2394365300843342e-02 -5.6280600838606454e-01
      5.7043852228230441e-01 -3.3293092323963144e-02
      -3.7952522408597450e-01 1.2341108500561397e-03
      -3.7781632635249623e-01 1.8104014974515728e-01
      -2.1160085912097998e-01 4.6147154383119732e-01
      1.4104481032115435e-01 -2.4011196286543396e-01
      -6.2405536300888798e-01 6.0923619921715644e-01
      -8.8984874784595103e-01 -1.4701101334312008e-01
      3.7459002577908823e-01 4.9292527769739264e-01
      -1.9081071612678066e-01 -2.4389117538440561e-01
      -3.2914647477738984e-01 -5.6438545029076470e-02
      -7.2812306789745362e-01 -9.5556722129980481e-02
      -1.7632237387799318e-01 8.1697081769870517e-01
      6.4925875684553536e-01 2.4058031825575457e-01
      -4.9798123740968053e-01 5.4271748342407153e-02
      1.6165881963176970e-01 2.5110870396579016e-01
      1.8288663058080440e-01 -1.1823123359310035e+00
      -4.0027755097482071e-01 2.1173724788420431e-01
      -2.2428841536339839e-02 8.0856872260387153e-02
      2.1266984578151324e-01 -1.3632036473488818e-01
      2.7206562353965480e-01 1.0915758737661851e+00
      -7.1979954267870994e-01 6.1414495250969847e-01
      9.3920683777240638e-02 5.5575572543210794e-01
      -6.1199183076198382e-01 5.6314495595460934e-01
      9.7224164017960846e-01 -7.5950910617363740e-02
      -3.0388496213976196e-01 -3.0200551907163270e-01
      -9.6651816721748871e-02 -3.5349345630454893e-01
      4.5762945042814424e-01 -2.3866719802369415e-01
      9.4286881337769968e-02 -1.7411689895306762e-01
      -9.9589911144287516e-02 7.8593422027274356e-03
      -7.1906156078952010e-01 8.6823236872641141e-01
      1.2595830170406089e-01 -5.9304519223969521e-01
      1.0880544271187810e-01 4.6711949624331439e-01
      -4.7275016086652549e-01 3.5329750384450359e-01
      -8.0162121122862828e-01 9.0739754759611979e-01
      1.0412116942079306e+00 2.9758375025488848e-01
      -3.3364898466251974e-01 4.0406246129852313e-01
      -6.1660968219772283e-01 2.5911556391876003e-02
      -3.1460853440437919e-01 3.5310716789686830e-01
      3.5554363357198132e-01 -9.8974255117636231e-02
      5.4690840690097120e-01 3.3176181557517073e-02
      -1.2892049222255522e-01 1.0637553289882111e+00
      -7.7692642112040489e-01 1.0271301961381516e+00
      -2.7315058886232707e-01 -2.1598154542687197e-03
      -2.2474844116408257e-01 5.5056901019774973e-01
      2.5572499429799128e-01 -2.5447107706188833e-03
      2.3636935549679131e-01 5.7439245079890344e-02
      -7.8877809188873582e-01 1.2891014438979429e+00
      1.9144144184217979e-01 -3.0315346947215727e-01
      -5.3369523630457549e-01 -1.1403304550592790e-02
      -8.3889236482342269e-02 2.7048273211059021e-01
      2.6026153979433436e-01 -8.1354250084610125e-01
      1.4424250239908090e-01 -6.0963218437271349e-01
      -1.6330880408229609e+00 1.2893092747562904e-01
      7.9053101823782890e-01 7.5732419828798470e-01
      2.9391282647338007e-02 1.4705917152496684e-01
      -1.8725610498574097e-01 -2.1044424020041108e-01
      -3.9952371619035149e-01 -4.4059060333844385e-01
      -5.2047497939920855e-02 9.8942338879045011e-01
      6.5239962997375711e-01 -3.1826894247382326e-01
      -2.8084372117038436e-01 -9.4594111867055408e-01
      -1.7232077173029467e-01 3.8218161497524050e-01
      -4.1705313326101745e-01 -1.2250847637075461e-01
      -8.0941337645949879e-02 -4.8238390177704144e-01
      5.4905301314305921e-01 -1.1129076964747238e+00
      -7.6390206759157986e-01 -4.0755295959846333e-01
      -2.8026922052282055e-01 -1.0476295416481332e+00
      -8.1290376809453890e-02 8.5704891421293602e-02
      -2.3359679969276551e-01 -1.9710530396646617e-01
      -4.4090082391923380e-01 -2.9775683352943222e-01
      2.8381938678307291e-02 -2.6970114823424693e-02
      -2.2871945063627483e-02 -1.0249774833886134e-01
      -6.5878302753727336e-01 -1.0574791414271512e-01
      5.8570221249418561e-02 4.8704973413327350e-02
      1.8239160255870521e-01 -3.3856565037016106e-01
      8.3131386196696827e-02 2.6396290718549764e-01
      2.2503407246345972e-01 1.2113455639338434e-01
      -1.8724444405404178e-01 1.4559259883052162e-02
      3.6032641905384105e-01 4.9987291211602591e-01
      3.8368256824403130e-01 -1.4205134242917158e-01
      -5.9995132083004787e-01 -2.4458848689934607e-03
      -3.3510230873401681e-01 -5.2670921339689016e-02
      -4.6746936752405308e-02 -2.1740993786755861e-01
      5.3001133097612552e-01 5.3611222052905871e-01
      1.0960255953973434e-01 -1.4665678989513251e-01
      7.7778043732792124e-02 -5.2401663256095588e-01
      2.0224703508597758e-01 -4.3878547616626934e-01
      2.2257446773484857e-01 -5.0649787807063570e-02
      -1.6987595262248054e-01 9.0776034646877321e-02
      -2.8626466879596457e-01 -1.6572266993007884e-01
      -3.7241727755272913e-01 5.5495462611117086e-01
      -9.4895642946321510e-03 -2.1422124727807659e-01
      2.8559661260638647e-01 -2.1954341203021902e-01
      -2.7407502928060962e-01 5.4261530182935958e-01
      5.1068213031655452e-01 -4.2565451898871148e-01
      3.2842528780144270e-01 -9.0635519554579783e-02
      -1.5446519066705522e-01 3.7321770535380755e-01
      1.8177648602559174e-01 -5.2877603077736657e-01
      3.4615704009979820e-01 1.0684068129727566e-01
      1.8154614161117094e-01 2.5275071863429993e-01
      -1.7196173133408052e-01 -7.7050673591955096e-02
      1.6109678403643807e-01 -2.1888881831264204e-01
      -7.3351752905787082e-01 -4.2013077788373689e-02
      1.4872144604028764e-01 1.1473541133698111e-01
      7.3729985516486324e-02 4.0690471660859706e-01
      -8.7683815418706135e-01 5.1687790483403981e-02
      -1.3069485757300889e-01 -4.4394567450694500e-01
      2.3450317922844527e-01 3.6169006462052367e-01
      -9.9597152898165314e-02 -1.4293264576017726e+00
      1.7388427549662133e-01 2.6046094216073939e-01
      -5.2712708752977611e-01 4.7420437980881969e-02
      -5.6783254331678545e-01 2.1904107997003869e-01
      2.4109963822105773e-01 -1.5745479077558440e+00
      5.0328757169996276e-02 6.1222763280887542e-02
      -6.8082139746600123e-01 -4.7767964157018289e-01
      4.7446083007406192e-01 5.0406835219190405e-01
      -5.3124142559556796e-02 -9.8363818949591564e-01
      3.4564948075268866e-02 -4.3406043523208010e-01
      -1.0958611113738347e-01 -4.5501752180673871e-01
      1.3401262252085097e-01 -4.2628856152849604e-01
      8.4006161640185006e-01 6.0268832055452171e-01
      1.7105905061956311e-01 5.1032127280277417e-01
      -1.8517933240352922e-02 6.0541373286444033e-01
      -2.0319452602100654e-01 -9.8033191979749024e-01
      -4.1109138213427138e-01 7.4283687946251087e-01
      2.1293959132230936e-01 3.9344550610267526e-01
      6.7317010479560357e-01 4.8523050083067615e-01
      3.9120884137931256e-01 4.3467914310042315e-02
      -6.6879649641337038e-02 5.5789612288057955e-02
      1.8571234096784173e-01 -5.3235857913841678e-01
      7.4319127028434018e-01 -6.3620364791218542e-01
      -1.2574484655849313e-01 7.1940163532182755e-01
      -4.4773508035269971e-01 -1.0119243345520774e-01
      -7.5556396146857163e-01 5.3026486002924278e-01
      -6.3424431281491889e-01 -2.2021306200328106e-01
      -8.1020244669109856e-02 1.4112960339378264e-01
      -3.3803641807865648e-01 2.7730541679405679e-01
      6.2667594405290428e-01 1.8968901684884132e-02
      -1.5553554230489300e-01 1.1372713497287686e-02
      6.1610183017859052e-03 -3.3556309476402368e-01
      4.0004479226362183e-01 -3.1245196955957644e-01
      2.6358217277717189e-01 -9.9963041789495347e-02
      -6.0234588859106264e-02 -4.0374600697321933e-01
      1.4533263770123864e-01 -1.4811547454133792e-01
      -1.4895840739648178e-01 -9.1585928396834146e-02
      2.9787968764458206e-01 4.7836953854897624e-01
      1.9351907183240851e-02 -6.4693765687066063e-01
      -1.6487611078553879e-01 -4.5082404502919715e-01
      7.7717250280687833e-01 -3.4814915060260306e-02
      -2.6346012469331642e-01 -5.6445650860679507e-02
      4.8726350040738342e-01 4.4067658108413227e-01
      -5.7329952329721667e-01 -2.9755770479167359e-01
      -2.7655572051022864e-01 1.6666808842428185e-01
      3.7144445539337251e-01 6.4640928960877675e-01
      5.6807134779256419e-01 -3.4367185712309484e-01
      3.6269054034586878e-01 5.7096767083533551e-01
      3.3927645183262728e-01 2.3337599132195225e-01
      5.3322567935351772e-01 -9.4086122611658329e-02
      -7.2324515966171865e-01 -2.9598308706931004e-01
      2.1901525226163057e-01 5.0593723890534292e-02
      -1.3503745130854261e-01 -3.1294656845914698e-01
      5.4822934372022836e-01 8.9139331207620146e-02
      -1.3904551693469066e-02 -1.3775161741270561e-01
      -2.9919436234377383e-01 2.6144175287193896e-02
      -6.2027198912496706e-01 2.2426138411357160e-01
      2.4010462780399622e-01 -5.1718802186846310e-02
      -1.0069585195086675e-02 -6.2024015058764992e-01
      8.6665444550873127e-01 1.9442739563348604e-01
      -1.0546921177652001e-01 1.2974933446074702e-02
      3.6261266066329186e-02 -3.4517888276348017e-02
      2.5918270856273580e-02 4.5743176737014607e-01
      -3.5618026157924247e-02 4.3024353533787091e-01
      3.7117200559902641e-01 -5.0741114823040959e-02
      4.1575883170048994e-01 7.0877802282430735e-01
      1.4371988267017585e-01 2.5349825017204897e-01
      -1.3985648257655472e-01 -3.9741163212851449e-01
      -1.4153020861024895e-01 6.2463152565398083e-01
      2.1546303749534246e-01 -2.1053621109471327e-01
      -1.4746855148955429e-01 -3.2928945070481558e-01
      -7.8343914074097698e-01 -1.7316951281325593e-01
      4.8297036246931014e-03 -3.5123211480710056e-02
      2.6034883512996670e-01 5.8014798871353343e-02
      -3.7683208287700404e-01 -3.1118545917555268e-01
      2.8260994054874955e-01 6.5425013028468293e-01
      -2.1464085302010105e-01 -2.6317020241392935e-01
      2.0319868467305327e-01 3.6032201870302261e-01
      -7.4954829508289730e-02 -2.2873420075933050e-02
      -2.4095866791717338e-01 -1.6445732418140585e-01
      -4.6767704471149413e-01 -5.3274423934225879e-01
      2.0090048475611264e-01 1.5619448091343677e-01
      5.3553156105348602e-02 -2.4120294765156025e-01
      1.7374620588693179e-01 -2.9653656662144989e-02
      2.3230234746659223e-01 -5.1119377633750886e-02
      -9.7975909611768539e-02 -1.6434335951927795e-01
      7.5736806087697606e-01 -1.2186714866594213e-01
      -2.0968559181098978e-01 -1.0317368300311291e+00
      2.1307036892424819e-01 3.1548698729130492e-01
      -4.9308148975390813e-02 5.3405576752197725e-01
      -6.5522252876710885e-01 1.9037657309850128e-01
      2.7071774299678270e-01 -1.4970680124729843e-01
      -8.2191699087308756e-01 9.8538146270710322e-02
      4.2630066396556504e-01 -3.0426519022968651e-01
      6.2550988456628553e-01 -1.2810531376907888e+00
      3.1492826985440375e-01 8.6414060441355822e-01
      2.5714827647404348e-01 1.5178345746750732e+00
      -3.1379105192471189e-02 -9.1122715285937050e-01
      -2.4893511835513735e-01 9.6211515104164896e-02
      -2.2904286832715548e-01 1.8332437769798049e-01
      1.0202923375678943e+00 2.5153253511893564e-01
      5.8471759783112676e-01 -5.1367171750919027e-01
      -2.2455303194230773e-02 4.2576997170771502e-01
      3.8127318504285651e-01 4.4809671281811647e-01
      1.5234412415956153e-01 4.6319659888275071e-02
      2.9741213831185292e-01 6.1243180836816768e-01
      -6.8033089449856354e-01 -2.0285183012579119e-01
      2.2623924108565927e-01 -1.5592387030630825e-01
      5.6984821628150321e-02 -5.3566826633109232e-01
      2.4626854367312076e-01 -5.1390858481002744e-01
      4.5969292129397926e-01 -8.3370805198287629e-02
      3.1464676021722537e-01 1.2892300728298058e+00
      -1.8684323283524321e-01 -1.8197630987163271e-01
      -2.5227740559339717e-01 8.6791051886673154e-01
      -5.8562630198545718e-01 1.1241169973216605e-01
      -2.8321774122128468e-01 -9.0587186332076319e-01
      1.4535695539270480e-01 4.1683586338212497e-01
      6.5302678797054287e-02 -2.9512781368762936e-01
      -1.5152424560901170e-01 1.1166783919186656e-01
      -3.3645133604161198e-01 7.5462784742817235e-01
      -6.8370564087516839e-01 -2.3392619344976268e-01
      -3.1632106513939823e-01 9.9252403365380173e-02
      -4.8054377058871184e-01 8.3588306853116578e-02
      -1.9777545592428985e-03 -4.1901293213542079e-01
      -3.2303726339199279e-01 -5.1823305487273701e-02
      4.9202449344778759e-01 3.0245475728546101e-01
      8.6766878506998046e-02 -4.5854948688097830e-01
      -5.4295850664148469e-04 5.3307081275130862e-02
      -4.7062725529119227e-02 -1.4237167635704434e-02
      8.0275669394870330e-01 4.8412922656901231e-01
      -1.1836490586059945e-02 -9.0171806377741559e-01
      1.1191180201688561e-01 -3.7406331419962330e-01
      -9.9383292555656047e-02 -3.2241251081342133e-02
      -5.5772100107089484e-01 -7.4652301280240030e-01
      3.7178956965483256e-01 -5.8029232322196056e-01
      -2.3964903079163002e-01 2.3800555111601951e-01
      -1.4625771098314666e-01 -2.4723344252924617e-01
      -3.7335242196800095e-01 5.9819679461465280e-01
      2.6851777710295505e-01 -7.3452359978875309e-02
      -9.7284461841265699e-02 3.9784409692863926e-01
      -3.3691555604871237e-01 1.6535067760375130e-01
      -3.6291287009105061e-01 -3.6200161547567566e-01
      5.9130011162396010e-02 -7.0618941081409081e-01
      -1.5302710032880659e-01 -7.3568021737186617e-01
      1.9841791206846965e-01 -5.9403464731302746e-01
      -4.0223499106703026e-01 -3.1056263073781365e-01
      -2.6175071139283489e-02 -9.0212840363735933e-02
      4.9291052569977528e-01 -6.2100793338784910e-01
      5.1780430329972682e-01 3.8318041032599021e-01
      -1.6469063378480576e-02 -3.0752637613913081e-01
      -1.6488186203906993e-01 -3.2515145728179380e-02
      -6.5054037105373538e-02 1.7994807623375700e-01
      8.2520986179966016e-01 1.1059648737577845e+00
      -5.1458295913957830e-01 -8.4789269308631510e-01
      8.5055290705113185e-01 4.6512847494789428e-01
      4.2318983814687483e-01 2.4758280135306454e-01
      4.2862998305798865e-02 4.3154195307845405e-01
      1.2656008138178383e+00 7.4584142484418525e-01
      9.8533874441437497e-01 3.7251841981484457e-01
      -3.1630723397176896e-01 -7.8007000947698557e-01
      -1.3771563542850038e-01 -6.3931683895166946e-01
      3.7215895848018460e-02 7.3811052433666258e-01
      1.8845871865615063e-01 2.6123673225985061e-01
      -6.2760260634897025e-01 7.5944073230223519e-01
      -2.2019098005944893e-01 -1.0921780511364225e+00
      -3.9756899976611854e-01 -3.4569391916497760e-01
      -7.6954085471199460e-02 -2.7070091923912143e-01
      2.8571463280651488e-01 -2.0478024086285196e-01
      -2.9960551129564039e-01 3.7064946076003868e-01
      2.0132393355318878e-01 1.0349149120429537e+00
      3.1221089917593392e-01 3.6076519997049450e-01
      -4.1761642190998211e-01 -2.4399815372581113e-01
      4.9116837844078759e-01 4.1485348467708505e-01
      -6.9565274619158834e-01 -2.4058215217605239e-01
      -1.9413832812222401e-01 -5.3870117321072963e-01
      -4.1812267259356684e-01 4.0082060406275100e-01
      -1.5777767118642791e-01 -4.6148334761231030e-01
      -4.6347052013164636e-01 8.0531114455849750e-01
      -8.9920668132181636e-01 -3.0907265227030462e-01
      6.5991768169852005e-01 1.5338420794014640e-01
      9.4788435758477826e-02 -3.4893226496416650e-02
      -2.8768334363148412e-01 1.3319026091527486e-01
      -2.9958842860918777e-01 -3.0069894825876353e-01
      -7.3053222387170003e-01 -1.6372369186919578e-01
      1.5075078626155602e-01 5.7356680626636303e-01
      -5.4473729351866973e-01 2.0269362521203624e-01
      1.9680175683263937e-01 3.9934289354747732e-01
      4.5445388481943329e-02 -1.6408095843664194e-01
      1.4141722481034247e-01 2.0621931195213875e-01
      -1.8012621520676902e-01 1.4963956497454153e-01
      4.9010796649590571e-02 -1.8685648586755921e-01
      8.9119842648418246e-01 1.0933189848284377e+00
      -6.1677112087045217e-02 2.8352308362478662e-01
      5.0371111952048164e-01 8.6718791705617626e-01
      4.7411332890748048e-01 5.6162015692100931e-01
      1.0217832053103291e+00 -5.4384489413484682e-01
      4.1641175246281326e-01 -8.3622369873427727e-01
      -1.0079780877268201e+00 -2.0393788115881500e-01
      6.8925465891708493e-01 3.0111177900638020e-01
      3.1624237043105817e-02 2.2466371577866458e-02
      4.9483466759187640e-02 -6.9873523742480137e-01
      -5.6771346198343497e-01 2.3792262082097998e-01
      -1.9882679521515476e-01 -2.3271622669909836e-01
      -1.9183137567567651e-01 4.6433356325264958e-03
      -4.8469417611817132e-02 -3.6503886934820934e-01
      5.1469103071246761e-02 7.8610095850570827e-01
      8.6714420894876620e-01 -1.0157260715298295e+00
      -6.7722108517784792e-03 -2.1743079175221347e-01
      -4.8274658553735650e-01 -1.2573134054462540e-01
      -5.3644102341411692e-01 1.6799102570104668e-01
      -2.9339033226859912e-01 -3.9224870395838426e-02
      4.1174137017087964e-01 -8.9201923698257202e-01
      -3.3329224039031802e-01 5.7036663839822983e-02
      3.7361317441231495e-01 3.0155620846397435e-01
      -7.5928132596437520e-02 8.9915774509747790e-02
      -1.1292489263302572e+00 2.9171806276144319e-01
      -6.1978137555339574e-01 9.1066521992403060e-01
      4.0622623341113034e-01 2.8304294725276458e-01
      6.2419988891841749e-02 6.4554174387085461e-01
      5.4985380898922701e-02 -1.2331158967716507e-01
      4.1665203635493570e-01 4.9460389596080995e-01
      5.4588075369247180e-01 -3.0813575544467264e-01
      2.5276954380761135e-01 -4.5689367459257896e-01
      7.8525071599039320e-01 5.3748416158126266e-01
      5.1072229194477192e-01 3.6484583068612325e-02
      -3.3280362992409174e-01 5.1955490643202351e-01
      -4.6612969351030020e-01 9.3278399325795502e-01
      -1.9814301589933683e-01 9.3787317779225388e-01
      -5.7771535139349661e-01 -2.3825679677238482e-01
      -2.6902025132189467e-01 4.1773764346280362e-01
      -3.0073294904273173e-01 -4.0398623545569617e-01
      -4.5114996224761228e-01 -5.5244322943296897e-01
      1.3829652483874338e-01 1.4932461124399810e-01
      -3.6079674167572523e-01 -1.1204505742100958e-01
      6.2686593932707968e-01 9.0387536558896961e-02
      1.8113487939795386e-01 -3.4719569947822360e-01
      -6.0406652281410755e-01 -3.0284343848501194e-01
      -3.9319911944566738e-01 8.1239406970286954e-01
      2.6558304929807350e-02 1.3450166918020870e-01
      -8.0428781802235672e-01 2.1932724968329320e-01
      -4.7562445425812899e-01 -2.1554601235526516e-01
      -5.5349042584511587e-01 3.9243303409464086e-01
      2.1736179156185897e-01 -2.3876709129439502e-01
      -5.6677529700895379e-01 -4.8788969653447323e-01
      3.0664802123363011e-01 -2.1174545394030014e-01
      3.8302598709967473e-01 4.7113607293263382e-01
      7.5642005813737201e-01 -4.6436494909732423e-01
      -3.7334622511839999e-01 -4.4986408390900201e-01
      -2.5547330089905440e-01 -1.7141486618887056e-01
      -3.7390431141922670e-02 -2.4508141233492869e-01
      -3.8091096538951918e-01 -1.0638836322208041e-01
      5.5983889867487591e-01 4.3951940966408934e-02
      -3.2954298039034574e-01 2.6483329774843473e-01
      -1.2892357974902452e-02 -5.8465171314876485e-01
      -1.3861050962306012e+00 -9.0277819705049989e-01
      -9.1756347686932671e-01 -4.4658116713338192e-01
      -9.0304678473023547e-01 4.8766245640821115e-01
      -3.3005080471188225e-01 -9.6002649908097393e-01
      -1.3549362920553325e+00 -5.9721445452114763e-01
      1.4991561561980311e+00 -7.5018232072622881e-01
      1.8089792293654153e-02 7.0880780306653859e-02
      3.2153367511186787e-01 2.1488381687920796e-01
      1.8455815011464452e-01 1.0909373921090200e+00
      6.0981491753009853e-01 2.1127254805818507e-02
      -2.8172039634174850e-01 1.0471150434840040e+00
      1.8439507066428953e-01 1.1364432421657846e+00
      -1.3312640265190647e+00 -8.8679272568354250e-01
      3.3932967111436135e-01 -2.9440426828117450e-01
      -3.6438801074274674e-01 -1.0517966141725366e+00
      -6.5512727504947088e-01 6.8507637360752138e-01
      2.4725583986128333e-01 2.1460692097277781e-01
      -8.4491310619721671e-01 5.2536114206792384e-01
      1.0775338956885623e+00 -1.2024311524288467e-01
      -1.1434774426875446e-01 -3.4471622432814492e-01
      -2.0484021000329222e-01 3.5052676769431729e-01
      -5.7359952605440323e-01 3.7156179506332587e-01
      -2.6482061148836633e-01 -6.1181134559114814e-01
      7.4763916472626202e-01 1.3331232877012942e+00
      2.9426437237309916e-01 5.3802736922320094e-01
      -3.6561318240733909e-01 -5.3555085252398038e-01
      -2.5945000363143472e-01 1.2814910271154232e+00
      5.0098898039896111e-01 -2.1534200891474875e-01
      4.0563241370572345e-01 1.2326885766624787e-01
      -4.7997527893783343e-01 3.6178568703183728e-01
      1.7316799147370983e+00 8.9228789488907290e-01
      -1.9931862448552926e-02 9.0836143579942386e-01
      4.4684975939378618e-01 -3.7570598848028569e-01
      -4.7770589578937261e-01 4.3679216145519478e-01
      1.9276858746422704e-01 2.5297143817897966e-01
      -9.3753642319484953e-01 4.2285843931610745e-01
      -6.3272210783203631e-01 7.6620287191065961e-01
      -1.1562434069040446e-01 -4.7203312683069587e-01
      1.0382036309910357e-01 7.9767696919173681e-01
      8.5590162348132895e-02 1.2465544488499253e-01
      3.3186477447338236e-01 3.3965212238605152e-01
      -5.3788923312447973e-02 -1.0800058038913791e+00
      -1.2943443400946816e-01 2.3856038788855269e-01
      -1.2660458486024109e-01 -2.4280417579817501e-01
      9.1045626724451256e-01 -2.2715405214953163e-01
      -9.2038710069058571e-01 -7.5791929201020070e-01
      1.9924845732425647e-01 -1.5000897929543980e-01
      4.1182447517446685e-01 3.3879861409017120e-01
      -6.0686681038233492e-01 -5.4126157784248685e-01
      5.1377512208387562e-04 5.9612180734073039e-01
      5.4606629220063296e-01 -7.1828468867510120e-01
      -1.7931432113872109e-01 -1.4941259524710060e-01
      5.0877781153562041e-01 -4.0763000431399321e-01
      -2.9980670861419850e-01 1.2375434907872596e+00
      -5.7661559870596057e-01 1.4111789917698037e-01
      -6.2819306665653929e-01 -1.0288246940891965e+00
      6.8489534840096067e-01 -2.3116633767986033e-01
      2.8673715180601141e-02 -6.0876415923209123e-02
      -4.6474244797221016e-02 -1.5176415092871853e-01
      3.0984605603773502e-01 1.5599672474329564e+00
      2.7608286769808071e-01 3.5067486335012771e-01
      -5.7442524814100471e-01 -3.6201981040827397e-01
      -5.4670671925355130e-01 -3.4767437158233883e-01
      1.6560894751763885e-01 4.9836765991079662e-01
      -3.8495996586716058e-01 5.0342630020055834e-01
      -3.4123569230693740e-01 4.0234915000315979e-01
      -9.6542699798287168e-01 1.1118023576634488e+00
      9.6201384040106985e-01 -6.6936581496547898e-01
      -3.5073210861019266e-01 -8.4415017589111196e-01
      -4.7209518677733281e-01 -8.0050068153211873e-01
      6.7273914613243346e-01 6.9681686850459623e-01
      1.7684335092428341e-01 5.4074238304399891e-01
      -9.8009091780218729e-02 8.1039762036587593e-01
      4.6865046523805609e-01 5.6304550875679493e-01
      6.4169270392950706e-01 6.2995171543465636e-02
      -4.2981886935998204e-01 -5.5078429224394609e-01
      -7.1192792756693402e-01 4.4880248333176082e-01
      -3.1288334474257257e-01 7.5970260924496241e-03
      2.5894719183622145e-01 -7.1523115831101081e-01
      9.2454859141261114e-01 -6.2396690557555257e-01
      4.7436346172732263e-01 6.1287024228270659e-01
      -1.5261020086462843e-01 3.8287500077409875e-01
      8.7158588201139683e-02 -2.3807931078263234e-01
      9.8664753924520635e-02 3.8949008306362715e-01
      8.3133436827339757e-01 3.1002482867284423e-02
      1.1815940614331787e-01 -5.7644736697733800e-01
      2.8058197322771056e-01 -3.4574109997026164e-01
      5.7798312072142102e-03 -2.5874981161584382e-01
      1.0653048422175114e-01 -7.0046148268692243e-01
      1.9921894263987835e-01 -3.5497173535372023e-01
      -8.5555214018580183e-01 -6.2100938533928884e-01
      -2.8949511581279208e-01 -1.6263880767492309e-01
      -9.0946023296777423e-01 -2.3141453531656739e-01
      -5.6907020717049428e-01 -1.0300798799636418e-01
      -9.1208892557299970e-02 2.6819223255447977e-01
      1.1774316183768059e-01 -5.6365791635049356e-01
      5.2667699787799627e-01 -5.6649505724551061e-02
      -2.6994169161000370e-01 -4.6659839441992490e-01
      4.6900899561939030e-01 -2.7347586659667328e-01
      -1.6901102193960866e-02 3.9254779779458066e-01
      4.6992993249253207e-01 8.0195985066473108e-01
      -1.7479586181740134e-01 8.0790374457579806e-02
      -3.0992742201241219e-01 -5.5328688887668143e-01
      2.5261184380167134e-01 -5.4436674595596046e-01
      1.6359375834027148e-02 -3.1664374585490603e-02
      3.8800824250720012e-01 -3.8820660296951687e-01
      -9.6435683160747881e-02 4.2351630905449722e-01
      2.0595377447544258e-01 -2.0976045218807620e-02
      2.1809105978379936e-01 -2.3199401239762321e-01
      9.3970826758729725e-02 6.0684440195879419e-01
      5.1258846574216699e-01 -3.0507559824775365e-01
      2.8175989733032125e-01 -5.3890397043664195e-01
      -5.1756906951245940e-01 -2.3221684392371342e-01
      -5.5113637032895950e-02 -8.9927579291716644e-02
      2.8738440651326858e-02 3.3907212488021027e-01
      -6.0102169449340603e-01 -4.0861737157147603e-02
      -4.2749118486590187e-01 4.6601734721183186e-01
      -6.0464289951068874e-02 3.6813619859711544e-01
      -6.5092921361183276e-02 -5.5888839888648756e-01
      -4.7139651072873445e-01 1.5167809194546156e-01
      -1.8634858934350992e-01 7.8436954826913041e-02
      -1.5780228784409828e-01 4.5273768999227959e-01
      -6.8024936932629676e-02 -6.2577571295351397e-01
      3.4837978186035312e-01 3.3896934310063115e-01
      -1.6573080939797843e-01 -4.4465906111240883e-01
      2.1107886527791553e-01 -1.0166623663401725e-01
      5.0954334014999558e-01 -4.6376239832969618e-01
      5.7145812581082256e-01 7.3201084093658964e-01
      6.5572755005843197e-01 4.5625149882274640e-01
      6.3918675624655530e-02 6.3091411294547942e-02
      -6.4184421315614570e-01 5.7373199931276653e-01
      -3.6896436289359985e-01 5.9306625645243402e-02
      -3.0400161826637306e-01 -4.6305759319909490e-01
      8.6390386971038999e-02 1.9199329881399810e-01
      7.2069033094616797e-01 -2.8622245772305527e-01
      3.6282442041422952e-01 -2.6153392848792206e-01
      7.2537374954687969e-02 1.0365896714443916e+00
      -5.5028099992704760e-01 2.0937929720793441e-01
      7.8927267414668023e-01 2.0498582660584758e-02
      -6.8178227279625192e-01 5.7228836491511215e-01
      1.5409979642084373e-01 -5.7759516400729669e-02
      -4.5870140556684824e-01 -1.7896295189276970e-01
      -8.8569158374918619e-02 -4.8144935536945738e-01
      2.7989199880862187e-01 -1.9377086266261929e+00
      -2.0344057612419847e-01 8.3461045138621415e-01
      -6.7307302111211609e-01 2.9884254422857248e-01
      -3.1051064516161953e-01 -2.6021989839478693e-01
      -3.6073957400233288e-02 -7.1114104039531578e-01
      2.5664944868568013e-01 -2.5261210860452354e-01
      -1.6746582505476074e-02 -4.4009709133707337e-01
      4.0330635043644975e-01 8.3966201675315960e-02
      -5.7119447631172666e-02 -1.2739134838516006e-01
      -7.6456395249423259e-01 2.2735195495281268e-01
      9.7003262948609364e-02 -3.0402164754293903e-01
      4.3044027283645447e-01 2.2644185555825752e-01
      3.8098671230873926e-01 2.0137446267278217e-01
      -4.9003632395094820e-01 1.5195237196634095e-01
      2.3482374900957137e-01 -5.7236713794082195e-01
      5.0626585181878750e-02 -1.2657891286678574e-01
      3.5614466176116744e-01 4.4711295603314805e-01
      -8.6143149117872320e-01 -4.3729080134077647e-01
      7.0951007309245473e-02 2.6780139622768862e-02
      -1.4085146419695593e-01 3.4709821368654015e-01
      -1.7570565412746142e-01 -3.1379870454635128e-01
      -2.3691048338030923e-01 -9.5388092366959221e-03
      -8.3306363812945805e-01 -5.2177858900480512e-01
      -2.4016723304611953e-01 -1.2210375478541925e-01
      4.7672463355546729e-01 -4.1028205104308668e-01
      -1.1309062504704077e+00 2.9611148881055516e-01
      5.4726105360671920e-02 3.4248911367669754e-01
      9.2886043447236236e-02 -1.9559415002311337e-01
      2.0497571970104808e-01 -6.8925642363216322e-01
      6.1781800752517635e-01 -9.7108803213602060e-02
      2.6881757297897702e-01 3.1491251331594933e-01
      -7.7400851669057524e-01 4.6194626544007411e-01
      2.2230036252002924e-01 -5.3433771868586943e-01
      -4.7907693391287703e-01 -1.5194548640627117e-01
      5.3986965124850750e-01 -3.5791911923700109e-01
      2.5714650124883165e-01 -1.8362823149416871e-01
      9.4666208303850100e-02 -1.8378039717490499e-01
      1.5343506441619550e-01 2.1616765547823058e-01
      -7.7377341392377966e-02 -1.3589880334485034e+00
      -2.6844573167782726e-01 -5.1248191345515326e-01
      -6.3055942451873637e-01 7.3456831433554415e-02
      -1.2356362917761589e-01 3.2735404720522182e-01
      -9.2309979672767661e-02 -2.4232864776813714e-02
      6.4256306117559309e-02 -1.1407279423179821e+00
      3.1168286656293231e-01 7.3131916848796608e-02
      -7.5442021750182919e-01 -1.8706027339425135e-01
      1.2614887880044029e-01 1.6985202929307178e-01
      1.8928060800984800e-01 1.4738469427649339e-01
      9.3853823194208286e-01 -3.7003586975393093e-01
      2.9867357406704691e-02 6.6723586289639880e-01
      -5.0205922427231187e-01 -1.5239324771592147e-01
      1.3978690482926809e-01 1.1231415149170924e-01
      -4.7557088674890530e-02 -3.9453604974514445e-01
      7.6333126131368362e-02 6.7347401975408186e-02
      6.9682897232728885e-02 1.1153673878399201e-01
      2.7493165993919128e-01 -2.7716611622269449e-01
      -2.2820613342263443e-02 -8.4397204302992468e-02
      3.9158256753191883e-01 -2.9945270103955718e-01
      4.2946553244778501e-01 4.2534418047076604e-02
      3.2716318147772330e-02 4.8513840607623610e-01
      3.8614381319335978e-02 1.6425011635337378e-01
      -1.2542899710758798e-01 -1.3748105988494191e-01
      1.1353750026691437e-01 -2.3149380851865506e-01
      -4.6693406558162553e-01 -5.7711419650506368e-01
      -7.2877973702577714e-01 6.4635477521032458e-01
      -2.3202754566531231e-01 -2.0386468884451733e-01
      -5.7650700619568862e-01 7.9862903667413976e-01
      9.5020586421118380e-01 -4.4134103068949487e-01
      -5.9240426126380530e-01 -7.2551909851859275e-01
      -8.2962187001449961e-01 7.5751550427310566e-01
      -3.4373347771088425e-01 -3.1550781413790384e-02
      3.2882766725856294e-01 -1.5062774825949735e-01
      -9.2967889008439575e-01 5.6323969641540039e-01
      -3.5207282957755180e-02 8.3973400140892329e-02
      -4.8083427304740139e-01 4.6402079172750366e-01
      6.8491874463058999e-01 -1.6088839127828350e-01
      9.3762945922380617e-02 -4.6968929664046538e-01
      -7.6293707603070460e-01 2.5832930083984840e-01
      1.0454996481935246e+00 -2.1974864908675514e-02
      1.3281656560462113e-01 7.2683658796031603e-01
      -8.5709227930464849e-01 5.7599541803819876e-01
      -1.2863720581455920e-01 -5.1549587093406402e-01
      -5.5955978082362168e-01 -8.0210182129563690e-01
      -1.8893674693983500e-01 7.5317013656802634e-01
      3.9757181326856478e-01 -1.9236546168844482e-01
      -1.7919326465635479e-01 7.3706180288479139e-01
      -1.7400285000104446e-01 6.6230408073276037e-01
      3.3745999237684766e-02 -9.5381742543145853e-01
      -8.1139909069456673e-01 4.8339485004038951e-01
      -4.7103546480130126e-02 3.9424892481291152e-01
      5.1257119317325228e-01 1.1950780394801694e+00
      -4.6158957391190247e-01 -1.7416568657238788e-02
      -3.2411363558076611e-01 -3.0005622639280621e-02
      1.3850896166259157e+00 -5.4219017398227687e-01
      5.7867612156091219e-01 8.9856851005943739e-01
      -1.8894746532986895e-01 9.9677956718424429e-02
      2.1853287995790425e-02 -2.2289671534846034e-01
      2.2408294983938068e-01 -1.6258876719400522e-01
      -2.8233326601991937e-01 -5.1316258705188800e-01
      1.0109584300519733e-01 -3.2936036461433105e-01
      3.8011191916907761e-01 -1.0576221671300977e-01
      2.6709213742214460e-01 -1.0299292587830357e-01
      -5.7400428359794475e-01 -1.5987421127824814e-01
      1.5236773687749006e-01 2.8764858575180136e-01
      1.0321633453863116e-02 2.7507175451366583e-01
      9.9093049397814104e-01 -4.1033321797692965e-02
      1.0897754504849870e-01 -2.5409251743301248e-01
      -3.7639059162221378e-01 -6.8981404828977688e-01
      1.6054508496612277e-01 2.3348189797434521e-01
      3.6571400469444171e-01 -5.0918712849138299e-02
      2.0693982632643565e-01 4.7595939940827958e-01
      3.2026208144232227e-01 -8.5144673014939005e-03
      -1.7998187774496843e-01 -1.3414003062685101e-01
      1.2085554558763717e-01 4.0917356710459818e-01
      -1.4342978763953060e-01 -7.9108851278389444e-02
      -2.5839392350683477e-01 -2.1973740035717554e-01
      -1.6963261616442590e-01 -4.2792950999409334e-05
      6.3147213586697104e-01 -3.3589238753526751e-01
      -5.4710375447930870e-01 -4.3279530803382794e-02
      7.4667649356155677e-02 2.1260795495362877e-01
      2.2098560086438354e-01 -7.4818200245343647e-01
      5.1800067949686124e-01 -1.9920076963761005e-01
      7.0099400538858014e-01 1.6844985352347588e-01
      -2.5755052657633937e-01 2.0977400884820210e-01
      -1.9882184431565039e-01 1.0918711551582401e+00
      -3.3821120385671727e-01 -3.2513961090864862e-01
      -3.8999532507248913e-02 2.2645747242883832e-01
      -9.0702269014992121e-01 -2.4738269062926374e-01
      -4.6489369548673187e-01 7.6790719734530832e-01
      7.3646086607591776e-01 6.8505200205276273e-01
      1.4206220521607111e+00 4.5424832142678850e-01
      8.1644839264369995e-02 4.5825653625876633e-01
      -1.7064654419927247e-01 1.3569264237412915e-02
      -1.5268091605918854e-01 6.7540354127902613e-01
      -2.0375573357932866e-01 -8.2533866383711130e-01
      -6.0390532715928136e-01 2.8110738346279468e-01
      1.6657751985035643e-01 7.8662471626928898e-01
      6.4960227865057407e-01 3.1424546796333963e-01
      5.5428782251533293e-01 2.5865108962201006e-01
      4.6950291859384297e-01 -3.2784349192773055e-01
      -6.0594363296248499e-01 2.4128786356992740e-01
      1.3531195188490139e-01 -4.2938164091444359e-01
      -3.1940017675219418e-01 2.2172846016466358e-01
      -3.0042371119419170e-01 8.1443068666208554e-02
      7.6314933456825440e-02 -1.9097036743101872e-01
      -6.7863171195544497e-02 -6.2080458231461647e-02
      4.5716022905900155e-01 1.2400920348697173e-01
      -3.8123114310332157e-01 3.7569523209451100e-01
      6.1059080606670202e-01 4.5370064472437738e-01
      -1.0309059425705749e-01 5.5710112399513712e-01
      -2.6425211448353148e-01 -1.8485787207339184e-02
      3.8889508505913856e-01 -2.4341060829367411e-01
      -6.7552483138881325e-01 8.5871370431257577e-01
      5.3718295788101800e-01 -8.8447594082847181e-01
      8.0123567309113672e-02 -3.6200165125274553e-01
      1.6330800489525510e-02 -5.2636839341251829e-01
      -2.8133922138484163e-01 1.0615159053227760e-01
      3.2198195318747475e-01 -4.0771011773490295e-01
      -3.4726129692044516e-01 -4.3103046168944381e-01
      1.1725912775990301e+00 9.9877001690466524e-02
      1.7049807150304144e-01 -4.5556282542311444e-01
      -5.8458244658358849e-01 -4.5184215479572888e-02
      -1.2432111210779622e+00 5.0429312102030575e-02
      -8.1977127898738261e-02 7.1233105588794432e-01
      5.5307976292075267e-01 -7.6440440238665341e-01
      4.4247910907024002e-01 2.0001391417970438e-01
      2.4310519024981294e-02 -8.1202807610808792e-01
      -5.0218296349132996e-01 5.6597478306322291e-01
      5.0308912880140710e-01 -4.1494423346798992e-01
      6.5403725765478066e-02 2.8561892908766412e-01
      8.4400536672793264e-02 1.8013176191024652e-01
      -2.4733357546859794e-01 -1.0813928694790673e+00
      3.9933654502030574e-01 1.2546951427002275e+00
      4.2530604258264743e-01 4.8476941552163483e-01
      -2.5155572861818970e-01 5.3089726972517282e-01
      2.7532377541329800e-01 -5.9688935979986701e-02
      9.4647112933165037e-03 -9.3221488320084833e-01
      -1.2178215110425994e-01 2.6132726610585055e-01
      3.1513210155247451e-01 3.4342018867142926e-01
      -9.3945974583211955e-01 1.5586095934104904e-01
      1.4005067905057950e-01 -3.6459396109415221e-01
      -6.2176212010858822e-01 5.4153205670266658e-01
      -4.9216438003333624e-01 2.6669158331285459e-01
      3.0373493299295806e-01 2.0266020397469087e-01
      -6.4648059860451201e-01 6.9594622059541567e-01
      2.4727027155438522e-01 2.1983573729600350e-01
      -3.3290223035025379e-01 -4.0964622767108655e-01
      -2.9370365790766656e-01 -5.8753661902612730e-01
      3.2369365399943156e-01 -4.0823661248634430e-02
      3.4466264701242944e-01 1.3596703777257213e+00
      5.7240698607731566e-02 -2.0435427625622168e-01
      -4.1333945990797638e-01 1.9667752252524737e-01
      1.3146957483026711e+00 3.0061920310123302e-01
      5.1875173602895175e-01 -1.8587958520107822e-01
      -5.5438833308964164e-01 8.2544276798348792e-01
      6.7674012459881631e-03 -1.1232969558589230e-01
      -4.9318319210732858e-01 -1.4215289788091132e+00
      7.9858473815816211e-01 -1.2334372160049640e+00
      -4.7707113426716030e-01 -1.2887886041726184e+00
      -1.2193285232515785e+00 -3.1376836214280696e-01
      -2.9575014865612059e-01 -1.0072590222640296e+00
      5.0375301683275164e-01 -2.3492839202289389e-01
      -2.1697114751762073e-01 -2.0498357600684899e-01
      1.0768893245411628e+00 -1.0902898538225989e+00
      5.5359325987178709e-01 5.0740076273122692e-01
      -1.2383367147036950e-01 6.0145157931818971e-01
      4.1529222672369159e-01 9.6992158064850620e-02
      -2.9813488687773670e-01 -2.0876017392539784e-01
      -7.9911645882991142e-02 1.2395006800532560e+00
      2.6525260562224717e-01 2.7864728447479509e-01
      9.2570473816018406e-01 -9.7434019324725341e-01
      -1.7322767654464971e-01 8.1954853967291419e-01
      5.4529944646489792e-01 8.6732559986696345e-01
      4.9740365006354265e-01 -6.1915438025912262e-02
      -3.1443511912627353e-01 -2.3616958344558220e-01
      9.9750725140504454e-02 1.5039856075446464e-01
      1.8970611731190998e-01 -3.0616243074744787e-01
      -9.7438833595369412e-01 -1.5130222946472818e+00
      -8.5535916401539358e-01 -5.0959090863026313e-01
      8.6000237838440607e-01 1.4192810741041170e-01
      -2.1182407316707935e-01 9.2865277095975390e-02
      3.1283417345056380e-02 3.1255163522141516e-03
      2.9032760929029550e-01 2.3248630866282100e-01
      2.0235435753006295e-01 -6.7538657991928652e-02
      -3.5728923821652120e-01 3.5718744426384424e-01
      3.0870219363226706e-02 -1.0010535828726672e+00
      2.6403683269298386e-02 -4.6847711870178735e-02
      1.7461932763722138e-01 -5.5723946819531522e-01
      -1.6644319132884339e-01 1.0265695280514656e-01
      1.3911381070739309e-01 6.9205784463532782e-01
      -5.5329924079135950e-01 -4.3167870792203356e-01
      -5.6491221411221748e-01 -7.8091579942587985e-01
      6.2938293580677873e-01 1.9913140573084329e-01
      -5.7936120084863540e-01 5.8785124679202372e-01
      -6.2184837459962568e-02 -2.4448533613894313e-01
      -3.1086832075296772e-01 2.2942121447012470e-01
      1.9843750546090452e-01 -4.2660077276231162e-01
      -1.4216650312345638e-01 4.2630420476274261e-01
      7.9451137797127112e-03 -2.4964558542418597e-02
      -9.1134619413410034e-01 -5.5685371724882249e-01
      2.8041164853592232e-01 6.2683702302133793e-03
      7.3980296913676497e-02 4.5481615534749401e-02
      -1.7385469090024266e-02 1.8923169183731500e-01
      -2.6185309379568805e-01 3.0348560509290201e-01
      1.9914928960923314e-01 3.4145738316700236e-01
      -3.4979549464827703e-02 2.6929735765833829e-01
      2.6919614932650510e-01 2.0085334746191652e-01
      -1.0259447526687087e+00 -3.2497655880166909e-01
      -4.4292154478636497e-01 7.0463284828573314e-01
      -1.3881817862484008e-01 4.2335384559032030e-01
      1.3711576674036446e-01 -2.6499473200593049e-01
      1.1443921450504178e-01 -6.5222124971454642e-01
      1.0452323647654747e+00 1.4574607553173846e-01
      -5.2367992618802883e-01 -4.9808135726120367e-01
      -1.5990697798184314e-01 3.7285790663110725e-02
      -1.9908104693618059e-01 5.0579535356568706e-01
      4.2190857957140360e-01 3.2371895378489890e-01
      3.6955333821151443e-01 9.8078248987251904e-01
      8.6457686703072023e-01 1.1502108359734185e-01
      -4.6892457210704752e-01 6.6501280234958271e-01
      -1.6004657010774773e-01 -4.9184745559268761e-01
      4.5404644671076594e-01 -2.4729419066773656e-01
      -1.5656385382080015e-01 6.0771360373463083e-02
      3.3230103513106385e-01 1.9049828434486937e-02
      -5.8627934146947273e-02 -3.9308279177261279e-01
      -8.7836375962899738e-01 2.1001686436039341e-01
      2.6423299407586387e-01 2.9015465613848146e-01
      -3.1854514170115450e-01 4.5048557002478251e-01
      3.6586265814190250e-01 -4.6172983239423970e-01
      -1.0536546463003693e-01 1.9407281765452072e-01
      6.2007202821188989e-01 3.7282691193083939e-01
      2.4345452430841158e-01 2.5935951998302109e-01
      -2.0759338816441317e-01 8.8440313749369906e-02
      -7.1009624696147050e-02 -4.0175234585309433e-01
      -4.0171171141439599e-01 -7.1290443342037407e-02
      -6.5476759674555995e-01 6.4872683327521191e-02
      1.7115523458671061e-01 -8.5460630774768220e-01
      2.1542297846227601e-01 2.0212544206468013e-04
      -4.8016198698146023e-01 -4.1232833116608400e-02
      9.5587907286020168e-01 9.4456496034351134e-02
      -3.1854500281265191e-01 -4.2251873424970188e-01
      3.5012715487123486e-01 2.4332342477837915e-02
      -1.6213480120066220e-01 7.2896823617496986e-01
      4.9508771222914673e-02 -1.7649087680642866e-01
      -4.8052883015676862e-01 3.1592707998489183e-01
      -2.4362956224601499e-02 1.5911045114101549e-01
      1.4394336983784123e-01 2.1675839966884652e-01
      6.0536153753264009e-02 -4.2074416933989151e-01
      -3.2388253317941074e-01 -4.7936842617389042e-01
      4.3604302227074759e-01 -2.0580558335167254e-01
      9.3252012888996663e-02 -5.2199414495254304e-01
      3.3629810341551591e-01 3.3214390869115479e-01
      -5.4571708326394441e-01 -3.6721576810826384e-01
      -8.8356985969415947e-01 -9.6380742450568513e-01
      1.8303091258885816e-02 4.6034781303892364e-01
      -3.3440778772429647e-01 -2.6437865247295345e-01
      -3.3643426052715025e-01 -6.9353957115715487e-02
      -3.0658653113955431e-01 1.2011554415734385e-01
      -3.5126685695915878e-02 -8.7874619177674917e-01
      -1.7494858270512087e-02 -1.2276847404293394e-01
      -5.4378187107592257e-01 -1.5737438484573754e-01
      -4.3286082158795064e-02 -5.4688153783991456e-01
      -1.4915150066722183e-01 4.5309356686859391e-02
      5.0752803622347453e-01 -3.4739116957812533e-01
      -1.8588524252831126e-01 -1.3920363643125352e-01
      2.6822284410717095e-01 9.1697367366365734e-01
      5.1340694210460758e-01 7.9242741291076696e-02
      -8.6984538727477678e-01 -2.8168984612785358e-01
      3.7313032399043058e-02 -3.5316537629242534e-01
      -1.2853430421681846e+00 -4.0813490576890155e-01
      3.2161259008867148e-02 -4.1638093728203096e-01
      -6.2927761891721290e-01 7.1017026673287187e-02
      2.8577761272911173e-01 -8.8988137393463049e-02
      -5.0971468259611441e-01 -3.3507510651911196e-02
      -6.7351969417500224e-01 3.5854219981032442e-01
      -2.0875600287353344e-01 1.0479120254568401e-01
      4.8081058821414069e-01 -1.2751048015987534e-01
      1.1295886536397097e+00 6.2986388716949593e-01
      -7.1937474634642684e-01 5.9592330332394128e-01
      -7.7528634370678884e-01 -2.1635271041605161e-01
      -6.2555330628986439e-01 -6.1281534312077168e-01
      -3.9174855006395964e-01 -6.2381992385370577e-01
      3.2607821181732860e-02 -8.4881444605425155e-02
      1.3535646840213016e-03 3.8538211166591591e-01
      -3.8216101675396946e-01 2.6693529064733590e-01
      4.6984025514235789e-01 -1.0190475467515668e-01
      4.3569637584752713e-01 4.3400038173030880e-01
      7.6117352775713432e-01 -4.2124330871712984e-01
      -1.1841093046698177e+00 1.0982701923290895e-01
      3.7964020789516745e-02 7.1795827199310502e-01
      -3.4288097050366279e-01 -2.5130556072312404e-01
      1.2899211274236730e-01 6.8032951775362216e-01
      3.8809785937290109e-01 4.0803655971484651e-02
      -6.8717377564489823e-01 -4.9404041655127745e-01
      6.2012105661555594e-01 -5.9176912447896823e-01
      2.4612692699406111e-01 4.8721244742435110e-02
      -1.2438437719535468e-01 -4.7015003945298345e-01
      8.2330736435054941e-01 2.6200874103209743e-01
      4.2637191614861941e-01 6.9259464724836950e-01
      -4.0237582141179318e-01 -3.5000572524587870e-01
      1.6144902217174614e-01 2.3723453815267123e-01
      -4.3540001299032732e-01 -7.6288664898568392e-01
      -1.1742204818986666e+00 -7.3878080162788784e-01
      -8.5276171666352951e-01 -5.5126903462818799e-01
      -5.2136197488694147e-01 9.8739958387268900e-02
      -4.0429119531804764e-01 -2.3332680758856991e-01
      -2.4909972857486154e-04 -5.5419459319066466e-01
      -3.6571887771422462e-01 -6.4369385319973993e-01
      -2.5225887099276426e-02 -8.1835914892615036e-01
      2.3109678756995630e-01 3.2043276430049777e-01
      5.1740298793871875e-01 -1.8641654362911411e-01
      1.2500362161335546e-01 7.0138836593617582e-01
      -8.5408459086150390e-01 -6.7137031433557634e-02
      -1.2642497147953258e+00 8.4186974847878870e-01
      1.0099629846528813e+00 -1.1442120402913473e-01
      5.2216322809850273e-02 4.1150536152390788e-01
      8.0105575646155211e-02 -1.4474253678851098e-01
      -1.4187643198424990e-01 -4.3805008629259323e-01
      6.7921445288603222e-02 8.7843055447969320e-01
      2.0701410177132440e-01 5.4658952640227430e-02
      -2.1445704659103024e-01 1.3625207400639772e+00
      3.2768787990569426e-01 3.4136619143484764e-01
      4.7957616742020648e-01 -3.7314921975183929e-01
      -2.9551700719621815e-01 1.0164402360446155e-01
      8.8770451786453630e-01 1.2167416962512927e-02
      -7.1239632462667479e-01 -1.0476296181801473e-01
      -1.0006928610623178e+00 -9.0313868252984553e-01
      6.4757786839447495e-02 -1.6063791565577709e-01
      -7.3015851455479197e-01 3.0617437305585410e-01
      8.8452333703939776e-02 3.1875465476553361e-01
      -2.8463559745019384e-01 9.5874734670669337e-01
      5.0158414598852175e-01 7.7694762883620719e-02
      -2.3771240284371165e-01 -2.4999901105299982e-01
      -2.9055258943857316e-02 -5.0931982781825746e-01
      -1.1976799911461531e+00 4.6289059623703821e-01
      8.8283592065223779e-02 6.6892200009590186e-01
      -9.4643525287320240e-01 2.0753496211964423e-01
      2.0307487273733352e-01 6.4450333549383632e-01
      6.3173241998568330e-01 5.3809509932404642e-01
      6.0976262815613058e-01 2.9728661274367107e-01
      -8.3950769518617907e-01 2.3844928596773132e-01
      -8.8958148180998697e-01 2.3312827749296849e-01
      -8.3352584459858747e-01 -8.6916642639302003e-02
      4.5127112239907541e-01 -4.3466462242120907e-01
      9.4751683262861652e-02 -2.8908408990136331e-01
      -3.7125513019727235e-01 -1.4756220366737849e-01
      5.9258608940559820e-01 -2.9314490254258513e-01
      2.6103005909674726e-02 2.3288600659653785e-01
      -1.2128938580469990e-01 7.5137755184195620e-01
      2.4110313339550349e-01 -8.5894959448845343e-01
      8.6145176484243546e-01 -2.3082510792882954e-01
      -4.1920354216622340e-03 -1.1126746670645923e-01
      1.0363282555957698e+00 2.0130956819759932e-01
      2.3768543663593425e-01 -5.9425579155165897e-01
      -1.2922600068197568e-01 2.8249372510304238e-01
      -4.7440892590700251e-01 5.4996027337208542e-01
      4.0792401496560898e-01 -2.5403754309467719e-01
      -5.2199985916989633e-01 8.1990728013690395e-01
      1.6177253881150588e-01 -7.3962266467462776e-02
      6.0489650994911548e-01 -1.2479812371304491e+00
      -2.4554641212841072e-01 -1.6213679839151993e-01
      -1.0555042318419187e-02 -6.5889504596142778e-01
      2.3172874324127660e-01 4.1472015743483975e-03
      -3.6527184968660398e-01 -1.7588338249992519e-01
      -2.4738304271929870e-01 -2.0652553080393576e-01
      -2.5514321875096818e-01 3.9676869767993789e-01
      -2.0034504958707150e-01 1.6532652616431798e-01
      4.8575101350561495e-01 -6.3504690298503830e-01
      1.4608308218762014e-01 -2.5880768627704519e-02
      2.0100979464378529e-01 -2.7645154857313425e-01
      2.4978099348696609e-01 -2.1233949140552127e-02
      -1.5519906569742362e-01 -3.7875400141507903e-01
      2.5536853800569020e-01 -2.2198169666656750e-01
      -3.1928490641359414e-01 3.1967515131752583e-02
      8.0214348717336981e-01 -4.1156951171022271e-01
      8.8351794462471722e-01 -3.0604088525602968e-01
      -7.3274401691098912e-01 6.8782906248325859e-01
      -7.6943333988655971e-01 -2.2115488323781501e-01
      3.7096091084230143e-01 -6.8811995856713742e-02
      6.6900291309607718e-01 6.4015956504654081e-01
      -1.7175421180948270e-02 -1.4713329437770870e-01
      -8.9058334547602772e-02 -5.3319387706824806e-01
      1.5121050243091649e-01 1.7751867894566051e-01
      -1.3558552341009084e-01 3.6894875200644550e-01
      2.2654966003018076e-01 -1.2850686490573276e-01
      -1.0474293764001386e+00 -7.5908183743883001e-02
      -3.9023723690721762e-01 3.0066418381817189e-01
      -7.2790693014863420e-02 3.6177042652269992e-01
      -3.1672615178226221e-01 -1.9119841093479556e-01
      -3.8589651627607419e-01 -2.8805017876675848e-01
      8.4408520149014110e-01 2.3350305601382754e-01
      9.0790894246790294e-02 -1.3045397054532382e-01
      1.6662788742059695e-01 -4.3982981834943946e-01
      -3.6672387780776605e-01 4.8004497151667569e-01
      2.8326082318729018e-01 -6.7994202735532056e-02
      -2.5268913036999874e-01 -5.8046516187797759e-01
      1.1063823144657660e-02 -6.5293586239104129e-01
      1.6891149551866719e-01 -1.1694760335895893e+00
      -1.8768527210298058e-01 -1.1784770450895253e-01
      -5.1518925462513132e-01 -4.9837204027858584e-01
      3.9619672275394363e-01 2.1679031652066083e-01
      -2.3783663128459492e-01 -3.2069835300309973e-01
      1.2234005304061880e-01 -4.0778529302883677e-02
      -2.2331562400857011e-01 1.7540772525313293e+00
      4.4044382123753584e-01 -3.3432065431031333e-01
      -7.5724220030653266e-01 6.3197224237907534e-01
      -3.9078694218319410e-01 5.8875327482924744e-01
      -4.2162771872862237e-01 4.0853483177969308e-01
      5.7858258934727118e-02 2.9195404831631833e-01
      1.1529205224442789e+00 1.3296121455886317e-01
      -1.7871439344038378e-01 2.1444221956994367e-01
      9.9277177363386565e-02 6.8494682795361161e-01
      3.5667727225116991e-01 5.1664216329188506e-01
      2.0928281756350661e-01 6.2819376351629552e-01
      -8.6970320280664412e-02 -7.3348123615327554e-01
      1.4198974562435129e-02 4.7919644643277554e-01
      3.8841485789665120e-01 -2.0768425006677674e-01
      1.6812900046591914e-01 2.1306398872001909e-02
      -2.0339715515125426e-01 -3.2563008497095919e-01
      6.6687907653149008e-03 -5.0621156754205567e-02
      -1.4970372093684193e-02 -5.4924235474213901e-01
      -1.5193832134103977e-01 -3.6167344509141730e-01
      6.9204824196190073e-01 1.0616605161623106e-01
      4.4662850465850706e-01 -2.4446605149044651e-01
      1.3958405133693483e-01 3.5376755000687266e-01
      -9.7574685992936769e-02 -1.6250277227132381e-01
      -3.9725293321206206e-01 2.0349350240660916e-01
      -7.2392379080698221e-01 -1.9594882317087850e-01
      2.5370377383723114e-01 -4.3035811546354324e-01
      -2.7992046941280640e-02 2.3309373626575947e-01
      3.5110791532365232e-01 1.7129161449383637e-01
      3.7925160445959594e-01 3.4010175868728232e-01
      -9.0953866407216277e-01 1.6489799229294821e-01
      2.2377622037906919e-01 -1.0332489314097704e+00
      1.3262488531276873e-01 4.0419970683251066e-01
      -9.8131717077863334e-02 -1.2253142390361583e-02
      -1.1103233053614597e-01 1.5040592667911568e-01
      6.6247235901764223e-01 9.9408861970091203e-02
      -9.9912768732614998e-01 1.1590509134047694e-01
      -7.9203866683024038e-01 -7.7352920045060936e-01
      -1.2120056866013325e-01 6.5705182641566684e-01
      7.9903857693786229e-01 2.0553949627239942e-01
      -4.2809178059510830e-02 4.3254201711286815e-03
      -7.3448542226126318e-02 1.6672485262173120e-01
      2.1521792699023173e-01 3.4731342561753786e-01
      6.5349272086851518e-01 1.1586282583112852e-01
      -1.5295357714829663e-01 8.9447708154858557e-02
      -2.6794284193853507e-01 -1.8301557995964338e-01
      -1.9495479363024897e+00 -5.7656012742575390e-02
      -5.8875919213649530e-01 1.5930121778690137e-01
      9.6799921003866848e-02 3.3212083660599684e-01
      2.6048992709060120e-01 -1.4658435135038730e+00
      6.3190421314119105e-01 -4.5531604445619850e-01
      1.3806306691861919e-01 4.3007313030518474e-01
      3.6693794387494671e-01 -7.8612533582840538e-01
      2.3628941243583840e-01 -7.8435789870862874e-02
      2.2024501886748929e-01 -4.2387375782564896e-01
      -7.9714805647366951e-02 4.8163501968604844e-01
      3.8266515490101016e-01 5.3620117069470585e-01
      -7.4055093818021611e-01 5.0458419691532486e-01
      1.1657126343910906e-01 3.0911246935645914e-01
      5.8049292629225790e-01 -1.1795632242555427e-01
      1.4406578131371237e-01 -7.6863517806460946e-02
      -2.8642848772007613e-02 1.6157607724245954e-01
      2.3580065538378289e-01 7.0242268591376736e-02
      5.9800017037603556e-02 5.9469030541622747e-01
      3.5133648753195779e-01 -3.4467227430669611e-01
      2.2907879361922462e-01 -5.6683355912243705e-01
      5.2212405684054752e-01 -2.5445921192291782e-01
      -4.4098095785894187e-02 -5.6720211991888619e-02
      -5.4165804165938913e-01 3.6330605522254344e-01
      5.4773913577554378e-01 -5.9574402774946145e-01
      7.4020654804417191e-02 1.2446619517946231e-01
      5.4832620214058658e-01 -4.2190613545266165e-01
      -7.3039187405751022e-02 -1.6663874618288918e-01
      -5.0461221993820027e-02 1.3684652498198573e+00
      -3.7311434503462959e-01 2.7768304950645606e-01
      -9.3423003330615303e-02 -3.6548770729621494e-01
      3.7213285306829491e-01 1.4820124042034993e-01
      -3.3382375527211566e-01 -4.0943104273593900e-01
      1.1144038909634704e-01 2.5590308853614557e-01
      -5.4058147880459884e-01 3.8766333944275633e-01
      1.9955831349396314e-01 2.6826716135191297e-01
      -4.9466802555148282e-01 -2.3800710117468693e-01
      9.9534148040789250e-01 1.9906741551980517e-01
      -2.8385250163370551e-01 -2.5635300009796252e-01
      -6.4396747668795246e-02 -3.6236423742571566e-01
      -3.6855303549689988e-01 -3.9218617212388796e-01
      -4.4010907575548985e-01 -4.9615530944591818e-01
      3.2970288314336615e-01 -5.3957544417359471e-01
      -2.2796464103264760e-02 -9.3736383912230925e-01
      1.0026737826473382e+00 -1.1619390056118969e-01
      -9.2274456451169007e-01 -4.2208982870660811e-01
      3.2535290182019089e-01 -2.9654857229793746e-01
      -2.6190572651712368e-01 6.4694891072505611e-01
      -1.8664753649566171e-01 -7.6913483496814705e-01
      -3.9313770458199643e-01 2.4469218005347720e-01
      -1.0279084943042806e-01 -1.1387938029770464e-01
      -2.5178485366402115e-01 -3.1676363694030089e-02
      -2.7174145384826093e-01 -2.7760234606302819e-01
      5.1495063218759229e-01 3.2249364253730639e-01
      -4.1021179832974702e-01 -7.3547507568632609e-01
      1.4970911253979868e-01 -2.7013998190495542e-01
      5.0625870455305555e-01 -4.6643814813191575e-01
      -1.6247195473526463e-01 4.1054958221446680e-01
      3.3403638748307860e-02 7.9146496047599046e-01
      1.8186463661518584e-01 7.9637258261389576e-01
      3.7700294143533047e-01 -9.1981947991561785e-01
      -3.6010054173701750e-01 -5.4708488528651411e-01
      -4.7108556858133074e-02 -2.9250782495027515e-02
      -2.0053380045419791e-01 5.1761621154499005e-01
      -2.4510062575788850e-02 -4.2728347603555628e-01
      2.1175387086718928e-02 -3.1168237725467524e-01
      -3.4887547151388210e-01 -4.0781781431335051e-01
      -2.8050798361113436e-02 -1.2341988100030314e+00
      -4.0767661536990385e-01 -3.9544901586550057e-01
      1.5390156429505514e-01 3.0317434756043460e-01
      -1.8716226829326055e-01 -2.0023109397894512e-01
      3.2374854131403058e-01 -2.4464397371994553e-01
      -1.0600707010370694e+00 -5.6630105039487333e-01
      -1.6962944900074750e-01 2.5850483492949561e-01
      -6.5548943182836994e-01 3.4169990165852399e-02
      -1.7089338013265234e-01 5.9459925702476224e-01
      6.5206677871889884e-01 -4.4893280732483770e-01
      7.4246881640390094e-01 -2.3909908405101271e-01
      -2.3305439506778125e-01 6.5841497183986386e-01
      7.9220399722225232e-01 1.0229033945467988e-01
      2.9620282478016802e-01 7.2302797558846735e-02
      6.3189514038401462e-01 -9.3340430646856809e-01
      1.4282044933113333e-01 -6.7045311403465951e-02
      6.0048461516082974e-01 7.1006836375347515e-01
      1.7073878473853384e-02 -5.5048959627299066e-01
      -2.8777683478623861e-01 4.2960538975566687e-01
      8.0651482819527265e-01 1.3582210145379510e+00
      -7.1960498213704471e-01 2.1560742641158009e-01
      4.6885994083280835e-01 4.2360366435361618e-02
      -6.1869368216148368e-01 -1.3523265193327732e-02
      -2.3011328132586492e-01 2.9229452190053418e-01
      2.5255307839893076e-01 2.6886005696782012e-01
      2.6867493282077326e-01 -8.5896133785116666e-02
      1.0703949760230262e+00 2.6270479659298601e-01
      -7.2592499464503846e-01 -4.4120294748859382e-02
      3.3833153459597798e-01 6.8990076569429418e-02
      -3.4259546289907378e-01 -2.7508013682329946e-01
      3.3558758198792038e-01 8.9998440875043584e-01
      -2.6879662901925083e-01 -7.3148923602333327e-01
      5.1752619649616649e-01 5.4630192888635898e-01
      3.1133700632009981e-01 -7.5027777293382958e-01
      -4.5313202576490397e-01 -7.5107262611478584e-02
      4.6041080386218242e-01 1.6042236775090296e-01
      -4.8445560053174247e-01 -2.9539101227183834e-01
      7.7467631360365150e-02 -9.5795832390343960e-01
      -4.3386969135245007e-01 2.4298852656363312e-01
      3.9686168583022113e-01 -2.7263430998072957e-01
      -5.6190990954821253e-02 5.6337320361495032e-02
      -1.3906036677697900e-01 -3.0667743226168770e-01
      -6.5852451756264330e-01 -2.6595477284693697e-01
      -6.7107158882899073e-02 7.5109427019915254e-01
      2.7162045301346194e-01 -9.9339990366674860e-02
      -2.3093395970553526e-01 2.5985541328969436e-01
      -7.8167875337932430e-02 1.8869487990430756e-01
      -4.2583313903766401e-01 -3.3291513230652880e-01
      6.9834723145732147e-01 5.3351273771125252e-02
      -1.3336460839241143e-01 4.7158795290462086e-01
      -9.1957843177432363e-01 -3.1105462015712598e-01
      1.4947879213665519e-01 -6.7577002802515906e-01
      5.8142662738704731e-01 8.9800367443900270e-02
      5.9285643038260927e-01 -9.1247021214269608e-01
      -3.5885893873046198e-01 9.9187194234709830e-01
      -6.0273785623020359e-01 3.8230608767253188e-01
      -1.8586822128172395e-01 1.7474834029833622e-01
      -4.5257794727330908e-01 5.5465490914284446e-02
      2.6805742710391417e-01 5.4242691492914041e-01
      -5.2382079239301904e-01 2.8563525568033582e-01
      7.6645340697822562e-01 -6.9164346917492536e-01
      -1.3904300896944446e-01 5.9970849118416292e-01
      -1.6217150900555929e-01 -1.0455743302615476e-01
      4.0976336691648746e-01 1.1747586215216582e-01
      5.0718954828029505e-01 -1.2301433558645004e-01
      -1.7379732685718602e-02 4.1919953638304785e-01
      -3.8235825386943678e-01 9.1627054455846457e-02
      -1.0457617008093862e+00 4.7215448174835062e-01
      5.3335802542825772e-01 -4.8486623236220289e-01
      -5.6099981912751229e-01 -6.7525207023180434e-01
      5.1976379044311638e-01 -5.4792671689648698e-01
      -4.6498598476181768e-01 4.1032220267936931e-01
      -1.7212665111905251e-01 1.1506556695643240e-01
      2.5204743806315072e-01 -1.0283923043640364e-01
      -2.5207220012632958e-01 3.3816993279689239e-01
      -1.3552293427702999e-01 1.9405562608913807e-01
      -1.7178249802347142e-01 -7.3706413192163289e-01
      1.6045107450855775e-01 -4.5271481538660630e-01
      -3.7145205185129981e-01 -4.4832830853977834e-01
      6.4498719408873506e-01 1.0918129919213067e-01
      -7.1640138808153078e-02 -7.1962113607180056e-01
      8.5093818107441666e-01 2.0022311438962948e-01
      1.7586859102664290e+00 1.7426772786860648e-01
      3.4030630581523974e-01 1.0201102087044091e-01
      -3.7662488211305795e-01 5.5575970587705659e-01
      -5.2842299133304793e-01 1.3250336849370179e+00
      3.9780528752831334e-01 -3.0191882522299990e-01
      1.1762842996834832e-02 -4.0161271337021154e-01
      -2.5643682584880789e-01 -3.0521590656054670e-01
      3.8224509846950638e-02 -2.6040386015357284e-02
      2.4329262168858468e-01 5.4535429932827784e-01
      -3.9191772784833379e-01 5.6824371132277188e-02
      -4.7411975771006376e-01 -2.4477728295649817e-01
      -3.2426165419241748e-01 -8.4950628719083279e-03
      -6.4972218491375267e-01 -3.0369059704041784e-01
      1.0326416446259958e-01 7.2169302978950589e-01
      -5.9562173573824186e-02 -5.2309378508283468e-02
      1.6174972535700419e-01 5.0906486745119450e-01
      -3.9788496659234568e-01 -4.4816053808664330e-01
      -2.7083814519213062e-01 -7.8434020090372022e-02
      -1.0604572740642282e+00 -2.1723589124969245e-01
      -7.3281321290792711e-01 -3.8194038560434207e-01
      2.9768292042701316e-01 -2.0765823127384619e-02
      -3.3969347957447868e-02 -2.0819099199525223e-01
      -3.9574145847178066e-01 -9.5194773476510647e-02
      9.2938304895183368e-03 -2.2017491060012603e-01
      -3.5399617113563064e-01 -4.5381834731585019e-01
      4.0529987544586810e-01 -2.2581013948264633e-01
      -1.0465381463496107e-03 1.7099765587885252e+00
      -1.8043445876642675e-01 -1.1595801325176907e+00
      -2.2521374796349448e-02 1.8353867521085931e-01
      -1.9599089993803417e-01 5.2794579602897007e-01
      -8.4316479699011307e-02 5.5180391213203861e-01
      -7.6426529900963575e-02 2.8700651331621302e-01
      -2.3661545521498453e-01 -3.7844015560456112e-01
      -3.6583259144590918e-01 5.2467073762055660e-01
      1.0297354320430731e-01 -2.2995368243722147e-01
      -8.6714730741732882e-01 2.1647674402002923e-01
      1.7247593596188873e-01 5.4019924018759735e-01
      3.3247533951016134e-01 9.4772965075909474e-02
      4.4662192080728391e-01 -4.7595944282751423e-01
      4.8666584085868013e-02 -6.3433242774453169e-02
      -6.1203723678758370e-01 -5.9308790656106267e-02
      5.6883930922202774e-01 -3.5396249562468585e-01
      -4.3902388475245074e-01 4.8440456021888484e-02
      9.7455516913094273e-02 6.2654677074618004e-01
      -2.3672455731629691e-01 -1.9696907875235110e-02
      -2.0643739398514582e-01 2.7896179035233060e-01
      4.9658951847504662e-01 3.1349508400280540e-01
      -2.9813801863798078e-01 1.8700899598484347e-01
